1.892994555691296199e+01,-3.010963612248671595e+00,2.690277671938932968e+01,-2.552334402353522691e+01,-3.975047692958457191e+01,1.512962041558656701e+01,-3.125500917755871555e+01,-1.242213996590316860e+01,-4.835103090993137620e+00,-1.401822697691980935e+01,-8.051516509491133178e+00,1.134997413516200204e+01,4.467378992678877836e+00,2.674948654635465051e+00,-5.000070682692824953e+00,-6.554412864941391526e+00,6.270489724620905925e+00,-1.148110844028612476e+01,-1.074899538760879736e+01,-1.590740834587904162e+00,1.178084736399437560e+01,-4.493617913466771085e+00,-8.016860199687588562e+00,-4.596513050443420845e+00,1.813951268621144663e+01,-1.727193868755669470e+01,8.175723935548706578e+00,-3.138579629058379794e+01,1.459396515368103486e+01,3.148475654583898997e+00,-1.366114839044577778e+01,3.951399224167423174e+00,2.408732061086297804e+01,-1.910127249659265303e+01,-1.148959958954704952e+01,-3.413982690243027207e+01,1.096948116343540569e+01,-1.885132908018731257e+01,-1.295215852059408590e+01,-1.174990582216506319e+01,1.308768341883364705e+01,-7.388854878847414653e+00,-6.088751882383083291e+00,-7.378402278731820418e-01,-7.625379732491537332e+00,-2.014365027985897783e+01,5.064948466379762593e+00,-1.885418611562558056e+01,7.070991240095891861e+00,4.815976371528076783e+00,-9.758629068402376205e+00,-8.809835087224506367e+00,-8.289949043934503603e-01,-2.549403065329710394e+00,1.835964042848919675e+01,-4.413906390163359816e+01,-7.535133067268514395e+00,9.898265209457246527e+00,-3.051856910226197783e+01,5.550418563058401311e+00,-9.892807737979376626e+00,1.242333316686490718e+01,-4.407885564505771470e+01,-2.412260551676890330e+01,7.349561886069203354e+00,-2.385692109722547727e+01,3.780691064295294268e+01,-7.166308863626666437e+01,3.648880234051132376e+00,3.079158708322540861e+01,-3.267042752087112589e+00,1.951535415746875657e+01,-4.553119363687755339e+01,6.247897554435769329e+00,3.629746289019926131e+00,-3.872344882147039868e+00,-1.428042113939863533e+01,1.741342134023224908e+00,-9.484475451176587191e-01,4.105158981674756014e+00
2.355050257197902341e-01,-1.973284112028987991e+01,4.968176012639639261e+00,-3.022038841985753344e+00,-1.236127971968301686e+01,-3.194242176165826397e+00,1.774167480169950073e+00,-1.343962120058056620e+01,-2.846976637020738821e+01,-1.656063616898952162e+01,-2.850130908449651557e+00,-4.616491466046593928e+01,-2.352014880455862045e+00,-7.220170424124081165e+00,1.153593101080561123e+00,-3.201133674697330012e+00,-4.210477660534729694e+01,-3.801369447898632181e+00,-1.284546050747554169e+01,-3.772047686349461060e+01,-6.871775177651279209e-01,3.599054721502355392e+00,-1.741940061165191400e-01,-6.341340387021920044e+00,5.650470684129288657e+00,-5.139829021217133942e+01,1.098165871940100180e+00,-3.007164614081212051e+01,-5.874216938496130247e+00,2.535881576618834732e-01,-2.745576519138142935e+00,-7.944010524024703201e+00,-9.975980752184046452e+00,-6.097822819435494424e+00,-1.692697916701074234e+01,7.934298725464917545e+00,-1.635662875908762004e+01,7.672949853664606579e+00,-1.145170655908110957e+00,-8.148601801382596932e+00,-3.069341713266353722e+01,-4.708472960631592485e+01,-4.636323284877883921e+00,-2.573978689434227807e+00,-1.032030309341586616e+01,1.648439375781975524e+00,-1.382736586894098174e+01,-9.563673623078036812e+00,-8.984300166538352617e-01,-1.727148767547596719e+01,-2.863534355576026513e+01,-3.024335933090156914e+00,-9.066597760708116738e+00,-9.084342830149347847e+00,-1.991721582512228084e+00,1.087161094575054054e+00,-5.526916116678139979e+00,-5.170577196552817334e+00,-2.501577033119681914e+01,4.611115403943452762e+00,-1.043302832963769156e+01,-2.735101184743178138e+01,-2.100665433375680280e+01,-4.525842956946925000e+01,-9.606965195536211866e+00,-7.762726845211692428e+00,-2.323836264568173604e+00,-9.434825080120932128e+00,1.219397000840445333e+00,-8.915046530821625126e+00,-5.022048200806147378e+01,4.191459334030945838e-01,1.484801324280303980e+01,-4.345047030280360545e+00,-7.124488763021881610e+00,-7.779520060353512179e+00,-1.198650800181161635e+01,-6.263939268226695889e-01,-5.783127479386062220e+01,-1.048786892783492242e+01
1.650678921402117538e+01,-6.657772194425998435e+00,1.695218982630848714e+01,-1.159900425763506071e+01,-1.795549708281465229e+01,6.295629970664973207e+00,-4.239498938193066380e+01,7.238812649085844875e+00,-6.962705972315610836e+00,1.572095242975503027e+01,-1.528004413488133650e+00,9.981106948518657873e+00,2.219986092422450952e+01,-4.775369281711770775e+00,-1.419118886084271836e+01,5.228811638260213890e+00,-8.203418987976997201e+00,3.053964751843609093e+01,-4.196914068546322873e+00,-1.328767367954913325e+01,-1.308519410797643268e+01,-5.271951124653210030e+00,-1.201802456682257869e+01,1.360934285742376559e+01,1.922053930273856404e+00,-3.491303644701504449e+00,5.109923231440799185e+00,1.138457743735449768e+01,8.761908513640557672e+00,-1.392050527421802286e+01,-2.499393158868508280e+01,3.732131554831011755e+01,8.141434465530617004e+00,3.355322504141975859e+00,6.380364463807880249e+00,1.799696339254313049e-01,5.176176016272275859e+00,-9.829541404138013583e-01,1.827681153812733328e+01,-1.169394365687979409e+01,-4.461743682080909323e+00,-1.941396448942244168e+00,1.216669319060380117e+00,2.668340735713545087e+01,2.225536691272916912e+01,-3.851804916743996188e+01,9.242215937709923779e+00,-1.311326217934550797e+01,-1.307096089662429961e+01,2.622848411226765375e+00,-6.721838482255465763e+00,1.241616153687963653e+01,-3.997200329428145071e+00,-7.819154514359565766e+00,-2.407840257622963875e+01,-5.415095672780405067e+01,-3.724151337253742255e+00,2.325953683108730186e+00,-2.544471626305995926e+01,7.571966694424568267e+00,-2.188532388289087915e+00,7.477041546122983329e-01,-5.381132277750058535e+00,-1.672309149859841781e+01,7.788181446759480764e+00,3.748388467504369714e+01,2.622084694132251670e+01,-2.438978938752159209e+01,-1.279310639840435826e+01,2.413956366790562313e+01,-3.518899124639278231e+00,-1.000680098685124975e+01,-7.649290760923181054e+00,1.171484392368678407e+01,7.082482843904895020e+00,1.610597654875056239e+00,-3.746428281660858062e+00,-9.928618518664592330e+00,-6.536543578851993885e+00,-1.066426846384418869e+00
1.507578287571608477e+01,-1.616841019453693207e+01,-8.412398943345968050e+00,-7.954322891562329190e+00,-1.402522010653225060e+01,-2.536902167792593588e+00,-1.824706626342096172e+01,-1.109022364966472196e+01,-1.197873026867653401e+01,-6.126084675505007127e+00,5.104193673048491142e+00,-9.422723309223096422e+00,5.574061114774851333e+00,-1.095353141702383226e+01,1.300839263959494840e-01,3.606495683990694978e+00,-1.694094902331867714e-01,-1.043879367144307935e+01,-3.757485465469128982e+00,-1.763427230194843887e+01,-1.260729238373165195e+01,-1.639963174864240969e+01,2.031251182102306319e-01,9.528214950846592757e+00,-4.759885908991377867e+00,-1.120810766004500003e+01,-2.400041139714631289e+00,1.987603838071228424e+00,-1.030532989824717083e+00,5.170619260493250380e+00,1.607094779850556776e+01,-3.063137839280329455e+00,5.324176965862359445e+00,1.445266802292358932e+01,4.332084776448294150e+00,1.166576037578082570e+01,-1.404400921868765906e+01,2.593464471517493486e+00,-6.787475049780873348e+00,3.730648026913514936e+00,2.465257519794457064e+00,-1.073325977565768419e+01,-1.783335859054195183e+01,-4.844455857792662634e+00,3.649849862074103779e+00,-1.922092070546946418e+00,-1.192461622142919397e+00,-4.585809608789101155e+00,-1.133100659698501822e+01,1.741116327350677340e+00,-9.525252550272853114e+00,3.746154678048070341e+00,-8.507323952680630796e+00,-1.279793039965416934e+00,4.164817382633310139e+00,7.035560450374745756e+00,-8.592497656870097256e-01,-9.476255699539359867e-01,-1.637978191605228062e+01,5.028952558527372219e+00,-4.295530179289810846e+00,-1.153773195317340061e+01,-1.187418245276676920e+01,-7.710448972457617955e+00,-1.042884699229299805e+01,1.665171959337977459e+00,1.401030419025071616e+01,-3.315939693014220868e+00,-1.503088936956944011e+01,8.488459602643350976e+00,-1.905399499350671277e+01,3.302496786655838790e+00,-3.634497060598839369e+01,1.317227043798446795e+00,-7.438121583742196563e+00,-1.627466080953927863e+00,-1.523865673212972283e+01,2.799599510461345808e+00,-6.520719424279969090e+00,-4.323526162066617218e+00
-1.327896185638568127e+01,1.071689069989964604e+00,-1.267785022896341929e-01,5.617697094365516897e-01,-5.543713513192722431e+00,3.173510761118149670e+00,3.897414845786463466e+00,-1.551672889118919052e+01,-2.896559784169836149e+01,-1.739959582645295200e+01,8.945466699386500631e-02,-2.258698424452027709e+01,-4.339962818118264565e+00,2.271577521585969706e+00,-7.901541706493311334e-01,-8.351729538555836996e+00,-1.879506874223931590e+01,-8.620280884771229779e+00,-1.750306568970621868e+00,-3.872021784334673100e+01,8.617847410413679299e+00,2.819473126523001749e+00,6.363976991516162585e+00,-1.561927602423601513e+00,-1.847640685255813597e+00,-4.718054760287142813e+01,4.158208177714114662e+00,-2.111231707697125515e+01,-4.118237390248840946e+00,-4.091495454031556456e+00,7.001096612492701432e+00,-1.324484286831050106e+01,-1.394289152778874774e+00,-7.366482995122785482e+00,-1.751061046476960215e+01,-9.976809676045384379e+00,4.678118680883110447e-01,-5.446940786531087042e-01,-2.339861882330991794e+00,-3.758912828270595696e+00,-2.209826450258451658e+01,-3.973316672690298645e+01,3.336735208232290084e+00,-6.454262624772020729e+00,-2.407837755409878433e+00,1.116886853073031460e+01,-1.580537495662879621e+01,5.923939900325278174e+00,9.796224186191755834e+00,1.212444707592182924e+00,-3.088905650511950540e+01,-1.248231792681846919e+01,-6.015288292928855363e+00,-5.258295293770798295e+00,7.129498916178929946e+00,6.682128797568808842e+00,-5.502627819768475703e+00,-2.694722484360245751e+00,-2.357341973506646227e+01,3.829489158897207979e+00,3.158447767035868825e+00,-2.148406958026184910e+01,-2.184851879847051137e+01,-3.168526170554238064e+01,3.330748696412477727e+00,-1.506172056190626307e+01,-5.143495012054814630e+00,-4.041476405755597412e+00,3.155341135293979082e+00,-9.088522608084529608e+00,-4.238984534201805587e+01,6.752528950211869940e+00,1.298250077830027749e+01,-2.447748573781427517e+00,-1.295838449886098087e-01,-2.368148344616808121e+00,-2.053033597023095069e+01,2.531658677975438532e-01,-4.390105384076223061e+01,-1.536936374683688822e+00
8.670566875590044020e+00,-1.501378765235569368e+01,5.746249697578972082e+00,-1.278239466857528583e+01,-1.183700916534223069e+01,1.270801551690766695e+00,-3.255095497165519269e+00,-1.019264329178859541e+01,-2.123237453272663799e+01,-2.121860635420864583e+01,-3.755123793403254862e+00,-2.709387870695768896e+01,-3.362822419011320285e+00,-1.281526166338843886e+01,-1.271290477627564419e+00,-1.061543730348628856e+01,-2.019593908401767735e+01,-2.777029543663325839e+01,-6.877669920853419327e+00,-2.440826796447282376e+01,2.237349844079317762e+01,-6.670204521939857023e-02,8.116759948028956506e-01,-1.215825264617632406e+01,1.356820492920407872e+01,-2.174099270833419695e+01,-1.532073573044124559e-01,-1.398220920271717205e+01,5.469527107480939065e+00,1.801579534372160651e+01,4.695381435886214483e+00,-4.932201341382729254e+00,2.657380525507850422e+00,-2.014174145844378927e+01,-6.873907931614237299e+00,2.605027610372246727e+00,-1.166084767129898836e+01,-1.398958619781832624e+01,-1.487068221942321466e+00,-1.772696605290585925e+00,-1.028262406730634027e+01,-2.607358574960134590e+01,-1.217404965493433444e+01,-9.285392110360550788e+00,-3.121812558967623019e+01,1.529172273443988495e+01,1.579668642463242456e+01,-1.688727871351307286e+01,7.310732735339634303e+00,-4.649931660058805427e+00,-8.822785957287342384e+00,2.140260978069387310e+00,-1.604483448320012329e+01,-8.256487180123009750e+00,1.186159287059049028e+01,1.262509024026918780e+00,8.330925445569187460e+00,-6.237884268871773052e+00,-9.641490889159094024e+00,2.187174154588447994e+00,-2.099424195209937238e+01,-2.017995250812717245e+01,-1.511883212097543883e+01,-1.853613115368408515e+01,-3.965424003250874296e+00,-3.034736726077960256e+01,1.680906060177033723e+01,-2.584434264854818153e+01,-1.043164849934858829e+01,-2.429794041727933340e+00,-3.318692444382639906e+01,7.460867406487396991e+00,-1.035208775233824596e+01,-2.580468640652893164e+00,-4.375780230400806659e+00,-7.951409861339753249e+00,-9.622651734259218159e+00,3.724058809055011743e+00,-2.256054374467018420e+01,4.682906954236050190e-01
-4.166122420533238824e+01,5.634220303616225500e+00,-9.019441231369865974e+00,-6.670545945788372677e+00,-2.048816604587931067e+01,1.178534456281865372e+00,-1.463007871065216037e+01,-3.766055674879535786e+01,-3.696377393752651130e+01,-1.707588660947652315e+01,4.002860199304811850e+00,3.651043506326295152e+00,6.246690079002227947e+00,-3.201026484324890564e+00,-1.303364309640821794e+01,-8.508963889014275139e+00,-6.015669479279750043e+00,-5.514775607611111852e+00,-1.229887160390827816e+01,-4.960045219907602387e+01,7.097003136374249177e-01,2.820001268276582707e+00,9.847066930561366505e+00,6.707710787609166836e+00,-1.318778321449064528e+01,-5.991487288395109090e+01,-5.812330434795176082e+00,-1.911939762909366536e+01,-1.484376617839050461e+01,3.264948958620818242e+00,7.002925545410525920e+00,-8.811240750454382820e+00,-1.093647609338107252e+01,9.419209121362600357e+00,-1.651893881753788307e+01,-6.505642612767587707e+00,-5.129855814891464583e+00,7.726211296803331408e+00,1.471708579112627424e+00,-5.171060611045241728e+00,-1.854617292606943835e+01,-3.115138432507874455e+01,-6.200276709354665350e+00,-1.835476235544904577e+00,-6.053191533923568457e+00,-1.304789494819157980e+01,-3.640485995826707466e+01,-6.719276956208422469e+00,7.783774812408064570e+00,-1.543769761581265776e+01,-3.789124812764728034e+01,-2.907990646900210052e+01,-1.195168981146171561e+01,-4.836513327502657056e+00,2.914414452951267442e+00,9.126349425063020604e+00,-2.250055670825913956e-01,-1.747817599799015653e+01,-4.124797036939052219e+01,9.971132949336501738e+00,-3.775426064897264400e+00,-2.446542487067251415e+01,-2.617282837228705006e+01,-4.666231606201785098e+01,-4.820221011252604271e+00,-2.809567261880800260e+01,2.038226552488153942e+01,3.492678528476777622e+00,-4.138005286263045868e+00,-6.388391032925404112e+00,-4.388545403728555527e+01,5.453099826657131111e+00,-7.018918100186883891e+00,-7.821308882969616683e+00,-6.155355202901063194e+00,-1.453632248793497439e+01,-2.997210627217385337e+01,-1.447773462842512870e+01,-3.508271805352683259e+01,4.203533080351962603e+00
-1.190253791659943694e+01,-1.175447839382652404e+01,-2.007973577989416114e+01,-1.026060667876301657e+01,1.451174617231524522e+01,-4.364812087946463137e+00,-3.156023406362041595e+00,-3.045002618578124487e+00,-2.363843955728674473e+01,-4.749912649797596309e+00,4.711876646305846350e+00,-2.831377997430196913e+01,-8.845152236585684946e+00,-5.344276014684763432e+00,1.887602703596433784e+01,5.401718658452805855e+00,-1.828711872937152094e+01,-8.276961238191566039e+00,-1.031271053962732331e+00,-3.532046998757846978e+01,-1.964732964666684456e+00,-8.628247864360266917e+00,2.561419302779975871e-01,6.048104306844064304e-01,2.674935163710850272e+00,-1.704728511365755494e+01,4.614207581874670838e-01,1.860568221492220431e+01,3.677664487702351881e+00,-5.779911952224558114e+00,3.811143069229984359e+00,-1.131473559365885428e+01,-3.107387367302420600e+00,-2.165585279107263172e+00,9.252858702561136184e+00,-6.041112842763454172e-01,3.767084331422853705e+00,9.440236347902143166e+00,-9.161630176737350695e+00,-4.170079380517078604e+00,-1.808987623440007297e+01,-2.662555796282998344e+01,5.452660309843039954e+00,-6.213789547489620091e+00,4.745137790200452343e+00,2.394955739447247822e+01,3.629963231644060873e+00,2.571359854625138830e+00,2.303255144607468274e+00,2.194835825978161026e+01,-1.259191025622781268e+01,6.162651802374681687e+00,-1.622180135051532446e+01,-9.766642459929645526e+00,4.836431479952646662e+00,9.867170525014714144e+00,4.654182445895260756e+00,-4.844294064662809096e-01,-3.197387945743181970e+00,-8.409184140060363077e+00,4.538865484068185019e+00,-2.852636970010219741e+01,-2.806249261083353375e+00,-6.280839370676725153e-01,-1.202697544544826869e+01,-1.582747359749975757e+01,-1.276268770212427306e+01,-1.625645449639331108e+00,-1.089328794094270236e+01,-2.018977001436955021e+01,-2.975834570849610472e+01,2.016938222403045433e+00,1.094883125804201995e+01,7.824289467499458084e+00,4.248550280745545749e+00,2.615026237923763208e+00,-6.030033009384303533e+00,7.837434771488553054e+00,-2.572943148341215291e+01,-1.461479121652914381e+00
-7.006509186761310737e+00,-8.136570070825570156e+00,-3.809595513426633051e+00,-6.426072620365575361e+00,-1.613724447173038357e+01,-2.663579861017090877e+00,-3.502974122387921163e+00,-1.934303644932274935e+01,-3.161511115709287623e+01,-2.506057446360886232e+01,-8.627281043889814427e+00,-4.578503259220323685e+01,1.685988121739690593e+00,-5.626716273896899878e+00,3.837776280472546375e+00,-1.591839796100458004e+00,-3.270316964144857508e+01,-7.516316755370113789e+00,-1.373577922367882742e+01,-3.883209563872114245e+01,-9.534668392884084742e-01,-3.260184485226484519e+00,-3.830648090891044077e+00,-7.840372085977552530e+00,5.428826917925246853e+00,-5.394050438026749816e+01,-4.001608278476160407e+00,-3.083503555035029819e+01,-6.780185503851022588e+00,-2.240178388997672076e+00,-3.611140584914227958e+00,-4.767183530573265715e-02,-9.652224643490352918e+00,-7.371230497279760208e+00,-1.370912830112354008e+01,-3.765971421177114475e+00,-6.729746261824554487e+00,2.784284109644204808e+00,-3.690425709164794288e+00,-1.164350162803659217e+01,-2.800168878514990212e+01,-4.686770560936030705e+01,-5.477956536243355323e+00,-9.899883134399201978e+00,2.091547538348729196e-01,-5.223001056975387635e-02,-7.402907383950899423e+00,-4.920857076609286729e+00,-2.581312904649499362e+00,-7.822665343640284874e+00,-3.011628631338001938e+01,-2.494829477176502053e+00,-1.274007139915509690e+01,-1.652532884653848200e+01,-3.882203825019231225e+00,2.641325172516837849e+00,4.472421014202939027e+00,-9.369833115205619123e-01,-2.889118537045401425e+01,1.647907351612122984e+00,3.062587457683489944e+00,-2.625090126763803511e+01,-2.330649723665391804e+01,-3.557880492078881929e+01,-1.145036549435724993e+01,-2.061729693107941586e+01,-5.113648270715041022e+00,-4.400603242757588518e+00,1.174395326453087307e+00,3.508680802870625670e-02,-4.813051734887969957e+01,-1.647130271845856697e+00,8.521624631361618185e+00,-5.634086833063735256e+00,-3.517828652146110180e+00,-3.934326532480440619e+00,-1.733016147928496409e+01,-5.241222682112971043e+00,-5.464579767507576946e+01,-6.287759624530678160e+00
9.373330844024414077e+00,-7.597695796163399073e+00,-7.191993057650602594e+00,-4.620079022512642908e+00,-7.234086696061979183e+00,-9.769437694136021477e+00,-4.890873516597968518e+01,-8.922804918145381237e+00,-5.765485851373686188e+00,-7.305699400608459904e+00,8.138009598256349619e+00,-2.505598735109265718e+01,2.908110062706293686e+00,-1.277427726953045983e+01,6.337264388800877057e+00,4.271820213674489608e+00,-2.012990562954654905e+01,8.204873122578048239e+00,-1.542856785991714474e+01,-1.943174182536818151e+01,-6.183658870341801617e+00,9.928485663804558214e+00,-5.885240263704970332e+00,1.496333482501091616e+01,-2.092876298802361479e+00,-4.940542284612040369e+00,4.083096386104551057e-01,2.283751627307990972e+01,4.009821255709148602e+00,-6.186822925907504711e+00,6.995168179670354647e+00,1.017032574055252381e+00,-1.218601481736700975e+01,1.119894422693738179e+01,1.453410251007064957e+01,3.333222986596450710e+01,-4.275668907056155987e+00,1.991738910167913446e+01,-9.898543154265949440e+00,3.651663205653375321e+00,-1.266796461619017222e+01,-5.298334357662832339e+00,-1.224196530324660515e+01,-1.399754661032989311e+01,3.699306379611337459e+00,1.082777034264078608e+01,-1.876971491537679171e+01,-7.070805651483126120e+00,-7.771758174047760370e+00,-2.028823356651144394e+01,-3.162504822889045553e+00,9.149789671426489690e+00,-6.945363818158511116e+00,-9.529367373131941932e+00,-1.125976306671503302e+01,1.126475001831660983e+01,-3.091406340565277855e+00,-1.278650620139055727e+00,-4.327614653004617118e+00,1.669486121802823675e+01,-8.375752013702040699e+00,-7.912493110441239708e+00,1.383893919593016797e+01,-1.831586171305540134e+01,-1.728412416068227841e+01,7.793825658247764743e+00,2.953885484002664708e+00,-9.997295793174128420e+00,-1.210504865293602705e+01,-2.313585642618395255e+01,-2.976833447561658375e+01,1.751661241596922380e+01,2.356928287743291861e+01,6.712253407929778426e+00,-1.351739992630562881e+00,-1.051778039074990545e+01,-2.518153097007628904e+00,9.651721448242385648e+00,-1.974739164977893324e+01,-3.338056909591631438e+01
3.150306805167602420e+00,-3.562007056345098022e+01,-5.339037052829496588e+00,2.572214062462165884e-01,-4.686754183876391089e+00,-5.498951600801034623e+00,2.722960258462002514e+01,-1.207719032569808348e+01,-3.888938336653875183e+01,-6.700072874128673917e+00,-6.722474226794572516e+00,-3.604073110369017030e+01,-2.583646306949888505e+00,-1.277572487487641517e+01,-4.287547647943769746e+00,5.929377735420161555e-01,-3.075078076991732701e+01,-1.241328342986298594e+01,-6.241450536824181050e+00,-4.596408007601733203e+01,-3.135567415584554762e+00,-1.853159466968330227e+00,8.455193384715546046e+00,-7.902520514488550418e+00,-8.550268348863772072e-01,-4.893131350706792659e+01,-2.512342723232746433e+00,-3.501406478635406927e+01,-9.603137175945496651e+00,9.869333082856035944e+00,1.111871567160395280e+01,-6.672598238326824749e+00,-1.300845781004495194e+01,-1.344711332597454123e-01,-2.685298146779307160e+01,1.285693910654558003e+01,-2.653694323113468911e+01,-3.166051072705933223e+00,-7.105082568882455929e-01,-2.563599440149773034e+00,-2.746754442656039785e+01,-5.097639225925038886e+01,-1.014257071905002405e+01,-2.425440004337401090e-01,-1.795815672827879439e+01,8.668549075313208618e+00,3.808220656953484884e+00,-8.990171663995294438e+00,-9.575732936720401156e+00,6.053112963411139136e-01,-2.737739027485836019e+01,4.223388784893662873e+00,-2.003964762286921442e+01,-8.617318782018593026e+00,-1.923391514319447437e-01,2.023952297965345082e+01,5.766180939336697620e+00,-1.578851234510527135e+01,-2.088834866491268372e+01,-1.535154430257646752e+01,-5.260640498988153446e+00,-3.934118887224561689e+01,-2.761297748225014459e+01,-3.142888585565716753e+01,-1.292716652338806149e+01,-6.849324567827686394e+00,-4.111273189604131240e+00,2.905708414672828255e+01,-5.793647464507716727e+00,-1.473181997238178775e+00,-5.306287233333064535e+01,-4.285322969113519953e+00,-2.017576931785118599e-01,-3.792898120071163781e+00,-5.115821969061765451e+00,-2.578939266848434997e+00,-1.451962529770672639e+01,-1.117952381848771815e+01,-5.416209678916806780e+01,8.894775617110058263e+00
4.240056431567346351e+00,-2.153742096495987468e+01,3.537692611665700593e+00,-1.215320276991984638e+00,-6.773744787605372686e+00,8.722301041982142289e-01,8.147479432621132389e+00,-8.831826483730933930e+00,-3.612964193435887239e+01,-2.672139063639886736e+00,-4.083702924369254639e+00,-2.483406899950840696e+01,3.458386242709575176e-01,-1.019660393609986926e+01,2.754361664271824939e+00,-1.261451063049167765e+00,-3.209642278897025847e+01,-5.176795775369800623e+00,-4.538006514362852961e+00,-4.018240592183848747e+01,4.181014818134587863e+00,9.588723689683213536e+00,4.626793267922188591e+00,-5.181416868797271036e+00,4.534855764090576002e+00,-4.776948138285265344e+01,3.754049167168433510e+00,-3.057238335168250742e+01,-4.036724464912236909e-01,2.306945825058852151e+00,-2.407634179925298934e+00,1.501977626734063431e-02,-3.027800312017189022e+00,-6.046153196587621181e+00,-2.227247297711119600e+01,-6.906944925303564187e-01,-1.611357214528183235e+01,-5.334527286568624405e+00,5.455540422716921967e+00,-2.269346819259424386e+00,-2.824855075433059426e+01,-4.393486379123176278e+01,-6.220887131304345452e+00,3.099642794142221547e+00,-1.351308884321997184e+01,2.334491615601529624e+00,2.306030290639601965e+00,-9.477318714597533500e+00,-3.565086274589173709e-01,-1.881966748241947984e+00,-2.863766000250604549e+01,4.951614591038941526e+00,-9.137477085092761797e+00,-8.265185978199641070e+00,4.150729306792956486e+00,-2.311285221450576355e+00,-2.478801235932683866e+00,-1.260612936305651566e+01,-2.587633046467345821e+01,-4.323700668048115148e+00,-3.840201380984267221e+00,-2.676605727958591530e+01,-2.443008983947777324e+01,-3.703404363917574926e+01,-1.763857437458955235e-01,-4.447477043574482813e+00,4.863107850182509573e+00,6.085312684819906615e+00,-3.196207626336521113e+00,-1.906507868668850358e+00,-4.757529126053693602e+01,1.953631675535309586e+00,5.078052392033019835e+00,-9.872903001118258359e-01,-8.471671885092183496e-01,1.189260247984034402e+00,-1.207379173452487642e+01,-1.538320457766109817e+00,-5.273001140908854012e+01,8.405327084822717953e-01
-5.201724567805768196e+00,-2.121675886438633896e+01,-8.931767087284917750e+00,-6.543901136061855084e+00,-6.308440543711700599e+00,-8.383415418026858745e+00,-1.771904457996699822e+00,-1.679163121230377698e+01,-3.368534727222733949e+01,-2.185743925084112504e+01,-9.205435461525496521e+00,-5.243930825251992189e+01,-1.031393410029969093e+00,-7.328466309624888098e+00,-3.165253620170013438e+00,-2.898272345827458629e+00,-3.445777933514057167e+01,-1.253858779910492061e+01,-1.407296525184075087e+01,-4.203607656848438978e+01,-1.588918924291673029e+00,-8.076177391548485573e+00,-3.179863966210885184e+00,-1.213273288569902419e+01,7.245163557203527560e+00,-4.987317544109421874e+01,-1.012818306574392935e+01,-1.617798788933292187e+01,-8.745031105894327084e+00,-1.150372140795045128e+00,1.077464852731839118e+00,-3.294367520848719977e-01,-8.024004999414502848e+00,-1.561207151778612356e+01,-9.316532183043110038e+00,4.188079736097919614e+00,-6.371697870426380916e+00,7.377061279844401298e-01,-1.199243706760909056e+01,-1.698000231674929594e+01,-2.417679479880469628e+01,-4.821650371152333747e+01,-1.893685772191181782e-01,-1.369234087273079403e+01,-3.542716621306322367e+00,1.960866605463510481e+01,-2.668370636598160317e+00,-5.329361237193983136e+00,-2.112814649249301180e+00,-2.921755844834031390e-02,-2.748344036810743773e+01,3.011634723258620916e+00,-1.110641182553418460e+01,-8.281432010238248154e+00,-2.119552743515748239e-01,2.397804796626613388e+00,4.943562373793278120e+00,8.579250191749109022e-02,-2.569018943838710811e+01,-4.381365166143066148e+00,-1.785798464592482704e+00,-3.654732433237821709e+01,-2.531349816085267079e+01,-2.687731105015883770e+01,-1.952799646913406661e+01,-1.399020236053697808e+01,-9.084501215793466145e+00,4.788055227171644113e+00,-6.037208469663345456e-01,-3.339502701933683593e+00,-4.696154498197083171e+01,-6.032848559587443482e+00,2.631390922858553694e+00,-6.839363736080689371e+00,-2.651846669077434715e+00,-3.903302771164302243e+00,-9.627586017432248511e+00,-7.017003005749231193e+00,-5.352051379158329070e+01,-1.326357834381711065e+00
2.355184715795575556e+01,-4.418811384063078052e+00,-8.634527282224734535e+00,-4.422563617325702801e+00,-3.191663124059667922e+01,-3.520738024142654465e-01,-5.330615080740604839e+01,-2.584744573721466310e+01,1.253853001224181751e+00,8.243614088361306713e+00,-3.338473317652542960e+00,-7.384231358981220517e+00,-2.821076363263234632e-01,3.126791515224148554e+00,-4.144321349179101333e+00,1.045306589075039838e+01,1.981411588827120429e+00,-8.778082091076024440e+00,-1.407584127987692213e+01,-1.268539443270596045e+01,-3.620785953127428058e+01,-7.321310579357992454e-02,-1.258668925490957413e+01,2.088946747253051228e+01,-5.830218694323615836e+00,-2.344336438987454230e+01,-4.416045318405806830e-01,-4.181714214546563113e+00,-1.282430322303189740e+01,-1.520870982232222879e+01,2.223057517696177321e+00,4.733391247376274036e-01,8.794276027418325370e+00,2.506427282135904022e+01,-7.930148379054072771e-01,-3.979076560698167064e+00,-2.824416270703269394e+00,9.149191708829242486e+00,-1.836958192400383538e+01,-3.187639958300793053e-01,4.885943754322034316e+00,-4.819896547397751974e+00,-1.679711071474630657e+01,6.596276488381126457e-01,2.802335542614514097e+01,-4.816350727843406077e+01,-2.928801019411185180e+01,-1.321216621271960889e+01,-1.799398281859027549e+01,-1.764970290144420062e+01,-1.568338907851680020e+01,-6.691379446001792353e+00,-4.294086345043587549e+00,8.169029801310538019e+00,-3.940058925167542192e+00,-9.193659144397454241e+00,-2.583458552651358175e+01,-2.042136243091964953e+00,-2.836242994922499605e+01,6.195154698146349226e+00,2.783659836131445076e+00,-1.278608022629214247e+01,-7.248723426287558169e+00,-1.629476101159567980e+00,-1.396823869644876304e+01,2.389782535024886201e+01,-2.129560366008644401e+00,8.798478541935115249e-01,2.096587855308702508e-01,1.643219483220933252e+00,-9.456929017736472431e+00,7.575404620914728326e+00,-3.206008907621837523e+01,2.169786524591218679e+00,-2.096394374947932704e+01,-9.846781719182198245e+00,-1.405606708834868002e+01,1.255290973771415608e+01,-1.151567474225366539e+00,-1.580387129053092643e+01
5.445155728190139044e+00,-1.488969007504656439e+01,-6.045439306730885143e+00,9.130788629943642931e+00,-5.039546718083511401e+00,-1.450577190200552868e+00,4.481101159720565441e+00,-1.105052730205816047e+01,-1.797005979950424503e+01,-1.419517628705063927e+01,1.948924371630040842e-01,-4.228602245219060762e+01,-7.030017375372562327e+00,-5.096150296800040280e+00,7.058658034739294429e+00,3.701210235613178190e-03,-2.384715937261518448e+01,-1.014673558284381727e+01,-8.410350487046368784e+00,-2.460989853006428518e+01,-4.247062262673580335e+00,-2.220713317102706696e+00,-4.652519012454447100e+00,1.392245810673977902e+00,2.557094818589806806e+00,-4.493356064021516971e+01,-4.770902234248092455e+00,-2.465534698871965702e+01,7.558487719374814562e-01,-3.092522980412380385e+00,2.616044920196222812e+00,-7.170512982490106602e+00,-1.769087338561268430e+00,-2.201527906506791865e+00,-9.157149049830312748e+00,9.847898620874191433e-01,-9.154900670915205652e+00,4.562649654598128990e+00,-8.536432248098462239e+00,-8.010669357083202158e+00,-1.583611372655952820e+01,-3.811159907513328449e+01,1.813806027760280770e+00,-7.819884997411505445e+00,-1.224068305358359865e+00,9.738360914156141135e+00,-8.967645467424647521e+00,-4.168914368578271024e+00,-3.614849824290998215e-01,-1.242907536941047475e+01,-2.802983164608143341e+01,-3.856537245020645877e+00,3.298491970930685913e-01,-6.259615615266014288e-01,7.866744201049230334e+00,9.316803799003779973e-01,-2.872262424348629217e+00,-2.025855896450720284e+00,-2.483434493990991143e+01,4.775571475792670939e-01,1.044855094778273541e+00,-2.101220631961001217e+01,-2.037039972215777794e+01,-2.184131853319608751e+01,-5.454955854392096626e+00,-1.199294847322108026e+01,-1.261441542023858453e+01,1.441585880158680055e+00,4.218965909658677127e+00,-8.949580291958449507e+00,-3.255282426363886827e+01,-8.674959143018744490e-01,9.007059600017575107e+00,-8.245514388877362988e-01,-3.489399033656735316e+00,-7.927702006865050555e-01,-1.324966450578460453e+01,8.350322805141729532e+00,-4.035637642707438744e+01,-1.340668531742769787e+01
2.655467677400802362e+00,-2.275548638286262459e+01,2.587548969648548192e-01,-1.159961260322991272e+01,-2.856680691853015208e+00,-1.771805617632957519e+00,1.210569292116518092e+01,-7.351149991643873172e+00,-3.715523072959933160e+01,-9.691131095323456179e+00,1.094783219815725905e+00,-3.998882220679779920e+01,-1.791212639389793582e+00,-3.773990506537283629e+00,2.978857028445134780e+00,3.494878663626023840e+00,-3.372479289490815546e+01,-7.483922472546688631e+00,-2.789967102191426740e+00,-5.007075732075377061e+01,1.404824220870360962e+00,-8.751570782658159686e+00,-4.539876662256505657e-01,-5.990110720681887102e+00,4.258217578113396407e+00,-3.996366469418948242e+01,1.920014193301324168e+00,-1.693883746493669662e+01,2.760771297697615534e+00,-2.048993710120568412e+00,9.628983139010516279e-02,-1.988426063023039370e-01,3.358030545500328756e+00,-1.480834094651425570e+00,-1.037832890425983656e+01,7.334369193981265411e+00,-7.559228322802638900e+00,5.920914648948667480e-01,-4.515532848942945598e+00,-7.333217117108632443e+00,-2.614561777804342313e+01,-4.935694089257580686e+01,-3.608471358035914012e+00,-2.227245782815117536e+00,2.475488722232412009e+00,1.043180725546391585e+01,1.126600149260677775e+01,-7.153020914318055645e+00,-3.343866341665156838e+00,2.066711482147180590e+01,-2.566214053335243506e+01,1.077159574425591160e+01,-1.982627140373041286e+01,-1.211792111712567710e+01,3.717399267980423971e+00,2.564611242637841126e+00,2.604255030686661421e+00,-2.798277530194113183e+00,-1.936327467950605197e+01,-5.087554135625344642e+00,1.721205814898775444e+00,-3.553189118040160110e+01,-2.784351549923920288e+01,-2.433169206731221834e+01,-3.802874594570715860e+00,-3.830769174672742139e+00,-4.377755650355747541e+00,6.145518402104037659e-01,-5.539634971843131694e+00,1.999001527684167057e+00,-4.806736505091914324e+01,-1.282115583486719057e+00,1.257086366301311209e+01,6.978603297228862523e+00,-1.574645945047228324e+00,1.407937197076177815e+00,-1.412531345826127449e+01,9.593925564504727221e-01,-4.853147171250255099e+01,1.463130612812892251e+00
2.808205884747521530e+00,-1.344226905219331591e+01,6.769038089468749853e+00,-7.223605099422250930e+00,-1.223806219307148879e+01,-2.374942251172769581e+00,1.055388440987546694e+01,-1.842385898033136371e+01,-3.320886650000711882e+01,-1.591953185712757346e+01,-9.731099646097739253e+00,-3.679110263739933373e+01,1.361221847678029784e+00,-1.319850049049586804e+00,1.079750778599108507e+00,-1.242914771047425981e+00,-4.056887783687131588e+01,-8.695079001478070779e+00,-1.295651190709729228e+01,-3.613524784768255671e+01,8.437183196691593778e+00,1.043007220180280292e+01,5.364644855332581841e+00,-6.931400524864396395e+00,5.544854594212139887e+00,-5.564999833311522082e+01,-3.285801154806397228e+00,-3.514731375776197098e+01,-4.865499373471588562e+00,1.103803962322952614e+01,-4.590522073087587529e+00,-5.094389995980640684e+00,-9.741560489360841402e+00,-1.412530860427185786e+01,-2.068816938609232281e+01,-1.511491318253221028e+00,-1.167079337578322473e+01,5.464752621407543032e+00,-3.591306504259854204e+00,-7.108667269018070556e+00,-3.388852397885605683e+01,-4.842479922694002425e+01,-5.688224919958211778e+00,-2.817427154624494001e+00,-1.197284040570177766e+01,6.274738319199822278e+00,-1.132499084745961326e+01,-7.672496798026667619e+00,3.600296946188221270e+00,-1.421590415425152543e+01,-2.827554210386226075e+01,-5.375141305465183095e-01,-7.650875723975257614e+00,-1.022507917114395326e+01,2.807340287126864453e+00,6.159323940756621374e-01,7.083996208508146708e+00,-8.594789649110802898e+00,-2.474641584310574416e+01,-3.926578509243211723e+00,-1.868783054291425438e+00,-2.650048494854092240e+01,-2.320626919123450804e+01,-4.198258955997496855e+01,-7.635348424203566076e+00,-1.289224424025960580e+01,3.789808303498687803e+00,-3.320422895489658632e+00,3.047305939948165676e+00,-5.261008948211840064e+00,-5.399013743523084230e+01,5.824726621582385633e+00,1.640661395080690355e+01,-8.644019673548186233e+00,-2.173864921086901880e+00,-4.171956405617555319e+00,-1.235587945207671901e+01,-5.685645313937923717e+00,-6.005259043297268562e+01,1.007786324136578759e+00
5.664267840248820463e+00,-2.242539308326179892e+01,-8.884119058515415057e-01,-7.094721606497047972e+00,-6.527288267927554344e+00,3.413539193932632276e+00,-2.502168758936207382e-02,-7.815823284255143832e+00,-3.761553829053652009e+01,-6.862740688064217665e+00,-2.872391297839396618e+00,-2.820044924492565031e+01,9.817184893031369874e-01,-1.429406095997945947e+01,-4.985638538650483120e+00,2.276446418947155603e+00,-3.145302833919446783e+01,8.833635894565877722e-01,-9.262823925600859098e+00,-4.724962380011076135e+01,-2.734766677524282930e+00,3.749362376661865337e+00,2.898548946584448061e+00,2.750467632435028564e-01,9.959552460161296139e-01,-4.357326031380938502e+01,1.140197438444068290e+00,-1.947915509369564546e+01,-2.369593101986559258e+00,3.876583076000048589e+00,-2.226669017319080623e+00,5.762235534701406259e+00,-3.821325690241035300e+00,-2.088129829534065562e-01,-1.395437990585164734e+01,1.055731483847738161e+01,-2.019458246754841468e+01,-1.457665205523817953e+00,5.028462435973168887e+00,-7.523065702165949720e-01,-2.555464106961956361e+01,-4.118430256848036919e+01,-8.830493780746243360e+00,6.000113449810147159e-01,-1.018321640846276566e+01,-3.485590620185168742e+00,5.132739736321723534e+00,-1.156574175584072428e+01,-4.662981557297129598e+00,-2.792705076467045799e+00,-2.896618138950313082e+01,3.964421734914885587e+00,-1.805619969655320034e+01,-1.039433417750913335e+01,-4.811996337289863312e+00,-9.287195649853973167e-01,2.582252933301736775e+00,-1.540049568307338923e+01,-2.687478747894344977e+01,-1.470495016742247918e+00,-1.042222511470158253e+01,-3.257218357670902975e+01,-2.033247967469008444e+01,-3.724511445098264772e+01,-5.601551526327695818e+00,-2.508768901189982525e+00,5.909294386597150783e+00,4.718744746557860026e+00,-9.079751071480135494e+00,7.018128212612304573e+00,-4.807526990030449809e+01,1.263122350290041940e+00,2.739692729905706114e-01,-3.658119012031179729e+00,-3.895773873648955998e+00,-2.363850825865777772e+00,-1.568426715912161740e+01,-3.661194280561223646e+00,-4.811913250185441626e+01,1.178091292341526763e+00
-1.929332260614304850e+00,-8.078792468371640112e+00,-3.215234424916620259e+00,2.271800236749028201e+00,-1.505573105147821700e+01,-8.821418008176891146e-01,1.802341618846851512e+00,-1.146415836021665058e+01,-2.471072476782909177e+01,-1.480781862834660600e+01,-5.118218778517971135e-01,-9.786081397293575179e+00,-2.547553365263662606e+00,1.584389692528659133e+00,1.234196214914998313e+00,-1.140208962755768080e-01,-9.183377963946259825e+00,-8.128762525888733492e+00,-5.907558453721441616e+00,-3.264983322711929503e+01,1.561550987739937613e+00,-9.991247048629244176e+00,-5.323807368512752269e+00,-3.714904110528844505e+00,-7.500524614476105967e+00,-4.614418764033312215e+01,-4.758636698633277540e+00,-3.798830454330909845e+01,8.136682874171246027e+00,-8.738238666006543198e+00,-1.116187508387978422e+00,7.081928054537314221e-01,1.093922049572636901e+01,-1.857534731365263703e+00,-1.724663070880166416e+01,-8.601791028410374906e+00,-6.270633996179570957e+00,-7.198155883144819356e+00,1.093580669670192185e+00,-7.395552693369538133e+00,-5.737421717587690040e+00,-3.757833855239584864e+01,-2.781896568479874876e+00,-2.896207000588579827e+00,5.411385169654220340e-01,5.943929289543572470e-01,-5.764948104470590806e+00,-3.386593084087610173e+00,1.834340991341762095e+00,9.575152472289881089e+00,-3.482319285529572284e+01,-1.039116921534106908e+01,1.742607304210914976e-01,5.863815578868814882e+00,5.450710800173572679e+00,-2.864622513359337042e+00,-7.706026598770060687e+00,-3.193039758970783737e-01,-3.492816941277916243e+01,-2.695286719611742932e+00,6.139508127466998921e+00,-1.938149548415813328e+01,-3.664206319258921241e+01,-2.697319208671439839e+01,3.654608156125777718e+00,-3.883545248874847644e+00,-6.172864004985537889e+00,-3.427427794824829732e+00,-8.922929349294016488e-01,4.069039992955500118e+00,-3.284666958173252027e+01,-3.556890458976729619e+00,-1.123510811701965473e+01,7.559630765324892865e-02,4.106119272817286836e-01,1.662818787917622831e+00,-2.433954060121276797e+01,1.891062969308466846e+00,-3.458468633237132650e+01,-8.289716706901160137e+00
1.594863851339797023e+00,-1.540698734291552974e+01,-5.865897580202541484e+00,-7.135155373311121707e+00,-9.023885307784794918e+00,-2.009416085647671490e+00,-1.444329678578331233e+01,-8.453825623771200171e+00,-2.433346719826250037e+01,7.566796992999554661e+00,1.080357507068941958e+00,1.036228498940073806e+01,1.245315812819198875e+01,-1.408330053387904712e+01,-2.122083177232373785e+01,1.063917704133054620e+01,-3.795529430288570261e+00,1.591079286456999142e+01,-4.017501457653446906e+00,-3.363698196992007894e+01,-1.918271043844488943e+01,-5.364983403913702098e+00,1.017209488622454039e+01,1.125559656208791104e+01,-1.428055087931635114e+01,-2.715405553013632556e+01,-5.250743694083418234e+00,6.401915761933532067e-01,-1.368150105632730806e+01,8.280857546233606925e+00,1.324796091416618538e+01,4.920938623371532650e+00,-1.657357269403030520e+00,1.343561059566559024e+01,1.383908319104693863e-01,1.293803519613441466e+01,-1.959465065495203717e+01,3.737364869880003937e+00,1.909111569142379450e+00,7.964786826923111462e+00,-6.606586050764037488e+00,-1.329186889867759902e+01,-1.036063415258622555e+01,7.257472334095058208e+00,3.995187025750234877e+00,-7.355764580097622130e+00,-1.545287791954687151e+01,-2.999643652096927848e+00,-1.580850494765475567e+01,-8.854694626177087358e+00,-2.487079165120101365e+01,-1.332212709964498254e+00,-3.170480710568509775e+00,-3.975284769893342229e+00,-5.826467892201510956e+00,3.290554369155690217e+00,8.309118498499244998e-01,-8.442399881059921896e+00,-3.303602082264669804e+01,1.321414614305962942e+01,-9.149493436899582832e-01,-1.339707886411026472e+01,-1.313502157073110510e+01,-3.334331306073367784e+01,-5.685833999329522825e+00,1.735411078865474011e+01,1.840621794891555041e+01,2.262158410409148246e+01,-1.481016183423972166e+01,1.172327534713826225e+01,-3.129432612315714124e+01,1.468158804760239100e+01,-2.302554127339230661e+01,-4.818732644047604374e+00,1.079388904216902700e+00,-7.464986324183620958e+00,-1.810516496281662668e+01,-8.331534195779071172e-01,-2.411027362322593248e+01,5.073502231222469128e+00
1.515756882957988516e+01,-1.149592363399343853e+01,-1.556308363876991230e+01,-2.367617916036772385e+01,-8.448255710964566845e+00,-4.772280884337387619e-01,2.657066068939490933e+00,-1.784183965226567281e+01,-4.540039241189279551e+01,-5.395033634626938301e+00,-1.202410382714136716e+01,-3.368133201690623935e+01,9.636943415316558514e+00,-4.932958949469794518e+00,-4.932604317127650684e-01,2.713156546016861626e+00,-3.418823671822453036e+01,-1.408223252899161615e+01,-1.114660143328333852e+01,-5.315128977309295522e+01,-1.136321577472340216e+01,-1.233755436653399151e+01,3.569978089921122866e+00,3.347285553407898462e+00,1.811215996278361118e+01,-5.863796404484475033e+01,-9.181055329957125366e+00,-1.310570856079507962e+01,-1.609971894380036872e+01,9.086039613682688199e+00,1.613964314822317192e+01,-1.802722724547652255e+00,2.018667269207621573e-01,-3.180259008638758100e+00,-1.383113792704106082e+01,-3.565024827577842448e+00,-1.308973251108015567e+01,-1.878065804280571793e+00,-3.160005268799445322e+00,-5.507812033681583230e+00,-2.882652183045265559e+01,-4.929314164711182400e+01,-7.617887173637592824e+00,-1.060654654794239526e+01,1.215538196104834334e+01,1.407923561645867316e+01,7.429957246356686085e+00,2.315285012038372781e+00,-1.402274689008338271e+01,-5.731732016079568837e+00,-2.425872309802664617e+01,2.047096684677564582e+01,-2.737006322567568972e+01,5.432697320743429259e-01,8.964547233988930941e+00,1.485843639868385146e+01,2.683565956305340450e+01,-1.071981339818124646e+01,-3.245102445114537915e+01,-5.192928990595500061e+00,1.406365234728547797e+01,-3.533233279797329374e+01,-2.233591386745175456e+01,-9.143606139518668741e+00,-1.898666534361819913e+01,-1.909496773372135792e+01,4.563652505976472540e+00,2.967134325680492779e+01,-7.741292763429084012e+00,1.176573130861857841e+01,-4.902622178256253704e+01,4.289115099260528474e+00,-1.897846913105894373e+01,-5.638780696458600694e+00,8.639280716172626384e+00,-5.194700699927312648e+00,-1.054439866707761198e+01,-4.057671381679719413e-01,-4.775564919890838667e+01,1.931211141715435176e+01
3.024556584015338601e+01,-2.897100610696177014e+01,2.934928916953500000e+00,6.565962017275049689e+00,2.330988189790427434e+00,-3.134230856471420967e+00,1.330434226628943506e+01,-3.659365522046422736e-01,-1.855286408404208132e+01,-3.533905564148636103e+00,4.386714952307107396e+00,-4.368048789394823928e+01,-2.470977391114991484e+00,-1.056727592755813561e+01,6.600313975120055687e+00,4.742145182788072511e+00,-4.091733862538492161e+01,4.939424222812541565e+00,-4.996301605360527809e+00,-2.844377305885461737e+01,-7.518257397886156213e+00,4.571142034833370005e+00,-1.049839124138728153e+01,5.202029116807771469e-01,-4.023036059107627516e+00,-3.004824045048643555e+01,4.886389681841321497e+00,-1.596163561929395058e+01,7.983450248233928903e+00,-9.086482372079796477e+00,-9.406083084655636029e+00,2.386469326336356556e+00,-2.089942379360147484e+00,5.379608977196858044e-01,-1.106368893581463730e+01,1.727854776524427649e+01,-1.979393305352540011e+01,3.025125973077344099e+00,4.632476644694158985e+00,-5.095781278008782778e+00,-2.429691615018042228e+01,-3.476163319442914457e+01,-5.823533643634044132e+00,4.045379026670186562e+00,1.509670554295316158e+00,-6.890435042758670470e+00,1.018909708016303917e+01,-1.463449985934667907e+01,-1.702012611187559799e+01,-9.093496893902171863e+00,-2.073501236396843694e+01,1.535626913157461182e+01,-2.883147543598924223e+00,-1.106861615399772791e+00,-1.634738575249723880e+01,-9.239827017968805123e+00,-7.645337137804721017e+00,-3.806178939624928148e+00,-1.477709025242413077e+01,-1.027287248164831723e+01,-1.495077495405250545e+01,-2.252944870508767039e+01,-9.297557687912695101e+00,-2.271113510866224416e+01,-3.337179653271718394e+00,1.661136249978427770e+01,-1.614663046483631703e+01,6.463713617357385921e+00,-1.496432499526244353e+00,-7.820025370621710437e+00,-3.541077833866951607e+01,-1.553462602356592193e+01,2.228350924500327324e+01,1.073487354612622191e+01,-2.042285038631544758e+00,5.864862788890925493e+00,-3.628033404292104080e+00,3.582413620526971876e+00,-4.353411850677454709e+01,-2.109274173543365904e+01
1.100045604863232640e+01,-1.060617892677636576e+01,-5.643098186362571766e+00,-1.415316636523627736e+01,-2.259434617827174474e+00,5.385432153558853408e+00,3.400430817664310545e-01,-1.429090311665323831e+01,-2.847453187941093944e+01,1.224318425481237815e+00,-2.688454853204814032e+00,-1.227158426766887800e+01,-7.022773437836787203e+00,1.120928473492843525e+00,8.006673786039856466e+00,2.009964326464718010e+00,-2.281483095004833928e+01,-1.213847374337997032e+01,6.807817358266662344e-01,-3.356676220503799613e+01,-1.210461868536201413e+00,5.840139499606143758e+00,-3.528751886317054720e-01,9.752603292782866973e+00,3.069613333521779897e+00,-4.356608649891094842e+01,4.993276364351442176e+00,-1.783174081092705521e+01,6.667267489445155570e-01,-8.268035987077157145e+00,7.346530044002090420e+00,-1.024537064339293835e+01,1.228128008544405603e+01,8.347083333031855901e+00,-1.678355170191337109e+01,-8.117726883065326859e+00,-5.328236707313620535e+00,-3.223705845730821640e+00,-8.405501458364241785e+00,3.569790048246641145e+00,-2.176204398726078182e+01,-3.809058932814392762e+01,4.919455850114312634e-01,-6.032061578097196453e+00,-2.280126786322780319e+00,1.952332967158741495e+00,-6.060470149328204270e-01,-8.932125175453659027e-02,-6.869507549561690851e-01,-3.768336397535995363e+00,-2.555622270781574912e+01,4.636446417579621837e+00,-7.494619846768511451e+00,7.427860259705309609e+00,1.310495368893902857e+01,-4.600555661602233393e+00,-1.480691048287841927e+00,-5.902446831342917477e+00,-2.598285086988245851e+01,3.036202042283774105e+00,2.628412488662193791e+00,-2.500167226970754442e+01,-2.043150990785765231e+01,-1.739410736651172940e+01,1.971146827690780867e+00,-8.800434525913343187e-01,-2.585465178436373357e+00,8.201270018335383938e+00,-1.587357808038114548e+00,2.895160130278780386e+00,-3.370719359873911003e+01,1.194340035834422231e+01,-1.121228492646018182e+01,1.177039700809507705e+00,4.816981942868276079e+00,-7.979848494668905223e-01,-1.325744479920761698e+01,1.302916543536691840e+01,-3.671453470600422975e+01,-1.358108056752229231e+00
3.239874434556833993e+00,4.126784923920764570e+00,3.295083508630651803e+00,-3.663610824077412786e+00,-3.225611971657659005e+00,5.928093153707678642e-01,-1.933594542960895524e+01,1.848427107317617502e+00,-9.161544669689558607e-01,-2.531084509326648746e-01,-2.564359144773358246e+00,-3.201895315021405342e+00,4.074624861944068144e+00,-4.050499015869813313e+00,-5.488486715060897581e+00,2.060834126568601654e+00,-9.720289377244434093e+00,1.105613529067795398e+01,-4.271857569622122819e-02,-3.110362107888685390e+00,-3.258494231146800146e+00,6.555522728640941210e+00,2.191309057990983522e+00,5.122194137704896733e+00,3.762161742855031132e+00,-1.355890210851663058e+00,4.579986747515335743e+00,9.144146770023699133e+00,3.399628530395143455e-01,-8.669247162539486240e+00,-1.219124695632340405e+01,9.188586955905991616e+00,-2.722068262392087323e+00,-4.180205514570938696e+00,3.263559082559290392e+00,-2.041706062323411341e+00,2.654084396105064414e+00,3.528195785494279146e+00,1.109383330235638176e+01,1.009004012473932343e+00,-5.979333579118116582e+00,4.142279919349316053e+00,5.890385050122567634e+00,4.732202801437519035e+00,9.930159152559998148e+00,-7.160826828529176957e+00,-7.591178969609278404e+00,1.792011441851891096e+00,-3.616928785293477500e+00,-1.295999648724218822e+01,-1.824666540930285574e+00,1.407338957456033990e+00,9.044994880104059165e-01,-3.294302350106447896e+00,-8.249991576487891720e+00,-1.420348539678115074e+01,-3.218920897746564869e+00,1.806106648965556394e+00,-5.820588791331819500e+00,1.089139508807969570e+01,5.241949164613999290e-01,6.969463924340225880e+00,9.928963267487823430e+00,-4.773703996589639509e+00,2.213653701450003286e+00,4.212911529250352061e+00,3.113606586297722689e+00,-1.277359431080595442e+01,-2.515069298071976434e+00,1.257720741753779459e-01,-4.985196076655490915e-01,4.913841367571436081e+00,8.762813542743211670e+00,-3.629109477020800334e+00,4.062760734482378844e+00,-6.788392858098223348e-01,1.580165350315949846e+00,-9.892470273822602245e-01,-3.582477140951979777e+00,-7.536644179731571969e-01
-9.603150519499839888e+00,5.185608689659802373e+00,-2.515453569825838454e+00,1.078036085390047738e+01,-1.751627791173272719e+00,1.753001612361318795e+00,-7.714574129548982029e+00,-6.524939678422076561e+00,-2.123839592709655477e+01,3.279993686889784321e+00,2.596518359310313162e+00,-1.060874900472717464e+01,-5.127671287012624646e+00,4.231132699304863465e+00,1.026849258712783985e+00,1.935486561500209701e+00,-1.651735651861049092e+01,5.043926695112248559e+00,1.483129550188029500e+00,-3.342832534243675724e+01,-2.060293144602602045e+00,3.455730135400480574e+00,-2.000777906722577271e+00,4.619860993520084946e+00,-1.102454082334182139e+01,-3.815379054779842249e+01,7.081432584698600152e+00,-9.623730752071239181e+00,2.659792039725398904e+00,-1.589982984339980199e+01,-6.857617080915551000e+00,1.110773151454822916e+01,6.620115848667189606e-01,1.153473481946206114e+01,-7.456990732886738193e+00,-3.179445192077342330e+00,8.509179081039204284e-01,1.061940829373908812e+01,5.492998683114005409e+00,-1.255392000361722077e-02,-2.202858884764535219e+01,-3.071831426152606781e+01,5.157200449262719921e+00,1.422750615106130034e+01,5.256454717963451984e+00,-1.188825375080904578e+01,-1.694660160257998172e+01,-4.129467372631539845e+00,7.053359787378399304e+00,5.291139424235463906e+00,-3.434441028110097704e+01,-1.007534179817119480e+01,9.954215221601460106e-01,-2.632414001648462065e-01,-7.122588582347156638e+00,-1.433536879449708579e+01,-1.493781150745159714e+01,-6.270077677235408764e+00,-2.639330883223702884e+01,2.198972456986315827e+00,2.552388724390341146e+00,-2.375030608805594667e+01,-9.293553531499666676e+00,-2.985583432583777608e+01,4.871119586501549747e+00,2.075780129015379316e+01,-4.808435351926809709e+00,-2.462223210449207667e+00,7.794720151163192501e-01,-1.019909125952688811e+01,-3.286940640649801537e+01,-4.895147917865355858e+00,2.109848852065557168e+01,4.723368751186176162e+00,1.158960637432539853e+00,2.694285010025891935e+00,-1.803767951626385013e+01,6.807226985703111133e+00,-3.868550071766446763e+01,-6.440808480937409541e+00
6.039227946532813363e+00,-2.007516119773130825e+01,-4.178415489831118990e+00,-5.257098220395562294e+00,-1.425651876793148309e+00,2.016768293636530984e+00,-3.728427206236812452e+00,-5.878253821725802908e+00,-3.773011976899334741e+01,-9.688440565415884498e-01,-3.034002363030148697e+00,-2.889999868465252320e+01,4.081514657763861464e+00,-8.969624448068987732e+00,-2.386451826088721084e+00,2.810818121563799732e+00,-3.460345089796931717e+01,4.975832902472366870e-01,-7.953624198859676753e+00,-4.772290120493823906e+01,-3.439486304948353279e+00,6.659345265906631894e+00,-8.031578833547915741e-02,-1.782733138238082882e+00,-8.872322352899691955e-01,-4.402561333724020898e+01,-8.684783128700523935e-02,-9.814433687546047835e+00,6.503853657740319427e-01,-3.391826316367697824e+00,-7.016226484886279202e+00,1.058283631178522732e+01,-5.849500706676526107e+00,-1.159495024652506201e+00,-8.157114676039856960e+00,6.550615403210851007e+00,-1.464518079557620389e+01,-1.314940175648867116e-01,3.200592593816030895e+00,-5.950429583922549170e+00,-3.200016152647496881e+01,-4.081416744813490283e+01,-3.212723467055119020e+00,3.447885908989280601e+00,-3.273582045331887791e+00,-6.092533440020791780e+00,3.254183244046636059e+00,-7.649429925083887305e+00,-3.856757702586850023e+00,-1.018393602126551611e+00,-3.049609897285316507e+01,1.378039594612054408e+01,-1.555234420639588322e+01,-7.986454979847472657e+00,-8.837730181912197835e+00,-7.656683544730203295e+00,1.256394121330659530e+00,-1.375537713016435326e+01,-2.644404392107226442e+01,-5.401782599246431893e+00,-5.115433085235663313e+00,-3.126348220716443649e+01,-1.460378002174214984e+01,-3.161230643473218649e+01,-5.916582395907366454e+00,1.919677009330745587e+00,6.154145778966989333e+00,5.757245684753538484e+00,-9.431337974879554054e+00,1.115557214793724050e+00,-4.598528994139696380e+01,-6.959258802180434245e+00,6.531603249312026627e+00,6.606732841905800235e-01,4.090988615615775537e+00,8.055154495557539374e-01,-1.044796601645582257e+01,-2.242156700952356585e-02,-5.155202511048880609e+01,1.700797713077285556e+00
-4.062946934282150480e+00,-2.274381518146683590e+01,1.028156212910821932e+00,-1.243460160549943261e+01,-7.459632172569382824e+00,2.050810818662239132e+00,3.449832084912189067e+00,-6.412479806256965453e+00,-4.621312845076645459e+01,-1.831344208829827735e+01,-4.527329744355135688e+00,-2.292206926279114043e+01,2.375188580018919637e+00,-7.593115710723928657e+00,2.960207859675624831e-01,-4.385624354382541279e-01,-3.279144500440736465e+01,1.910646284790526117e+00,-8.295606721055996502e+00,-5.685282949247275752e+01,5.623590455568060698e+00,9.394212683172796785e-01,-4.913633738621186464e-01,-3.491976230308931228e+00,-8.225064930315015843e-01,-5.107224013744694702e+01,-6.043282674219299100e-01,-2.288570629474003226e+01,1.016730817238507001e+01,-2.541190142924877549e+00,-3.976899398665079577e+00,1.240001683489682804e+01,-2.995981121523165758e+00,-5.287882036739947722e+00,-1.581391684074458226e+01,1.536543408899956553e+01,-1.356411499735125048e+01,-2.492260324768117652e+00,7.961064181527674144e+00,-1.120644684961440340e+01,-2.816276220332680325e+01,-5.233856547704565543e+01,-6.093738712483286690e+00,2.517492584265715205e+00,-1.319402684168204498e+00,4.026115630677530532e+00,4.192391808089160676e+00,-8.769257251203523396e+00,1.708007099800846085e+00,1.490730416119686552e+01,-3.864181738486962558e+01,6.380795646527571918e+00,-1.864228392099038345e+01,-1.719947999040056885e+01,-5.126242458408853508e+00,-6.023323639987642197e-01,3.708973030261280890e+00,-1.222754896644559430e+01,-3.611225982426586256e+01,-3.192329465259457599e+00,-6.137892104714390840e+00,-3.054801348252626170e+01,-3.108737928221007962e+01,-4.486690761617214918e+01,-1.169236888209839176e+00,-1.204515093718829366e+00,1.141523435821716070e+01,-1.081508045556279995e+00,-1.034272924313040320e+01,3.342873920168753177e+00,-5.769542466871857300e+01,-5.893104691665818073e+00,7.615220059735874791e+00,3.555806406213020132e+00,4.337258455950579794e+00,3.190531072504484644e+00,-2.250825476083361565e+01,-6.142967135700180492e+00,-5.878873470878131258e+01,1.230664050157374234e+00
-6.336737669535565942e-01,-1.333496677343506853e+01,4.946454638791975889e+00,6.835942649462025678e-01,-1.441429244135042609e+01,-4.720791680047738970e-01,1.030611148629109630e+00,-1.112653712891538227e+01,-3.513937208822740388e+01,-2.228872085060028851e+01,-9.889791250928210431e-01,-3.205226655518534074e+01,2.168083080493350412e+00,-6.999674675216548181e+00,6.047670538548077790e-01,-1.828082302351969002e+00,-3.654219155885913040e+01,1.829244714215448209e+00,-9.302457465260490110e+00,-3.965777833674953001e+01,-2.428554721862953514e+00,4.771548660625337668e+00,2.159264900405014842e+00,-8.391815108234332854e-01,4.498604503753848682e+00,-5.503614195925440811e+01,-3.173012290340924579e+00,-3.184281690525081032e+01,-2.441054769084101572e+00,2.972207649478035396e+00,-2.770736263993137882e+00,4.188816809115056827e+00,-5.570793977116470508e+00,-4.983639707718263701e+00,-1.423082239092927814e+01,9.041047889109838920e+00,-1.536530916395636126e+01,5.270943558560579945e+00,2.791173959183567144e-01,-7.325540001144287494e+00,-3.122040483408498446e+01,-4.648922589963242302e+01,-4.851415034510577762e+00,-2.444633702683447929e+00,-2.896313301717319710e+00,4.300456504881748465e+00,-1.254954871252114756e+01,-3.169171231715212755e+00,1.217091896423786235e+00,-1.408290534356150836e+01,-3.586694804099116851e+01,-5.922454165030661244e+00,-5.552359934475810554e+00,-9.197151007639590148e+00,-3.849270295866698888e+00,8.674452526929187224e-01,5.878905829155482543e+00,-7.329840001999390786e+00,-3.451286303849276749e+01,6.059560192679630752e+00,-3.651322376061933106e+00,-2.243353291079841227e+01,-2.418447475216076370e+01,-4.917772784812675724e+01,-5.784111347760248378e+00,-4.214365468626234623e+00,1.645188412691922952e+00,-1.009901980276694644e+00,1.008669273534151145e+00,-4.748190261608090657e-01,-5.105879566725805319e+01,-5.287854076079007148e-01,1.441807396386129270e+01,-6.249764574643932313e+00,9.938800325998188301e-01,-4.079529159285212536e+00,-1.750232383254385127e+01,-5.511663837197149363e+00,-6.054885389577864885e+01,-3.977916088894792424e+00
2.161658669132880206e+01,-2.758584417095911334e+01,-2.385220358327437395e+00,1.377683050360704442e+01,-3.457107789838174128e+00,-2.737544613533681725e-01,1.101590880232064684e+01,8.816904953134746536e-01,-9.309324887156170902e+00,-1.587329034689235030e+01,5.075260515727193500e+00,-4.031750907096463976e+01,-1.170936142448583439e+01,-4.180228702744962277e+00,1.206087051969480228e+01,2.864831217667227037e+00,-2.370090708224810072e+01,7.360040816567718025e+00,-1.805179653052230382e+00,-2.260182090528568466e+01,-1.014954518439767384e+01,-1.452412785744666035e+00,-1.090750477073929403e+01,5.210466165123103011e+00,-9.149641007768485323e+00,-2.738845301226987416e+01,1.039706403386213829e+01,-2.494012369642196347e+01,1.300242977878855122e+01,-1.478630580976103381e+01,-9.099252333239849833e+00,-3.662517330409499117e+00,5.903572808785831683e+00,8.426398793279998856e+00,-1.388849268664981551e+01,8.930355197052643135e+00,-1.112652331080915324e+01,1.482501450460965708e+00,-1.564509853734275868e+00,-4.627424069764665582e+00,-9.371530057702081251e+00,-3.258109843991953625e+01,-1.623916679636969951e+00,-1.418305835234751955e+00,1.023326048977803815e+01,-1.502831105014104018e+01,1.508339646601791095e+00,-7.218293517053851360e+00,-1.183428039707929713e+01,-5.869984848192527416e+00,-2.641908200866834733e+01,9.528443507949553304e-01,3.869585016679331968e+00,2.828166025569765818e+00,-7.328448506113020677e+00,-1.082207940912579680e+01,-1.519443505203650346e+01,5.549494453757163548e+00,-1.956659912242920285e+01,-6.833688059652365254e+00,-8.276894704069833963e+00,-1.706247720122118849e+01,-1.839524504930485094e+01,-1.711009072267901132e+01,4.278897836413466660e-01,3.842530249209320736e+00,-3.404341996656495439e+01,-6.291818180184699294e+00,3.621121512273958842e+00,-7.852162347739220394e+00,-2.184764716603832113e+01,-1.835200945080886470e+01,1.242665156273247717e+01,1.561476371600844715e+01,-7.098680332239099222e+00,2.333372601412230907e+00,-1.244615693177869353e+01,6.048515424876359958e+00,-3.037672313243195887e+01,-3.613773536736906067e+01
-2.554564151522883408e-01,-1.457386460194054933e+01,5.098411216183789119e-01,6.651991624230925382e+00,-1.931824572092637027e+01,9.277094373834787744e-01,5.880192359764901955e-01,-1.002198931043539432e+01,-2.479589242046406738e+01,-1.842145697147899952e+01,4.488296639526770271e+00,-1.616726272726341307e+01,2.855702718207911328e+00,-2.161364473661334440e+00,2.155614567941183779e+00,1.902760636784259496e-01,-6.905880068041568620e+00,1.799617476456323306e+00,-1.873287948787754509e+00,-3.370511939405314195e+01,2.615378735428774526e+00,-5.588856222498525206e+00,-3.723836502638791845e+00,-2.049480182722386523e+00,-8.036418682173449568e+00,-4.638068461792322950e+01,3.077296099383977968e+00,-4.664523613338778318e+01,1.143904090791752459e+01,-4.726907767473108812e+00,-1.380333220478123346e+00,2.432863751093490290e+00,9.178255910831984110e+00,2.950623124490330262e+00,-1.765956497693961680e+01,3.631245376327929986e+00,-1.011906503782151034e+01,-5.733973899974408539e+00,-1.722177692755010314e+00,-5.467417539466094212e+00,-4.583639851654333519e+00,-3.911399623098507305e+01,-7.565556373965245385e+00,-5.310309531102298308e+00,-2.748775195319875131e+00,-2.616930505372315974e+00,-9.674641048019596568e+00,-8.220389732792732218e+00,1.454107804257452452e+00,9.226819385250189853e+00,-3.934510660994923370e+01,-1.330712992596604671e+01,1.533890771440117984e+00,-2.046485539257365094e+00,4.907011368832450593e+00,1.117031150509582016e+00,-1.499751727720053651e+01,-2.411939888708427127e+00,-3.761815122607048067e+01,-1.360918288053135861e+00,-2.354069712400757020e+00,-1.788304217507547023e+01,-4.290201772890090126e+01,-3.791294223727388868e+01,6.578293887521621031e+00,-5.498393473080083638e+00,-1.443589878286635653e+00,-9.723366064602709358e+00,2.458850254114268719e-01,2.185487233151661712e+00,-3.506412072005164049e+01,-5.555396812590366551e+00,-8.086612776696998850e+00,4.315412981218434751e+00,-1.542611417696591269e+00,2.988350627219791722e+00,-2.912404759745708915e+01,-4.458639553680567857e+00,-3.577654715943383223e+01,-1.048521519190593310e+01
-4.876324238238912478e+00,-9.824531951216815884e+00,4.548518619507162519e+00,-5.228721487477404395e+00,-1.708325300776831313e+01,-1.735128449934971728e+00,-3.049742818193187155e+00,-1.583611347799007518e+01,-3.026329662029949219e+01,-1.637301111382529228e+01,-5.718430643179904571e+00,-3.527931081215506737e+01,2.355973261574862310e+00,9.858119951596241992e-02,-2.447074606449504142e+00,-2.766458564026241351e+00,-2.684396223012174687e+01,-2.728357597399340584e+00,-9.497363783758384415e+00,-3.768925743787091420e+01,-7.059827740554800446e-01,-4.986794895325075139e+00,-2.818832889684400378e+00,-5.964360972851811660e+00,5.116337959927743206e+00,-5.406787144127418543e+01,-7.080576400168402174e+00,-3.322105939048253731e+01,-5.587339020307902082e+00,2.037922673919720484e+00,-2.905587404522441020e+00,3.718301264995992117e+00,-7.205843291437727061e+00,-8.433295108384415428e+00,-1.421022103459838881e+01,-7.614728231798400415e+00,-5.369136177107590058e+00,-1.596331686169868425e+00,-1.632982152912804130e+00,-9.862807925817925536e+00,-2.440703595801245029e+01,-4.708387849618556942e+01,-1.877217154179041669e+00,-5.012431508676967740e-01,-1.854814427053431469e+00,1.199707230962694604e+00,-7.339653085104671071e+00,-7.295283398741798209e+00,-1.639328739545431013e+00,-6.663579040245165785e+00,-3.161794990774058789e+01,-3.207999623504270481e+00,-9.948541619208832287e+00,-1.251494880370446694e+01,-2.147773932041261435e+00,-3.004320661357491762e+00,1.923260047000269646e+00,-4.822330493904169124e+00,-3.074426523760872243e+01,-4.717853383984255689e-01,1.950818163811585348e+00,-2.553868981451124753e+01,-2.562361812025955743e+01,-3.491371975178736875e+01,-8.161285087302683650e+00,-1.524523754493118055e+01,-2.856465157465708060e+00,-1.531063341961116819e+00,8.735839940751840560e-01,-2.702837229565442811e+00,-4.530985745121352437e+01,-2.869829915797059705e+00,7.836974198795529034e+00,-4.241563183926351677e+00,1.687016708492796724e+00,6.419683540821183865e-01,-1.871287686878215695e+01,-8.164893521503081786e+00,-5.098666295928871506e+01,2.008254187669096524e-01
3.499539257275987136e+00,-1.496873546934212484e+01,-1.141371132458155913e+01,-1.203469594193547820e+01,-3.123872804956673854e-01,-4.668348262773834634e+00,-1.389891381782559954e+01,-3.391923269471031954e+00,-1.630850763120294999e+01,-1.134097043237191116e+01,6.522257622164810087e+00,-7.564490265090276999e+00,8.142927995012758657e+00,-7.618985749110498418e+00,-4.145102591399805192e+00,3.887017955283458281e+00,-6.632963555225790842e+00,-5.105663921283140283e+00,-4.879174740048552117e+00,-2.364069098789497048e+01,-1.117003868848799364e+01,-7.511345573292169675e+00,-3.039866022362606654e-02,6.055633276532779163e+00,-3.348838656383614221e-01,-1.037227546144026213e+01,-4.674526670808977435e+00,1.376336059195684669e+01,2.011281103127836867e-01,2.635518606122614127e+00,1.666801975037357053e+01,2.326051424969297621e+00,-7.193177579765217544e-01,6.649964737151965899e+00,6.049491598691151495e+00,6.546024186864368488e+00,-1.155434365119533702e+01,3.636988604858099272e+00,-2.877785100691131692e+00,1.031183554191317686e+00,-4.830214213001959855e+00,-9.301380424636125355e+00,-5.271569273259387067e+00,-3.891020948620721676e+00,6.449804789509268943e+00,1.221328026770309272e+01,3.472442926065594904e+00,-3.125967021837338766e+00,-8.700166995957623328e+00,-6.733665443149353669e-01,-7.463813305294560330e+00,7.870888066778944925e+00,-1.122425967773412481e+01,-3.043421834287440397e+00,-1.226947544544987334e-01,5.678385048228192566e+00,2.469702230482671013e+00,-4.673802653473385860e+00,-1.417163816692284861e+01,9.213833656941055494e+00,-5.853951644618843320e-01,-1.408481983867491927e+01,-4.295727114923007406e+00,-9.855723598662084584e+00,-1.322629228712884775e+01,3.515769672715999827e-01,1.442767705564439673e+01,1.096200147800717950e+01,-1.417857552492833229e+01,9.228119836231341022e-01,-2.206490370912725041e+01,8.339470525513358323e-01,-1.577903555925075274e+01,2.133858800531289734e+00,3.449472985289547822e+00,-6.419275063179885166e+00,-6.802916795367194069e+00,3.735944105840136142e+00,-1.418020435801160417e+01,-8.233789449283418493e-01
-1.146510003508958242e+01,-6.711400673946524620e+00,-7.738022312518206824e+00,-2.818042151817899743e+00,-1.758417308652816047e+01,-1.609955464836752670e+00,-1.699919018287261352e+01,-2.121530924953744091e+01,-2.659452318515796421e+01,-2.182994799351384430e+01,-6.105340162787600278e-01,-3.015266176403487108e+01,-2.083752827554185671e+00,2.232008451763919155e+00,2.310987016791758109e+00,2.124625988023263634e+00,-2.598518908299575614e+01,-1.772036910682982747e+00,-1.077502736025338592e+01,-4.229109580665430457e+01,-4.097970492531328723e+00,-1.686110550356226145e+00,-3.294823432295577614e+00,-2.508645836309717936e+00,1.096467595371318104e+00,-5.361596848231769030e+01,-5.802752810205883405e-01,-2.089887475326453625e+01,-3.272419152637482398e+00,-1.157694121374866159e+00,-5.464792068718427487e+00,-3.985643482882408772e+00,-8.747208122826611643e+00,-2.231468500913935671e-02,-9.229010417901470475e+00,-7.168276533578496590e+00,-4.517852631402239361e+00,3.091350675541091331e+00,-2.912094981838812657e+00,-1.253249130342580386e+01,-1.908992982265296234e+01,-3.543303021420887688e+01,8.797231886820300328e-02,-4.457067716448007033e+00,1.348405242041278562e+01,-7.105933012230329027e+00,-2.070814917284325674e+01,-1.949299248656272132e+00,-3.376423767546719912e+00,-3.057640904310060748e+00,-3.115170165154538395e+01,-1.382722195710398516e+01,-1.403846695283201740e+01,-5.328612001537439191e+00,-5.086767374852771084e+00,3.474253202958261788e+00,-7.673975871126312853e+00,-5.662772544668694508e+00,-3.160342834051957084e+01,-3.862586152981358989e+00,-9.860299056754251446e-01,-2.522886799172478689e+01,-1.881933806073594084e+01,-2.592532842197879006e+01,-6.146824050914804438e+00,-1.658561894322865626e+01,-9.745772109536501304e+00,-3.139674586330236661e-01,2.191925638917810559e+00,-1.028142397723701329e+01,-3.985535680296798944e+01,4.578264185386578866e+00,8.237909606848749178e+00,-1.372218649359837395e+00,-3.503413311726939039e+00,-6.588628620063179397e+00,-1.680720402742784714e+01,-4.934979715262411304e+00,-3.873076482733976889e+01,-1.987469998788176540e+00
3.902626359189411431e+01,-1.352487773037111829e+01,3.094032576227855103e+01,-4.735807245593741222e+00,-3.552739548474860243e+01,5.939972378813984655e+00,8.834320371642107261e+00,-6.590771288286648932e+00,-5.002277352829363366e+00,-1.587348433059807107e+01,-4.172981653854034079e+00,9.335626120255943405e+00,-2.110696809875507451e-01,-4.259464407916635054e+00,-2.339886068158094190e+00,-6.930272891017587256e+00,-7.837235074584865124e+00,2.656718158227898474e+00,-1.033890821773174906e+01,1.742022960629949213e-01,2.310963343805511716e+00,1.249978662442814148e+01,-2.332390903498023693e+00,9.649537620896323276e+00,-2.285884347171460718e+00,-3.174583281964147119e+01,1.529845094387360760e+01,-5.722669699333245319e+01,1.440260148900352810e+01,-3.294890726778157308e+00,-2.175534610381038192e+01,8.015308441650240923e+00,1.098500685235920038e+01,-5.737045622431572234e+00,-3.174966458968496852e+01,-1.555866712672539087e+01,-7.060933443275829724e+00,-1.450386154490549018e+01,1.520392729267421084e+00,-5.914188890797302811e+00,6.088264668210690900e+00,-1.770677967306307821e+01,-6.204469454513961146e+00,9.358018950413878656e+00,-2.403935263304306957e+00,-4.550227714068604001e+01,7.833662903297854418e-01,-1.398242056765768027e+01,-1.105005692716128074e+01,-2.551845484720453783e+01,-2.221459066409153849e+01,-1.521563095503467089e+01,1.155660004084011128e+01,5.619351896301819416e+00,-3.751497716952114203e+00,-4.810272141123291334e+01,-1.463308589578163854e+01,2.158590851104004171e-01,-3.734482944858648779e+01,-1.543920691971499559e-01,-1.686671772676809411e+01,1.080564027322307830e+01,-3.801565445319373282e+01,-3.431458200083734766e+01,8.741481313322514879e+00,-7.263178244608360146e+00,1.514387535541313312e+01,-2.952399416691678979e+01,7.771345313341575967e+00,1.557106723004311455e+01,-7.089506460479959138e+00,1.309639180217528232e+00,-1.825748423567925727e+01,5.845106496712468847e+00,2.676918193752829467e+00,6.249267022203490729e-01,-1.595080806979049903e+01,3.655998530379157563e-01,-1.447900414407267355e+01,-1.571190849187733640e+01
1.238573983237545306e+01,-1.113860488332815102e+01,1.415018318645432371e+00,3.125770982838067980e+00,-1.607436808546966489e+01,1.303375126455348587e+00,3.258567152341855788e+00,-1.023802882825589755e+01,-2.565078409326837416e+01,-1.484398012415060464e+01,2.088791486306312173e+00,-9.982938918919764149e+00,3.656432923537767388e-01,-3.936797111187121168e+00,-5.120055101675522913e+00,1.164698762919522401e-01,-2.196978721709514915e+01,9.750588159638157393e+00,-9.798823413642042013e+00,-3.074584490719878005e+01,-6.657111203274467259e-01,7.309210337099972143e+00,-2.599109418051768650e+00,1.037575483658430109e+01,-3.556581824683788362e+00,-5.256035982071697532e+01,6.925574598154920380e+00,-3.487235627042485220e+01,-2.949155025469872182e+00,-4.320516867543778838e-01,-7.302465403682631084e+00,3.049272522782491723e+00,1.479970224449793870e+00,5.073351335199099310e+00,-1.813626114777439469e+01,-1.889209373060625419e+00,-1.812971662644072879e+01,2.398891628502441087e+00,6.806870891954086566e+00,-6.182125535445228692e+00,-1.446367052613302207e+01,-3.247516964238263171e+01,-5.047489537017156636e+00,8.064209423457667780e-01,1.088029765039684982e+01,-9.138155172377743440e+00,-9.930989329268978594e+00,5.925107535716620522e-01,-1.094064274928382474e+01,-2.040081932256585162e+01,-3.338873289142674849e+01,-1.281420743076654922e+01,3.335106631494445528e-01,4.927254697923541649e+00,-1.131516776173893790e+00,-2.603443639630824702e+00,-1.842201403791499548e+00,-7.894317425431065516e+00,-4.055133896808859362e+01,3.655799624234976175e+00,-1.256059365289310392e+00,-1.430174246543825589e+01,-2.558987746812537978e+01,-3.332045163951969613e+01,1.988256562728833110e+00,2.349419256042317272e+00,1.127346629439080594e+00,9.250232304302288711e+00,-9.629931259668184085e-01,6.405346935259101926e+00,-3.317957932402308074e+01,7.746867948331599862e+00,-9.501482207564338367e+00,-3.883653891184568607e+00,3.336899372912196071e+00,-5.313001226353399886e+00,-1.909526191416148677e+01,-1.975569479385052896e+00,-3.844106608789392965e+01,-2.969271754801508845e+00
1.418453232992740709e+01,-1.487883510332271975e+01,-5.494138775041551348e+00,-1.104477593719780160e+01,-5.929445128551660282e+00,-4.194590589150780424e+00,-2.453607810150300494e+01,-5.866979403138559590e+00,-1.609304884667688640e+01,-1.056112804625882973e+00,1.852807453180082664e+00,-5.311129076312390396e+00,8.687995793541231748e+00,-1.121782174109189611e+01,-5.835485561033764590e+00,1.065970276034138386e+01,-7.989134405494502822e+00,1.108696471776568337e+01,-5.960271258895603275e+00,-2.448377591943000198e+01,-1.490867691578188747e+01,-4.293644912800988145e+00,-5.258745293110026253e+00,1.512399152850594497e+01,-2.941016699624545261e+00,-1.507032717126206656e+01,-4.482376490384367251e+00,1.219075168310970803e+01,-3.013128599849423050e+00,3.665175176645735888e+00,1.542300186655669236e+01,9.008555019257585172e+00,4.358256214073856327e+00,9.218827967940656620e+00,6.208770341550520655e+00,1.894404983618897020e+01,-1.299727333116583949e+01,8.721597448279288400e+00,-4.499176074365760059e+00,2.774197862524497182e+00,-5.058940816060596646e+00,-9.720787303520076250e+00,-1.186002949572381659e+01,-2.633423705577958795e+00,2.860133458477754687e+00,5.072568395788413120e+00,-2.312768981515806566e+00,-5.568806649021152744e+00,-1.392809884262445941e+01,-7.582443908291937262e+00,-1.199514203002595103e+01,8.641404776505845931e+00,-8.454828988649197186e+00,-4.675275128870743369e-01,-6.623174635847393965e+00,4.467471631543468824e+00,2.128916996432432818e+00,-4.730330504741118602e+00,-1.992647577556752481e+01,1.195090946321157510e+01,-3.880882061931536064e+00,-1.116788654869764486e+01,-5.824296296965197683e+00,-1.980177615149711912e+01,-1.015050725968815115e+01,1.694494483244374550e+01,1.566954205975978986e+01,1.114753349666229632e+01,-1.458871305552094455e+01,3.547203515722501699e+00,-2.720927702710713803e+01,1.033476853006132146e+01,-1.514170186042171018e+01,3.456744780103742087e+00,6.890239455787674494e+00,-4.319465473786038956e+00,-8.560848551659086425e+00,5.124263323841866224e+00,-1.827347346222148516e+01,-6.397566441951404670e+00
6.017534898334713667e+00,-1.883880044304223844e+01,-1.455766478597033675e+01,-4.564787573925539910e+00,-2.098861624559730998e+01,-1.798722702747887148e+00,-1.081698707397693227e+01,-2.241115460636261858e+01,-1.341158494602625062e+01,-2.941384503186495358e+00,4.754139438740693890e+00,-3.789702825935266972e+00,-3.148784925887100794e+00,-7.357871446677613392e+00,3.222590226656374846e+00,-2.579981458470908429e+00,1.386080192305829151e+01,-2.349238146986290943e+01,-2.972193063976486194e+00,-1.820309443904320545e+01,-4.401342123394385020e+00,-1.368507273612288699e+01,6.282164301756189673e+00,6.406626914556588837e+00,-1.120132326949057067e+01,-2.278781716808254387e+01,-3.971936088886894645e+00,-1.125908557583063718e+01,-1.147733492013673917e+00,1.316726133709692981e+01,3.334797895812992863e+01,-2.263196540907581067e+01,5.846932033610613644e+00,1.455340339463860921e+01,-7.377199562534808575e-01,3.726139274530771317e+00,-1.661779977474759562e+01,-6.633142495976049879e-01,-2.607686180754813421e+01,1.087388670865362705e+01,9.918080691447315189e+00,-1.571542332534149544e+01,-2.391473878996789892e+01,-1.494666680475585707e+01,-1.919582926473541207e+01,8.567406798624451980e+00,-1.577453344408056424e+01,-7.310322664014874405e+00,4.347134961550551679e+00,2.041094745518562625e+00,-1.907111702987380397e+01,-9.222260402825183334e+00,-6.147418063988286718e+00,3.448262357391529420e+00,1.945554640571535288e+01,2.083135244816025633e+01,-8.679494233923174207e+00,-6.825298350834945182e+00,-2.400814659114091398e+01,8.909873939251911068e+00,-9.267711479826374443e+00,-1.727022027894897249e+01,-2.898643750895984894e+01,-1.558444749782115224e+01,-8.117293080831059271e+00,-1.461781961172041200e+01,2.103784143739833823e+01,-1.172745846287160632e+01,-1.119646902436065261e+01,1.244202184091653507e+00,-2.631137106651997826e+01,2.303107288775015604e+01,-5.567997872423556771e+01,-3.935284444935862602e+00,-1.546024453989105574e+01,-8.333245302459681980e+00,-2.552910667821237212e+01,1.777261643250203349e+01,-7.671050223913658428e+00,1.859969915440661925e+00
-3.916001959752127703e+01,-8.177993323401070214e+00,-4.352114511263682317e+00,1.712547495809436215e+00,-9.111625692262018461e+00,-1.585932549111088719e+00,-3.190903285071345863e+01,-5.084774878559366051e+00,-1.088568958444095358e+01,-2.465562395870432155e+01,2.041398260882429483e+01,-1.718921226408903991e+00,3.945486610538320171e-01,-1.426676740217516226e+00,1.218132265102195433e+01,-3.447527324649727887e-01,8.917149718971730366e+00,6.794543664447044939e+00,-8.159012349365259098e+00,-3.432247432909703377e+01,7.559455714212234057e+00,-5.872561435628205651e+00,-2.337038797567680515e+00,5.688531718519658220e+00,-3.584981594196658250e+01,-1.101190687434188042e+01,7.819976502882358460e+00,1.110595264909634228e+00,2.376685461911136343e+01,-2.463538783478230698e+01,-1.929150296276427667e+01,5.689506600145049831e+00,-3.415813500935379832e+00,1.346565712940813597e+01,3.319528005580245189e+00,8.135454409548668053e+00,1.174148768582777969e+01,1.058203140248419416e+01,8.974988973824370442e-01,-8.612676521255600903e+00,-4.437955269844827910e+00,-1.803468196049445638e+01,-3.010787549225219517e-01,6.900750166773461203e+00,-2.187522109039742979e+00,-2.318693412594051040e+01,-2.217505068713274952e+01,-1.306518226836215213e+01,2.206198092163025493e+01,3.486280355599868841e+01,-3.129138903708117425e+01,-2.313309540470545400e+01,-2.371609864928405198e+00,-2.019650857890132656e+01,-1.473187495299860572e+01,-9.869230606712839915e+00,-3.118556063357859642e+01,-3.405621643809024768e+00,-2.076618179974677503e+01,3.085160571999010948e+00,-1.690373097414381931e+01,-1.844286112877449568e+01,-1.882369789430833507e+01,-4.351257724718697517e+01,1.335709645395006540e+01,8.989982321260745479e+00,9.853723788133500472e-01,-3.579678211062074666e+01,-8.893588007235582182e+00,-1.471514798254133360e+01,-2.778251577223617375e+01,-3.632336366627331614e+00,3.320304319024274520e+01,2.510433416408425700e+01,-1.038920982592188480e+01,8.376170402061964282e-01,-3.224365116276471355e+01,5.876577848790399017e+00,-1.856664496822135035e+01,-3.238553887870263281e+01
-3.140121196862189379e+00,-7.480890364059827213e+00,-2.411097720215721329e-01,1.786576193472971141e+00,-8.977592331335433329e+00,-5.212164506246922402e-01,-2.198830832273826807e+00,-9.032577441730374801e+00,-2.880842259156365159e+01,-6.399661006201582403e+00,1.664529477272705948e+00,-1.088348098188962254e+01,-6.071039199229491423e+00,4.863458825271995245e+00,2.147462484654560355e-01,-2.361390499042276492e+00,-1.195599583099154373e+01,-7.649740814303884306e+00,8.492115107247760752e-01,-3.454932233573994438e+01,-3.366364115723201045e-01,-2.374280974839036773e+00,-2.007702306069965026e+00,-8.650851881465579929e-01,-2.344354024749470522e+00,-4.705182920349690079e+01,1.769343435844080492e+00,-2.993434088778111146e+01,5.896895266962911997e+00,-9.105433531093582999e+00,1.970781880299387501e+00,5.794461716285119746e-01,1.002674695529078974e+01,-4.621818330298455013e-02,-1.732678429660394315e+01,-5.670993013268978977e+00,-3.063316888842563479e+00,-3.449311147474637185e+00,-5.033291098804386188e+00,-4.324813870100104651e+00,-1.386344192782970985e+01,-4.074735388523861701e+01,1.561000619973447190e+00,1.498984670606290148e+00,7.459919598990771838e-01,7.232733510372796992e+00,-3.839289902581119129e+00,2.131238590935180088e+00,4.987481210414337340e+00,5.486590600690661290e+00,-3.588390853264071723e+01,-8.909727179198318581e+00,1.334156689213428504e-01,7.102775721075714976e+00,6.119057976905245333e+00,-1.592849589482264516e+00,-8.086321431154292583e+00,-3.754734233188782966e+00,-3.469819914698521757e+01,3.408204061775765292e-01,6.027873737918702624e+00,-2.017913716929993129e+01,-3.333531170394421395e+01,-3.199482659189425249e+01,2.920766655360928166e+00,1.427375149973597157e+00,-5.235058877434398461e+00,-2.667567961410143074e+00,3.564315149994751852e+00,3.893026416747630503e+00,-3.632049809540671248e+01,-6.218234869101487483e+00,-3.664244958930964913e+00,6.271440677250689433e+00,3.991950020482315509e+00,5.961583542723313478e+00,-2.004836869046589243e+01,3.841031793906109382e+00,-4.274448234181909356e+01,-4.960771391033804711e+00
-1.141275450912547917e+01,-8.528042428009218412e+00,-5.940978590959121064e+00,-1.465264778700214698e+01,3.359850166181569620e+00,-7.920596266787417461e-01,-3.127930369946732903e+00,-1.086216898997945535e+01,-2.025620143207368073e+01,-1.818040614804466770e+01,4.209302550699051793e+00,-1.627168687787418833e+01,2.078081145521955442e+00,-7.287947257381634181e+00,7.595408021741893556e+00,-8.012859311432888987e+00,-1.182028524984454165e+01,-2.092176117891572673e+01,-7.307364165998980532e+00,-2.913780883563009638e+01,1.253355189944186598e+01,9.005871491437922316e-01,4.581757472183610957e+00,-3.897264412050289728e+00,-3.648800602370241286e+00,-1.473708516012594849e+01,-1.550371908312772051e+00,8.008365278295823231e+00,-2.839623293800546566e+00,9.184227216414711847e+00,1.198089862089094026e+01,-5.043523222522344973e+00,-6.226761740049093774e+00,-5.389459570546420331e+00,-6.572529794831910799e+00,-1.437375559838151018e+00,-2.562413284756630993e+00,4.097910362558241815e+00,-7.558382185482619420e-01,-2.896580937561824332e+00,-1.562799848692895388e+01,-1.994171160354807526e+01,-4.237575694272577742e+00,-5.097686906761735415e+00,-2.338039067252858416e+01,4.755325282002918819e+00,7.618783328571293367e+00,-1.168805928105011382e+01,4.484235376561045427e+00,4.132461268331170778e+00,-6.593273706567913450e+00,2.820272561167606717e+00,-1.649058145913043560e+01,-9.966583674064638743e+00,2.985102213521259262e+00,5.626019636397245449e+00,8.261004301380647785e-01,-8.260866471495958763e+00,-3.652921955300357570e+00,-1.399119216880796879e+00,-1.366587126537904773e+01,-2.575812965482106165e+01,-4.584364297591941195e+00,-1.435636809054574492e+01,-9.619392051436367552e+00,-2.465695677537697250e+01,1.790297322574612693e+01,-9.559164178325428196e+00,-1.314047868015279796e+01,-1.950520165996553956e+01,-3.030825272479589572e+01,-6.138360990233144854e-01,-1.172465480690004114e+00,1.031109342501090653e+00,-7.030097671644115920e+00,-2.479806697167861618e+00,-7.241662029491219066e+00,6.660473654599876170e+00,-1.960919342416025302e+01,3.537422728533629712e+00
-5.058336610418844304e-01,-1.195166212965433949e+01,-1.272643638968750679e+01,6.280235494004262620e+00,3.289902101634948117e+00,3.106196586518925162e+00,1.623401080547250741e+00,-4.759692813557858670e+00,-2.126139008023689669e+01,-1.925309245572948358e+00,3.214549190043258786e-01,-2.632564950025538053e+01,-6.849223932935676551e+00,6.307798199494819791e+00,6.967675846531558470e+00,9.949973348082329361e-01,-1.538695996924468901e+01,-5.679895492223288045e+00,-9.841601667817406751e-01,-3.257503025668966501e+01,-6.202519313235929310e+00,-2.928682193951824608e+00,-1.689162336273811960e+00,2.635727475476297599e+00,-6.612513146433034450e+00,-3.867497554335971444e+01,-2.973287038749693190e-02,-1.336611936589129890e+01,4.794984639984413377e+00,-1.595065855536688204e+01,8.759153860537780556e-01,-2.808116437503966001e+00,4.476784785779484466e+00,4.519290133127916498e+00,-9.702882257203439664e+00,-5.023121946120530090e+00,5.820157925788094211e-01,-1.129835823371155845e+00,-4.522429450576252563e+00,-1.331314259127670852e+01,-1.213640171436595772e+01,-3.536032200636499567e+01,1.031603143488547580e+01,-1.651798363165773109e+00,1.448977256639845912e+01,8.340598896983687283e+00,-3.162996376685448308e+00,2.788763303380338066e+00,-4.991344688659548723e+00,1.598744448523645545e+01,-2.943754435128747460e+01,-2.491196446578723300e+00,-2.631044235061752889e+00,5.647070998611269488e+00,3.803909296683247732e+00,1.948643126287590288e+00,-2.629993272212890254e+00,4.715431008875102137e+00,-2.576741236360185994e+01,-8.647423638034439364e+00,1.335846966614528597e+01,-2.595052692020576046e+01,-2.226836309903175604e+01,-7.452425366767761794e+00,-3.434469749631270385e+00,-3.168468110555869632e+00,-2.349608342970940100e+01,1.280310570691176686e+01,5.151309199025143393e+00,-2.806952918520508877e+00,-2.740886039427230259e+01,-1.538666393485341111e+01,6.311582460280620310e+00,9.795920845133940347e+00,6.104295248640919880e+00,6.623891709586559706e+00,-1.130088266270847619e+01,1.464724521946595859e+00,-3.577706665331228919e+01,-4.931940010874662050e+00
5.038400661885667375e+00,-7.397071902768853846e+00,-6.868837513181765608e+00,1.044922666037175851e+01,-1.468377935671698786e+01,-2.041491139330606330e+00,1.791171445811180485e+00,-1.269067284219404890e+01,-8.364314726617294582e+00,-1.964373251220913730e+01,6.733740710289315423e-03,-1.047387406662586784e+01,-9.822974007005678132e+00,1.052462128319848089e+00,5.204497316891267822e+00,-3.698189249745756246e+00,-5.908917200524514968e+00,-4.345964772046333024e+00,-5.972951082735269424e+00,-1.396314582477136490e+01,9.499096317161633829e-01,5.753605820542819771e-01,-6.692654166508497759e+00,-1.521151631813582039e+00,-5.131615492587478400e+00,-3.975504520040034606e+01,-2.165432187539147790e+00,-4.601316497659356486e+01,2.299438464186382536e+00,-2.282072084513520616e-01,-7.267475504337177483e+00,-1.173106555310306476e+01,3.278990375435638871e+00,9.901897213250686614e-01,-1.812910690896101329e+01,-1.134788336305232725e+01,-3.703657590670526911e+00,-3.295513710409461172e+00,-4.572560343631284496e+00,3.029015077457916649e-02,-1.148393804950514019e+00,-2.686660217744683621e+01,-5.926869117920901431e+00,-9.870056800083069959e+00,-6.052063957910241321e+00,-7.123497583815098011e+00,-1.387021843090240125e+01,-2.101746187751804218e+00,3.153971592483831188e+00,-6.680728816524301727e+00,-2.624326166180856035e+01,-2.292805415958971693e+01,8.985661323975399739e+00,7.650810662227707226e+00,5.940470017216311405e+00,3.603756645831841521e+00,-9.278686627153213351e+00,-7.373817107650697089e+00,-2.581668568944243702e+01,-7.501067855016808394e+00,1.533709431729001427e+00,-1.452433752218502683e+01,-2.718497049145872424e+01,-1.935667102701461673e+01,1.056091789046529072e+01,-5.996422651913559498e+00,-1.005422025029514188e+01,-1.023858392107230841e+01,3.495670631883155188e+00,-3.308467613633510052e+00,-2.119144925410027724e+01,5.961617518289349604e+00,-1.025125230726559167e+01,-1.051762495548866028e+01,-7.280783378776335191e+00,-2.110447330817533107e+00,-1.894619086404247454e+01,6.204365219014580823e+00,-2.000635955986131975e+01,-9.557252913633684344e+00
-4.521203292950051189e-01,-3.037877693251830991e+00,-3.936161974327380353e+00,2.970498979065496759e+00,-1.011741779243743977e+01,-3.452464143858654300e+00,7.536750422741863353e+00,-1.795867697233289562e+01,-2.208631729963912349e+01,-1.296774206336484525e+01,-2.720681886299041619e+00,-3.406888397273827707e+01,-8.911074629304126304e+00,5.458278873370969730e-01,4.871028180658343310e+00,-7.115188899712657111e+00,-2.578251424757418775e+01,-1.254449081105767938e+01,-5.265230968719118110e+00,-2.406859923930320377e+01,1.855939096367408281e+00,1.226079916023201299e+01,1.446768864190639992e+00,-4.776749786078553051e+00,5.353306225415331632e+00,-5.225975016096088410e+01,3.928112859029365911e+00,-3.351607094381134289e+01,-7.534138061450236457e+00,2.951381762788881868e+00,-3.120287302562589904e+00,-1.741436519261185367e+01,-4.378115083514702022e+00,-7.027993093914314926e+00,-2.116499173588580973e+01,-1.516591347278988344e+01,-4.720307502441379199e+00,-1.074687924600050248e+00,-6.804858880674735211e+00,-4.035296770262871036e+00,-2.116092530682024275e+01,-3.857194689805136534e+01,1.217734024461838205e+00,-1.080004766102385894e+01,-4.503573282383432463e+00,5.667863610490353921e+00,-1.629109194275281070e+01,2.506346493557937816e+00,3.368227245191630193e+00,-1.896115127774600850e+01,-2.681337068795839684e+01,-9.948880879773907893e+00,-2.778405123349487749e+00,3.180673011364913094e+00,1.010210639638065366e+01,6.388190068236924368e+00,-4.562778779089972758e+00,-6.441388299693644903e+00,-2.152658266630739448e+01,-2.974053612688693171e+00,6.973070053643414035e+00,-1.890095043680275566e+01,-1.935230933951477539e+01,-2.202628442357008609e+01,-5.402941763691579524e+00,-1.979207110787623947e+01,-8.920577917732027018e+00,-6.693179909432371844e-01,7.369715812797924315e+00,-7.921412801243010726e+00,-3.633364646982048640e+01,9.708927713019066985e+00,2.935846913768077826e+00,-1.100947041814722560e+01,-2.921584540293076682e+00,1.144272060217037090e+00,-1.259438241103035772e+01,9.834963250314472383e-01,-4.296801450827035751e+01,-2.594324804382505789e+00
-2.762752368195778985e+01,-4.554379668395714731e+00,-3.395816530529602861e+00,6.371221228498838984e-01,-2.758861943735099742e-02,-2.469237041845844249e+00,-1.446545661582735143e+01,-8.930009307960796505e+00,-4.420244816895880291e+01,-1.199315003884817266e+01,-3.157769712062887812e-01,-7.076395491581179087e+00,1.097251814629584565e+01,-1.263655818957038868e+01,-1.482041920703849058e+01,-6.510355910940138102e+00,-2.788195792379390170e+01,2.093223724696606780e+01,-1.266509592032815767e+01,-4.987031349667415014e+01,2.896900254648044903e+00,2.694720264216869499e+00,1.596917023172471084e-01,-1.205087580724201191e-01,-8.101995184528089311e+00,-5.790561506599122765e+01,-7.755292069014374512e+00,-1.076679001734515317e+01,-4.923218569502261666e+00,6.869523776621580424e+00,-5.866013832721707288e+00,2.099836326301388567e+01,-1.618756087263397703e+01,-9.775209968915854475e+00,-1.007824570492243765e+01,1.199794802364776736e+01,-6.490085958708741387e+00,3.580534351098986878e+00,1.075576211995703879e+01,-6.597621475310487149e+00,-3.896779855016952610e+01,-3.834389808661565269e+01,4.313760203197517740e+00,8.835602249706337119e+00,-1.743807672465264247e+01,7.344545455931466016e+00,-2.412270505219471772e+01,-7.897240372957655019e+00,5.881476456884906945e+00,-1.488089420395163742e+01,-4.126456113343325427e+01,-1.108308033082728095e+01,-9.859633047490229396e-01,-1.404006787354121499e+01,-1.617251171535570720e+01,-7.252735898584727003e+00,7.072207204409346915e+00,-1.907950162306496722e+01,-4.192471990119199177e+01,8.767680585028791995e+00,-1.371233827753148837e+00,-2.434220026194301312e+01,-8.889417845835524190e+00,-6.455954309267077917e+01,5.650787402300047724e+00,3.503748215505907149e-02,1.710715649295406493e+01,5.131879726945975939e+00,-8.623298038370968754e+00,-7.778477533735491889e+00,-5.731930096340600755e+01,-2.129151127952649603e+00,2.078841942532176290e+01,-1.300571855612023064e+01,7.422113245211994226e+00,-2.433220344237424282e+00,-1.939385797405563494e+01,-2.937626353649593458e+00,-6.245267253293553011e+01,-4.155645811698286951e-01
-7.009934269167627185e+00,-3.996402855310941804e-02,-5.746422621686464893e+00,-1.833182654245553778e+01,3.600761752305734920e+00,-3.388097335880609240e+00,-1.228380297184600423e+01,-9.431268626080964168e+00,-1.685326550870269102e+01,-1.739995163393535194e+01,-5.200695082252598134e+00,-1.757125796948640684e+01,2.308842203051276520e+00,-6.799483297611506494e+00,8.830631523315116027e+00,-8.280067860795558232e+00,-1.341228967282240703e+01,-2.800229943748207972e+01,-7.778436953885980110e+00,-2.367862614787689424e+01,6.557750042567993098e+00,-1.653184172198563617e+00,-7.833982263592511597e-01,-1.072048973779456738e+01,6.445166368546738411e+00,-8.393068331518476199e+00,-4.023068508963397072e+00,1.060939845774065837e+01,-2.601365230898580183e+00,6.732864723541451824e+00,7.130036418108822716e+00,-9.513352196575362019e-01,-7.428863870549893278e+00,-1.397056838737255902e+01,-6.778609778045709966e+00,2.221981584840395207e+00,1.748113947817319325e+00,-3.583132453935481188e+00,-5.315448340730934973e-01,-2.464013375103103698e+00,-1.672287171949994544e+01,-1.366789039555345475e+01,-4.971639867771923349e+00,-4.482615570036434960e+00,-1.943944734200048785e+01,-1.637703856257653134e+00,1.027438977278085019e+01,-1.136205358186857062e+01,6.518746488963932606e+00,-7.355182663103075613e-02,9.328450481861744192e-01,1.285554978943650184e+01,-1.786132186849437531e+01,-6.411694455395929637e+00,1.877401000747064286e+00,4.205611034502683143e-01,9.904106893505922216e+00,-1.008788269658718306e+01,1.998652121886228539e+00,-1.006460000219586348e+01,-1.159501924997907985e+01,-2.116116461681643912e+01,4.361501446464683518e+00,-7.906362875211397245e+00,-1.195558267141780107e+01,-2.199458944073453637e+01,1.855759064033779282e+01,-7.678290504656884785e+00,-1.274982697257682673e+01,-1.561389170548285676e+01,-2.501282523832734483e+01,-5.528789150719436662e+00,-4.767177266541279934e+00,-2.825207155196457265e+00,-5.505465138176429463e+00,-6.138636377043645176e+00,9.308977611955421283e-01,7.213304792608379756e+00,-1.482877377780926231e+01,4.360329310172618378e+00
5.318449887067007609e+00,-1.290580228831510645e+01,-1.006555582746463351e+01,-1.760459078803057409e+01,-6.782250977715753137e+00,1.394979579127002989e+00,2.252213106792348540e+00,-1.952911519330860912e+01,-4.321384973938432950e+01,4.801610663716213701e+00,-1.230827229926492805e+01,-4.109452902136550989e+01,2.227970721494650919e-01,-7.722490526100221686e+00,3.344005345256102935e+00,3.148841786074595639e+00,-3.748679947007526181e+01,-1.928355109591255712e+01,-8.354173047367813965e+00,-4.875432281905769827e+01,-6.741813020944051438e+00,2.772014296127481625e+00,1.032884393551657709e+01,-7.591386739843445142e+00,2.156591433145835879e+01,-5.603047502930022716e+01,-4.722582536875126635e+00,-1.275664513121220622e+01,-2.318663511637127073e+01,1.597696503943024915e+01,2.212435168301877653e+01,-9.852097622966429213e+00,-7.436387773566978332e+00,-5.422966227149410123e+00,-1.096539077790735384e+01,-3.466999796894985497e+00,-1.511858785049065368e+01,2.650916693549676406e+00,-5.989310097808920652e+00,9.041920817511023278e-01,-3.522618504733212319e+01,-4.520437770079266215e+01,-9.181472203591521719e+00,-1.321236194022555566e+01,-6.365245183718682753e+00,2.244026810230181468e+01,-2.613017683748009024e-01,-6.453487782618582358e+00,-5.773983667849824641e+00,-1.512359199543045385e+01,-1.820250440964248284e+01,1.717222545488954211e+01,-2.760172915390296566e+01,-4.807077971069411149e+00,1.209822437485565061e+01,2.195416367438300753e+01,1.163167616857601594e+01,-1.475815310852467377e+01,-2.189479206632147523e+01,-2.089141709356214793e+00,1.266108155319684236e+01,-3.682347890287610426e+01,-1.676727349418720081e+01,-1.690453147141900203e+01,-2.029083860268273654e+01,-2.100992481732673056e+01,1.525986088377734617e+01,2.779617740316162866e+01,-7.509453695863810729e+00,2.810117157651043307e+00,-5.186993699835758065e+01,2.720429240429354678e+01,-1.626171986243012668e+01,-1.573100054898921307e+01,4.272759397268892201e+00,-7.164481136963340546e+00,-5.364197338728638798e+00,5.097762286343360927e+00,-5.068599763518856349e+01,2.108123878655661443e+01
-2.075440779633662558e+01,3.821872337672869158e-01,-2.158533374010709771e+00,-1.825227471860561224e+00,-1.196857649354826059e+01,-6.227124340833867233e-01,-5.983802333409671270e+00,-1.550495411460078188e+01,-3.137922904332924645e+01,-6.320410522629579475e+00,-3.190305381160713161e+00,1.375669119695926312e+01,5.719149651151868241e+00,1.626403246225051280e+00,-8.782102909955545655e+00,2.093432883982151438e+00,-3.235068871335675222e+00,6.535894813489727895e+00,-3.904781192172812165e+00,-4.076044076605617761e+01,-1.183791226555994669e+00,-1.321701769284123085e+00,-8.078469675796574601e-01,1.181077044585982838e+00,-7.694723063931308005e+00,-4.975500850076495141e+01,-3.967738879979592959e+00,-3.087728924922262763e+01,-3.110840652887963742e+00,-1.098728532799314817e+00,-1.314081003315874296e+00,1.012479963271035288e+01,-1.279244072826632772e+00,1.418884481972285450e+00,-1.657216726838758447e+01,3.928789486138907772e-01,-7.760492873278693082e+00,-4.617521323900010799e+00,1.124496400833930920e+01,-4.601672885417521286e+00,-1.103297362502317647e+01,-2.765722074070969683e+01,-1.188068687327964890e+00,6.372403889546899514e+00,4.371331000475989548e+00,-9.578566565055483650e+00,-1.659851486718381608e+01,-8.381991561443926653e-01,3.582062745466095155e+00,-2.839476190103382147e-02,-3.577783270161025797e+01,-2.079899911335355611e+01,9.496902326758893675e-02,-2.332030203245708533e-01,-8.266434407166260101e+00,2.468838850457232059e+00,-1.112412228215723164e+00,-1.289632947623172932e+01,-4.203903107976640996e+01,2.742235886723519922e+00,5.920904907650797355e+00,-2.053957515852291849e+01,-2.987110235324352203e+01,-3.994564421406635546e+01,1.004102412302636615e+01,-7.672124827072130948e+00,5.522322689630106751e+00,7.296660004282828460e+00,-2.486366082333047345e+00,7.199881409884391736e+00,-3.459783337603813180e+01,-4.452497338243276204e+00,-1.309108356423342912e+01,4.660935872784532918e-01,5.044940605337443706e+00,-9.976798301258725798e-01,-2.393105436152844590e+01,-1.354775118967760861e+01,-3.342894546087327257e+01,7.483169835374636314e+00
-8.026484822641776873e+00,-2.119913447564211140e+01,2.786084318319270725e+00,1.354079192231894879e+01,-2.933855045760256353e+00,6.541560222355550236e-01,1.784809819258107311e+01,-2.152173328250347684e+00,-2.535176472237009193e+01,-7.877069996010516384e+00,1.424634486779978060e+00,-1.372834241457663929e+01,-5.358818927012944044e+00,-1.068442308586950107e+00,3.269746370225449006e+00,-3.581477495138142952e+00,-8.493064500016014762e+00,3.714198589544971618e+00,9.585040131305723188e-01,-3.182951224267634061e+01,4.640154836372135883e+00,2.347816062626441713e+00,3.048546339952305839e+00,-7.975466086947159638e+00,-9.248182954186960458e+00,-3.606764220185223024e+01,-1.514639257723712773e-01,-3.159012112220410273e+01,6.943358099675935868e+00,-1.450966700547078103e+00,1.936999156110442433e-01,-3.308701336813802296e+00,-1.120047041820408484e+00,-5.991376568669526392e+00,-2.132402588154771905e+01,-3.163358315738292958e+00,-8.028989351888286663e+00,-2.879175670829559941e+00,-1.748105879520869932e+00,-2.074586553245833631e+00,-1.279333620203511579e+01,-3.689053382595947994e+01,1.435945069760132808e+00,-3.710644385867503670e-01,-1.267398802793450940e+01,9.309197223705465873e+00,-1.661455934923910860e+00,-3.952118651838194108e+00,4.795988769753598113e+00,1.953592807365480155e+01,-3.112907054683594055e+01,-1.287819564037910780e+01,7.797461349851596557e-01,-4.956456615440645308e+00,4.410397526105048094e+00,2.186723623472710099e+00,-6.617307377160095427e+00,-4.285348728866175350e+00,-2.252107531641295779e+01,-7.581251814640569187e+00,-6.193145464104183873e+00,-2.107294488152377809e+01,-2.976613478140615854e+01,-3.518899409576967940e+01,6.854103399825595133e+00,-4.161904496278056698e+00,-5.258274215979314548e+00,3.064211879373009761e+00,2.415758350909307683e+00,-2.340898620192467305e+00,-3.576065056450141100e+01,-6.880382802309507717e+00,1.012055640163526071e+01,6.361511509686877730e+00,-2.497228540789014684e+00,8.400498600547784633e+00,-1.995218447912427706e+01,-6.194018201811174684e+00,-3.991916118343357311e+01,1.495938624598133870e+00
