5.287702959766117372e-01,-2.981570878788990520e-01,-2.222429992558612621e+00,7.578511313241895753e-01,1.173638046356394682e+00,3.123349484518142649e+00,1.140929953047292861e-01,5.269478373271409000e-01,-8.153241115095541947e-01,1.741748055732044165e+00,7.048818687367804925e-01,7.709432874106399991e-01,1.948965791594444719e+00,-3.071569148336442456e+00,-1.158074218886924855e+00,9.309722114781815439e-01,8.869447573709715593e-01,2.843175134325559128e+00,1.694981076468366599e+00,4.682398944380929129e-02
2.555536855251461681e+00,-1.216630396631063649e+00,3.914957706916097013e+00,2.412676469889065423e-01,-3.408271575618546101e-01,-1.238201937258540886e+00,1.239701422943679660e-01,-7.442073415471986975e-01,7.230655258084879300e-01,-5.563396432107931666e+00,1.566710379429219424e+00,-1.063695755330672954e+00,-1.915412951743977743e+00,7.901659257783810730e-01,1.859007012090509559e+00,-2.057296119107381305e+00,1.135746367256206701e+00,3.661556938465817534e+00,1.172674137245854759e-01,-1.963928102238200246e+00
7.111445464056084242e-01,7.547410709440488530e-01,2.011951371699209012e+00,-2.537361404882614857e-01,-1.394921600655273375e+00,-1.522929458061238472e+00,1.280745870567401745e+00,-5.386292016817180173e-01,6.331141962303881154e-01,-1.964662905998748599e+00,9.566025362112251518e-01,-1.858546688430047444e+00,9.308836382164667467e-02,2.152718640407631945e+00,6.649395225340023474e-01,-1.366326717804220436e+00,1.291896378879401563e+00,-1.055152691641658480e+00,-1.507947703376407045e+00,1.234957175883180658e-01
-4.915780503726669970e-01,2.110772261689687568e+00,-4.629339300977188265e-01,-1.020479914077319528e+00,-1.189974552995080731e-01,-8.385917534118748629e-01,5.673084007466193679e-01,1.002334812585383261e+00,2.612314917979258189e-01,-4.823240449080013481e-01,-4.132311546157746429e-01,6.418844401748127204e-01,-1.446318344418867641e+00,1.842996388798749496e+00,-8.261098310660910382e-01,2.098348661636465273e+00,-4.846317934759409307e-01,-2.000269729905095328e+00,8.912739505478791679e-01,1.218513217561515649e+00
3.296701938565747003e-01,2.896465943945646160e+00,-4.802846940211410454e-01,8.215157216410914898e-02,-6.739203558614014211e-01,-5.178498022838959880e-01,1.020842929924996589e-01,2.546867400118809854e+00,-1.338947494649602943e+00,2.958342630792774042e-01,1.324454927806718585e+00,-3.171549387840494116e+00,2.566721052922980473e+00,3.936604724388096388e-01,-1.023943498408129427e-01,-3.421086186899989223e-01,2.583959914464058816e+00,1.665612583854228168e+00,-1.878049955612500543e+00,1.898652449015091559e+00
8.718887901464695833e-01,-2.486929649260181119e+00,6.001015850161881549e-01,9.881733760007526124e-01,-3.092406400101098685e-01,1.041156236490119014e+00,1.636388390994535369e+00,-1.967288227402486767e+00,-1.061537953851502125e-01,1.976433226527704479e+00,-3.310470281697526218e-01,-1.092726229839002139e+00,2.600671067842865281e+00,3.354598504717393181e-01,-4.619316289083882920e-02,1.104287125029347560e+00,-1.017386991004866209e-01,-2.798741081609132486e+00,1.361773028600820501e+00,6.183344974073022859e-01
6.178420471562049432e-01,5.824967734745510883e-01,4.968268041125962764e-01,6.396389994686364489e-01,5.961313500510346808e-01,-1.482493485177737158e-01,5.393642464527055314e-01,-2.058591219916931170e+00,5.080462331751921523e-01,9.878960629339123001e-01,1.758755662613921578e+00,3.467020716620804688e+00,-2.572292350193990274e+00,1.493860065215842470e+00,1.023761547667215277e+00,1.741933110666439521e+00,-2.099256753154914168e-01,5.457674909188082735e-01,-4.595873117881912884e-01,2.653807347573147735e-01
1.460159768990665796e+00,-3.342321256549396047e+00,5.949938828746206276e-01,7.827557669314032518e-01,-1.909746378885257112e+00,4.537743798895504943e-01,1.541781418596666065e+00,-5.236616388479357731e+00,2.211162987297861537e+00,1.978672744637615333e+00,2.743673469424798839e+00,3.973879964630527173e+00,-1.370656471536674248e+00,-1.050247611256956537e+00,1.326647489390705204e+00,4.570623847057752043e-01,3.301844494501802174e-01,2.928585480207256175e+00,-1.233502371637140049e+00,-1.042612067300358270e+00
-3.412933559492212915e-02,1.624584601641440695e+00,-1.818648439343650614e+00,-4.216816851647374187e-01,5.747752471717049172e-01,-3.131270499993524803e-01,2.282578451295861621e-01,-1.455178766365504472e+00,1.416686129942370753e+00,1.757812713441753827e+00,1.800601615789920729e+00,3.494207492527464431e+00,-2.843831521350168590e+00,-1.619388033211592581e-01,2.847969136746019703e-01,1.403134151863994372e+00,3.166777777326689955e-03,3.170500365875870141e-01,-1.089288245337773908e+00,6.287271357524526483e-01
-4.207270303367035003e-01,-1.355740599857793605e+00,-3.024716656382638869e-01,1.775975234467443986e+00,2.038105946680063951e+00,1.950799419294574344e+00,-1.020755401933358009e+00,1.385812090403043095e+00,-2.507694856991345311e+00,-4.409956613802608616e-01,5.488516905873036533e-01,3.830752601656524092e+00,4.436416912955635367e-02,-4.658169335450493276e-01,9.074940058607428028e-01,1.359435179272425964e+00,1.719259521229024867e-01,9.076293600020075569e-01,2.058279881775983089e+00,1.431555316891132412e-01
7.087474010465676377e-01,2.034168155096289787e+00,1.137142940683516068e+00,-9.009950869989477029e-01,-7.290795629090293106e-01,-1.182369094353763694e+00,-2.388739399467119662e-01,1.198212524133488666e+00,-2.454861455465481013e-01,-1.905366686035321999e+00,2.151467624563233316e-01,-7.331083188660659777e-01,-1.286754457716734024e+00,1.151872923179355190e+00,-3.239987615641118923e-01,-1.784088812854940642e-01,3.372698843610451580e-01,1.330256577143019925e+00,-7.475921000308315412e-01,7.331047598591176051e-01
-6.208543201884195728e-01,-1.260378693487798074e-01,9.174485300001418153e-01,1.739181877131888099e+00,4.105643472578750952e+00,-4.499728049274600017e-01,-7.078974064725644944e-01,-1.579497237131976428e+00,4.059235379421612944e-01,-3.168985421374799216e+00,1.512101421575824944e-01,1.929774301426982364e+00,-3.863247328805566649e+00,8.815636210461299527e-01,5.109382632186739714e-01,1.019881623553765548e+00,-5.536064648231159291e-01,-1.962778847452767206e+00,3.020215636317293839e+00,-1.186107280627496374e+00
1.693872028737775537e+00,-5.163950345576602263e-01,3.544174793336071771e-01,-4.186745224842317037e-01,5.976917130406483869e-01,-5.289597682348657903e-01,1.082849256418405348e+00,2.094570359042117191e-01,-4.914650901078700951e-01,6.223921997237086279e-01,3.535260951356211656e-01,-1.134173226675885493e+00,1.093874219638206302e+00,3.825656015167218094e-01,2.841102366659206124e-01,1.268706293546380426e+00,1.064542929579639224e-01,3.107392249272065143e-01,4.868052232770543608e-02,5.829634525319480343e-01
-1.752376842975585935e-01,3.763175736146391337e-01,-2.867991060729696007e-01,-1.660922187354287871e+00,4.826059062671913535e-01,-1.913447233786192969e-01,7.144879952549759716e-01,-4.642819050162676903e-02,1.289951164426399233e+00,7.123703961054328460e-01,-6.526109308001015741e-01,4.428681630471369424e+00,-3.898085516711870202e+00,1.612017455466684179e+00,5.120294661134079384e-01,4.165516275532500146e+00,-1.030104093070047799e+00,-1.896028809464772813e+00,1.890885272062751588e+00,8.384310565209997235e-02
1.097276422491035186e+00,-2.370517935023008782e+00,1.424134263125765854e+00,3.294164002230711152e-01,-1.684956247895835535e+00,1.228460474454368123e+00,2.707090883314910990e-01,-3.793122631563602187e+00,1.398668878744763866e+00,1.660117985877506586e+00,2.005245950068859528e+00,1.709899975363255553e+00,4.765923475803042209e-01,-9.225000263177878246e-01,1.321617684976450491e+00,5.551700983886037610e-02,2.540145700815046315e-01,2.122497508040030123e+00,-1.078837635602643008e+00,-3.653697078657907604e-01
-2.939383227923296760e-01,-1.319745312346921606e+00,-4.021851306936001236e-01,-1.876183662223128989e-01,-4.011526511529132755e+00,4.185960882095627333e-01,1.432624060569953839e+00,-2.865968652652982840e+00,1.987992101379855436e-01,3.586443479812052804e+00,-7.763346728926638907e-01,-2.827706617519974763e+00,5.685588122579220638e+00,-2.476583331694655679e-02,-1.128480184175145729e+00,-1.273909015798515565e+00,9.404172968652576570e-01,-1.567952155601643804e+00,-3.245734415770741288e-01,1.006224390282008496e+00
4.478238846900229886e-01,1.526370539703904461e+00,7.700006031194801537e-01,-6.782882887494952329e-02,-7.296103120200019276e-01,-9.036575536094854089e-01,-1.637068631917225070e-01,9.637122593770727219e-01,-1.778963925107632515e-01,-1.883157723996578659e+00,4.268439464353528112e-02,-1.131697913246703990e+00,-1.371061700533184213e+00,7.821660848630168639e-01,4.637376612457641545e-01,-3.927191098027677518e-01,4.603649755585627612e-01,1.808541627595179779e+00,-5.282564216489723519e-01,5.799052946322508229e-01
1.003945816232052035e+00,-5.520404399853801047e-01,9.949222607693085640e-01,-1.013526609001607959e+00,-2.738327780933910383e+00,-2.243743953597150398e-01,1.206964334860925359e+00,-2.267170498460008565e-01,6.105904540426559945e-01,3.411651819278374465e+00,-5.378141245932930303e-01,1.201572406146518501e+00,1.613050423901591923e+00,-8.526609203213249277e-02,1.519267283650280298e+00,1.628083604337887957e-01,-6.633264054097846030e-01,2.688006213344372508e+00,-2.619618728606785574e+00,2.709083732963529223e-01
1.230217781077299205e-01,-6.148085986977577244e-01,4.814710285350063956e-01,2.369957177066750909e+00,2.028466444649366096e+00,1.473658102534291192e+00,-1.111896463194826268e+00,2.214636567619089558e+00,-6.530485199774473948e-01,-3.319861387324198443e+00,-6.936635678110739667e-01,-1.159932004896767760e-01,2.007179249387908981e-01,-2.204047788686557818e-01,-1.893631546732877369e-01,4.665174411915752883e-01,1.422887624504662218e+00,-1.171923263362198986e+00,3.209475627147875709e+00,3.123888169348383315e-01
1.595510243638354198e-01,-2.020997947593873079e+00,-5.612377612221592926e-01,1.919561554954358762e+00,1.554507363950357712e+00,2.088343548813006212e+00,-2.144608251642997898e-01,3.051323570623533099e-01,-1.401732249885148773e+00,-8.486938639038572596e-01,9.958331131050942586e-01,3.542463540859426718e+00,3.598740287981639363e-01,-8.127479669317929645e-01,8.800277848502311429e-01,9.171759239043778544e-01,-5.281730175675632827e-02,2.178898442436387750e+00,1.405721614853773449e+00,8.995824372871738528e-02
