5.365919778294424569e-01,1.724228699318742786e-01,2.085702152936714793e-01,9.472198223240437809e-01,9.880953980702106287e-01,2.995722112451737473e-01,6.153326702579283713e-01,8.457902101273462314e-02,5.669998835298439843e-01,5.401218165310636143e-01,7.526315847712494733e-01,9.140535240698788311e-01,7.545332378726952172e-01,3.579167128200183567e-01,2.362702615190679367e-01,4.746671712680045063e-01,9.785347772742659656e-01,4.699994445689629208e-01,9.400151513543403281e-01,7.830516260751114732e-01
4.827980816364118022e-01,3.324613677272133527e-01,6.453738478903708886e-01,2.973295382791318886e-02,3.887432737904937818e-01,2.033779935061297284e-02,7.999802895448359097e-01,1.219826602061094833e-01,6.845600244326195405e-01,3.806512313792209667e-01,6.106730340900228260e-01,8.309810735493573519e-01,7.962806202880479134e-02,5.082755853723667228e-01,5.750922358266320478e-01,5.084118017657668354e-02,2.041885678115780145e-01,9.903443439061664355e-01,9.501314934153601843e-01,8.892588826217552311e-01
7.058875198232518189e-01,7.996611686995487300e-01,5.313697782210990983e-01,6.981019126002157016e-01,8.867721990000498877e-01,4.278556467328731294e-01,4.752928216741872935e-01,6.567395500813132392e-01,3.599589221651852133e-01,7.270867104937318581e-01,1.751077559048456189e-01,7.441876161891967101e-01,2.008584570639835309e-01,2.553834502271941087e-01,4.225545747756030979e-01,8.992991349664946066e-01,5.774626470820661828e-01,7.093310963874832620e-01,2.675796747723465652e-01,6.764626743176904711e-03
9.857765286841262409e-01,8.047540862916897630e-01,9.643973228781010931e-01,1.794721258331370972e-01,3.031757808731707637e-01,7.527356651578869240e-01,3.782229244364015974e-01,8.287772551129483078e-01,5.660820823011988301e-01,5.041587491718722003e-01,6.003256786438514458e-01,8.714411950248902583e-01,5.954856349377132263e-01,9.510481877125629424e-01,2.492044303484949319e-01,8.570656785028283320e-01,3.772496632641718639e-01,1.234522893461464932e-02,2.104048613306314097e-01,8.777046322570590808e-01
9.478772266569907012e-01,2.696998017934907343e-01,7.840446203793494107e-02,6.235280667450455727e-01,6.755068403340563910e-01,9.469331376914225107e-01,4.511467374180651024e-01,2.709185527826145634e-01,3.184573165513788773e-01,5.752911055319117617e-01,3.656310442778135661e-01,5.989444522635052337e-01,7.166612606067398472e-01,1.020310600904367204e-01,3.685978240103882086e-02,5.039836377531142775e-01,5.378371717101968486e-01,2.262320962767199184e-01,9.664126697690369472e-01,2.084269535191217715e-01
2.451371533110059397e-01,8.321539211604090935e-01,6.126397878822280596e-01,3.397105150834937026e-01,2.065471137077934394e-01,2.057801092084754480e-03,1.588517652357085419e-01,3.837921100629115845e-01,2.285586960806216261e-01,5.062269805535729583e-01,3.735605643282600141e-01,2.156653082212139916e-01,2.746841722960000620e-01,4.597043255312787124e-01,7.731863112574630659e-01,3.016218895188509386e-01,5.015832858425683938e-02,1.676116692078000181e-02,5.996624068184004397e-01,5.305596711462620130e-01
3.540103335858422184e-01,9.923447513548918630e-01,7.361698283220043937e-01,2.046084038143797246e-01,2.082500770507778043e-01,8.825803572116805995e-01,2.204389783156955884e-01,9.816515918304691279e-01,3.626431442693718310e-01,9.362842476447864604e-01,3.583443175213684162e-01,5.499558971862064105e-01,7.614957470924670346e-01,7.715276324545642384e-01,7.327387678104372304e-01,5.117487470669168648e-01,9.898778372239543932e-01,4.404907409051260769e-01,3.876254622626287283e-01,4.406298405366763093e-01
3.776403928601861359e-01,9.561009755397431586e-01,9.351387477331782883e-01,1.059223371431124994e-01,6.913696603918594308e-01,9.339476929508557790e-01,1.351437272127865574e-01,4.926496342649407945e-01,7.374132174084868652e-02,3.679900040252286342e-01,4.852186418461296169e-01,9.194760472891794212e-01,7.620752990141926864e-01,4.570427365136202624e-01,8.414559377296092491e-01,5.181942799095997643e-01,6.754482742891229075e-01,8.301082634034894214e-01,3.236819309011539358e-01,5.260258104499317966e-01
1.292689622598763854e-01,7.141295114008716638e-02,5.786042070982367891e-01,2.638080429580829112e-01,5.333557001653207452e-01,1.446673163215883573e-02,1.924622794070462994e-02,4.282646396087134155e-01,3.847014221181825899e-01,4.313192835655786928e-01,1.043857472027154287e-02,9.255713044102955589e-01,1.405883133500269722e-01,5.827080842167198238e-02,5.509391947415076540e-01,6.875999117278100980e-01,7.840431488356569556e-01,5.273211051368383862e-01,9.687983007115400502e-01,6.901251183176413395e-01
9.004603572233496056e-01,8.474983466035553858e-01,5.418437512525279276e-01,8.738211589675181079e-01,8.061402665268903034e-01,9.411418050287339021e-01,4.128085107208574467e-01,1.884376599531629726e-01,4.824308988385468400e-01,8.060052104018018415e-01,9.894222846956146622e-02,2.085797094939862983e-01,8.935744412862056674e-01,9.460853915124152191e-01,6.708914837448953783e-03,6.472629043061695064e-01,8.146505701542966493e-01,1.960886648785439279e-01,4.221568253664035320e-01,7.654035693858191047e-01
1.110994461595496974e-01,5.316001914014324425e-01,6.864813229869467515e-01,7.974239299327758879e-01,9.889178083866430047e-01,3.736586724601187459e-01,4.408334202733414919e-01,9.290318186163715186e-02,8.203276382679197676e-01,8.206712613567379577e-01,3.028008587034322074e-01,2.775640600774669231e-01,9.791323940459103481e-01,3.585221325155709682e-01,6.144859542468185110e-01,6.070721919075345863e-01,8.561034363612246567e-01,8.387372835097084423e-02,3.047187549804477591e-01,1.784066556455476960e-02
2.034433259434089702e-01,5.381920761280079013e-01,7.548373080071411056e-01,6.514718626166765558e-01,8.123584054644142904e-01,4.065024087566171396e-02,6.230964887423922072e-01,4.492969878596749789e-01,5.298329197320823525e-01,2.823613127074880991e-01,8.476940790900188150e-01,7.000175868646766331e-01,6.530137848679318235e-01,9.165881866596261585e-01,4.095003070068727880e-01,8.305352122581166618e-01,5.693062829422241844e-01,1.674936152454424843e-01,8.258941589334178879e-02,2.551516093011089170e-01
2.028626315917140892e+04,1.299014448252027069e+04,1.904444974059729020e+03,1.382796944959011489e+04,6.262841039548704430e+03,2.017830038784180215e+04,1.805344083103166849e+04,1.240476339961942358e+04,4.283754923249544845e+03,2.798388983039665618e+03,1.942779463248931643e+04,2.590996844542747112e+03,1.924865890691251843e+04,1.781556149658684444e+04,5.237637407877584337e+03,4.247516487515973495e+03,4.705576923713488213e+03,1.275683123049487403e+04,5.394216929462424559e+03,1.933268763430159743e+04
4.378884829018112941e+04,2.931348217541882696e+04,1.018690471760899709e+04,3.152312418065292877e+04,1.558001335368192667e+04,4.861734680664737971e+04,4.498405100842222600e+04,2.743082242615580253e+04,1.368756569134914389e+04,1.110807358051253686e+04,4.716485395212693402e+04,1.096860601485865664e+04,4.889757656501243036e+04,4.080434845708208741e+04,1.483890099323452341e+04,1.294234451210737097e+04,1.431486281481273909e+04,2.766289357826175183e+04,1.557445798159717378e+04,4.881641074298629974e+04
-7.008918806499610810e+02,9.690659290635929892e+02,6.696334027926645831e+03,1.385721089979198723e+03,2.077734835659316559e+03,4.935064653396309950e+03,6.070013657231712386e+03,3.004269325941642705e+02,4.795238854520276618e+03,5.541606079396601672e+03,5.148506684513179607e+03,5.892219863113538850e+03,7.513431932916922051e+03,1.999356256745985775e+03,3.752436733107580949e+03,4.054130036303965426e+03,4.467015203880074296e+03,-2.997145130294432533e+02,4.187726394572709978e+03,7.216665653750099409e+03
-2.910456238916971117e+01,4.059716522387313375e+01,2.794929419034271518e+02,5.842522262975565894e+01,8.712861951477918865e+01,2.061046863042066377e+02,2.538420827514038365e+02,1.260957668977494706e+01,2.000504671127506526e+02,2.317296806607300255e+02,2.153121984616868190e+02,2.455641753621375756e+02,3.138933367801923282e+02,8.382203887487629856e+01,1.563848896946156231e+02,1.689689947376532473e+02,1.865764050853959191e+02,-1.165449693015123778e+01,1.752507239168195952e+02,3.008896275637534927e+02
4.732340931833544095e-01,4.172977962785895389e-02,9.752287267665117332e-01,1.260791302404218328e-02,4.771701557326003540e-01,9.892375172157349406e-01,3.134242132537697900e-01,3.005140441437021970e-01,6.968522656234205082e-01,1.905102423510749432e-01,2.208156929806688318e-01,3.535528772111991014e-01,4.762777906969057895e-01,9.566234553865126111e-01,7.446993629134911474e-01,6.733564781991365766e-01,9.878969223750284634e-01,9.520393566828964094e-01,4.646465758210064356e-01,7.799247613940111234e-01
2.494533995812451277e-01,8.257117206109825247e-01,4.054890342347277077e-01,6.690862496764353740e-01,9.722711270469398537e-01,5.719898222493415840e-01,6.753861583286245862e-01,7.449120487942627600e-01,8.406692286045071016e-01,1.792122255476878978e-01,9.054598239531416182e-01,5.859019555049389538e-01,3.898450922266218921e-01,8.202706444264282748e-01,5.034222741542209167e-01,3.688462937699247268e-01,5.842659273482148086e-01,5.133848616790412933e-01,3.130267073029341374e-01,9.095598621741851630e-02
1.047144213963011605e-01,9.109614518000885841e-02,2.187628748406145185e-02,9.047369246684195954e-01,8.078633831413389865e-01,9.007854692538437291e-01,9.706211841969296650e-01,4.780896671848109403e-01,7.781813887780486549e-01,7.832263613968735161e-01,9.028627400252384749e-01,2.445696724036735548e-01,6.130144745519545690e-01,5.100923876416183500e-01,7.216911819185883870e-01,5.702997577353974279e-01,6.487643515559020635e-01,7.756167759302435849e-01,6.509709390934299567e-01,4.687024119133708089e-01
6.798670827331412259e-01,4.592617062838837416e-01,9.936887909332139390e-01,8.265316014892643004e-02,2.147222230765549744e-01,3.829598811344937515e-01,8.800140300043343133e-01,5.795927557306917999e-01,2.821409528434308811e-01,4.953432778969935057e-01,3.413107681315774578e-01,6.387645748934175360e-01,7.645579264847257583e-01,8.330202623308455845e-01,3.737395914546214337e-01,2.263267854291147740e-01,6.334595083719555264e-01,4.373459733141914496e-01,8.165884456922388734e-01,3.855052566602188424e-01
9.457699584114824809e-01,9.039647467096754152e-01,5.423449663552615263e-02,3.779908752783981418e-01,6.375905054309362052e-01,4.998911759531207144e-01,8.497825011538429063e-02,5.318678771735316779e-01,3.059658304269511353e-01,7.857140852869979319e-01,7.628746753732031927e-01,5.208306403616342894e-01,8.369021685473650995e-01,1.926423828144239181e-01,7.729523725618554497e-01,4.676337786036938171e-01,1.211224038932350311e-01,1.224199621121624393e-02,7.450905711839657108e-01,8.617650791390517595e-01
7.755087554675220707e-01,6.116725101292688205e-01,1.901523485127958324e-01,7.050380228663718496e-01,9.056834033029061981e-01,3.178840573960189930e-01,7.995136084772801466e-01,9.307833754854618613e-01,5.403258070344018060e-01,7.655523651648759031e-01,5.318973804305817676e-01,4.279368937240710657e-01,5.208901695840734147e-01,7.825626746337399631e-02,7.238628491572286494e-01,5.050655056943256227e-01,5.008717228012701250e-01,4.631856434497955144e-01,3.953538906925035956e-02,3.872693409090018912e-01
1.111978461730709355e-01,7.598608033746573343e-01,4.758013751123655322e-01,7.035779312495902271e-01,7.276543732025591016e-01,6.882201466737680740e-01,5.700841477151736836e-01,6.757132569208279538e-02,7.572889957463937449e-01,5.924095359601497801e-01,1.436648237886628543e-02,9.708542472996580797e-01,4.261229758483557895e-01,7.458731804068704507e-01,9.139312267966006598e-01,4.355961221751847301e-01,9.299893352868798813e-01,4.614726426021675820e-01,3.851422824104707709e-01,4.387962376136681497e-01
1.796466586753110439e-01,8.908888485053230166e-01,3.602206912938440420e-01,4.183386304432613612e-01,4.554732255562005117e-01,2.634148233033319908e-01,1.150658153847384790e-01,4.937878877948007617e-01,4.596685578412104123e-01,3.326042450736781397e-01,2.417407808711078410e-01,4.402519387083637659e-01,9.284709806491708850e-01,3.229197142935381626e-01,4.336284128433705032e-01,8.957529167624738164e-01,9.566932642896640582e-01,3.801642103753700708e-01,8.387482248190468725e-01,2.246779184978848765e-01
7.839767313173544583e-01,6.214346134171607750e-01,2.862619422901676591e-01,9.345976063744005913e-01,4.603690258529011814e-01,9.197516490833543834e-01,5.201094435905302404e-01,4.174528458803550279e-02,9.321327955074992788e-01,9.924146526061656814e-01,5.769593776965116216e-01,6.566430325203720386e-02,2.449514033673079183e-01,2.739542045823487593e-01,3.089221580845642467e-01,7.050050360120526660e-01,3.963020065389442070e-01,2.559140617429011000e-01,6.574282159452393692e-01,7.567046717769304598e-01
8.482535517487397314e-01,4.607635861858639936e-01,4.897304781571950594e-01,2.231995120324250514e-01,3.955094111849366545e-01,4.834758795621872940e-01,5.728572873094229800e-01,9.747936877885102769e-01,3.135099418675157956e-01,4.175337129911241840e-01,8.323730202214330021e-04,5.169009027424982250e-01,1.195810405851466252e-01,8.951391134588386755e-01,9.025568256607685580e-01,7.069549237323398128e-01,3.108667975430511321e-01,5.293218895947601199e-01,9.108646348520046399e-01,8.661280384522830333e-01
9.407568394943713885e-01,3.112322948973089698e-01,1.849648136943082832e-02,1.046735155915083926e-01,5.310330964959578681e-01,6.123570518857004430e-01,2.235847065404528156e-01,1.973474140867681470e-03,8.500664811817013611e-01,6.661112121498088401e-01,9.696713610913646475e-01,8.272999972297455651e-01,2.315780091589871859e-01,8.475329692217675737e-01,6.756241522148805911e-01,8.761842384436818731e-01,7.351610488701668666e-01,7.727335057686556263e-01,2.736899790175387759e-01,2.988013204767717701e-01
3.476178374021061668e-01,8.500554499756817206e-01,1.613024050416417277e-01,9.579055561012268516e-01,5.863006895126454676e-01,8.559391686414746792e-01,7.824454221807892740e-01,4.246594868825316338e-01,6.811689641092566472e-02,3.000040253322334705e-01,7.222032194827976426e-03,8.585020218938176351e-01,6.198861927170327135e-01,9.446563595828457727e-01,2.867370528503431215e-01,2.381950373090474526e-01,7.640757969445565179e-01,5.131156635020411860e-01,7.633425926174827181e-01,5.733322585119426940e-02
5.847829810048027488e-01,8.097058607975990974e-01,6.202282773027301133e-01,6.192288566643928682e-01,4.425630391343526870e-01,6.483321959887224928e-01,8.033484593836847099e-01,5.248797050739567593e-01,2.162743679249041762e-01,6.200888182209660648e-01,8.642413663103798438e-02,5.895518911285494434e-01,6.705472802379294217e-01,1.565670188069583357e-01,7.546937214572949637e-01,1.279100027404176387e-01,7.106256407727774560e-01,8.084200628341059458e-01,5.131881705044033515e-01,6.313204814106923024e-01
2.375613663189374281e-01,7.019387653900596158e-01,3.624777604591046254e-01,2.282393184679042397e-01,1.306332312344836710e-01,7.291992845877385276e-01,4.038259482945090184e-01,8.755408887321040057e-01,5.947826582503248360e-01,3.607577994512759512e-01,5.260776773985054167e-02,1.845746838734659834e-01,4.707221547566542430e-02,1.664390448572994341e-02,3.451668279765632841e-01,4.593948547799024951e-01,4.342419581320956512e-01,2.949105737339166033e-01,2.129068168048646736e-01,2.726764704760921143e-01
9.931297491744701667e-01,1.907088710926859720e-01,8.032085435381667304e-01,6.566325187440887889e-01,9.103635952306184942e-01,3.454882338794178498e-01,9.741928472778114134e-01,5.274630862299267697e-02,9.454810872062593408e-01,4.399700248966973426e-01,6.401752639985652804e-01,9.615478934580831138e-01,6.173942929612273867e-01,4.658726820802207014e-01,4.881364753024138858e-01,5.092933025766632760e-03,3.611726266432739862e-01,8.546959682159471772e-01,9.573781703998018866e-02,9.814904701637311435e-01
2.436853495265240976e-01,2.872231595076379929e-01,5.165568754029324916e-01,6.630616155867502526e-01,7.232887464489213825e-01,4.103151025052744760e-01,1.649412942272481253e-01,6.821225453464784261e-01,7.464425429618790631e-01,3.823141461884204118e-01,5.990220652312734373e-01,8.390339753296927050e-02,1.137402686012721764e-01,6.112872703037182109e-01,6.403302472283193270e-01,4.605798414934004770e-01,4.885049200625679600e-01,1.335629327919654052e-01,9.909757687750582189e-01,2.439776075596598037e-01
4.928155612577867942e+03,2.853642520964064715e+03,-3.289771838052946578e+02,3.420653042042800735e+03,3.317336523002860531e+02,8.527978912345372009e+03,7.232380420596383374e+03,2.802349011290025373e+03,-2.292144227436377832e+02,-4.457471940121370153e+02,7.698310238481041779e+03,-4.794263516759073696e+02,8.113619227008452071e+03,6.049799663635530123e+03,-9.045680084660979503e+00,-5.743239205343033404e+01,-5.799682436692193477e+01,2.211920840828750443e+03,-1.209113315362685181e+00,8.222582529724310007e+03
1.371442932378867954e+04,7.794965836290206425e+03,-1.184520669931981956e+03,9.528149730812112466e+03,5.877666095028519067e+02,2.376936890927006243e+04,2.011531110764776895e+04,7.727359278086708400e+03,-9.916641018830461007e+02,-1.576614280155380357e+03,2.149489883244258090e+04,-1.670894493888790521e+03,2.266378734128736323e+04,1.687454826486387537e+04,-3.921835678280605748e+02,-4.643947859464085468e+02,-5.091555871856440945e+02,5.898037451745796716e+03,-3.739823369030362983e+02,2.294964745864454380e+04
-4.315474408887031313e+04,-3.434686832876638073e+04,-2.178173950543682076e+04,-3.012096591079050995e+04,-2.631068253078269845e+04,-8.334163862226903439e+04,-7.603144810097328445e+04,-2.905453342849269393e+04,-2.512982746174548447e+04,-2.233380057196733833e+04,-7.348496193763313931e+04,-2.251770222278319488e+04,-7.976995102333667455e+04,-5.535987356549675314e+04,-2.675091807237377725e+04,-2.237777866551235638e+04,-2.597280317342711351e+04,-3.748642991094318859e+04,-2.671048333391311826e+04,-8.114412535698791908e+04
-1.002110971664404642e+05,-8.347645944998312916e+04,-5.797506982890507788e+04,-7.380018240568417241e+04,-6.728430475271114847e+04,-1.684646136468521145e+05,-1.537973565556972171e+05,-7.064698484419002489e+04,-6.708990915364428656e+04,-6.037360591353884956e+04,-1.483426726567175647e+05,-6.065402031188678666e+04,-1.602299032544892980e+05,-1.164692003402704577e+05,-7.143032273165791412e+04,-6.022171771068173257e+04,-6.940561382034928829e+04,-8.840037466509017395e+04,-7.141257017438326147e+04,-1.639919701395513548e+05
3.932398622200562386e+04,-5.427784803650385584e+03,-4.279575635945354588e+04,1.571662100658259442e+04,-5.977197596142035763e+04,1.338174131181538978e+05,1.120287142792139784e+05,-2.252076458610681584e+02,-6.423411372350498277e+04,-6.794533453769155312e+04,1.191914636826404894e+05,-6.660537224331851758e+04,1.404139444886696583e+05,7.531551597226064769e+04,-6.783107974455475050e+04,-5.210226194898162066e+04,-6.734975610512797721e+04,-2.546795265679393196e+04,-7.707194495113112498e+04,1.358552179823422339e+05
2.249638319619687682e+05,1.261101140666681022e+05,-3.337966764775503543e+04,1.600444951305316645e+05,8.385848078649301897e+03,3.368592465826133266e+05,2.893236217348804348e+05,1.319311530057075142e+05,-3.214296611487831251e+04,-4.730334248384016973e+04,3.111515956031635869e+05,-4.986876029442463914e+04,3.332231752975358977e+05,2.518723515163147531e+05,-1.636017619994995766e+04,-2.935615047844677611e+04,-2.107576389653691149e+04,1.095190544437592034e+05,-1.345750286239650450e+04,3.297816155096145812e+05
3.116023874058482470e+05,1.085976852587281901e+05,-2.978615809158132179e+05,1.898978603495669086e+05,-1.664907632288137684e+05,3.378127167807053775e+05,2.209110046188859851e+05,1.346909592335897323e+05,-2.764709070637830882e+05,-3.013526661640729290e+05,2.916789449290356715e+05,-3.116527558673873427e+05,2.918006593185371603e+05,2.989765675171413459e+05,-2.353410138797014952e+05,-2.579226989231859916e+05,-2.425401219584471255e+05,7.703608184871045523e+04,-2.066916547774835490e+05,2.908048377692429349e+05
-3.921587484560914163e+04,-2.254835043156182801e+05,-5.812055375864299713e+05,-1.047784377498646209e+05,-5.326835695314855548e+05,-5.148571530403502984e+05,-6.208094819521534955e+05,-1.831057273184883525e+05,-6.163266960612260737e+05,-6.233558774839114631e+05,-5.161968970908936462e+05,-6.315435981268762844e+05,-5.544635687980968505e+05,-2.413446887294121552e+05,-5.951106675444183638e+05,-5.534997935671467567e+05,-5.918131417356051970e+05,-3.243959091452526627e+05,-5.801728964856072562e+05,-5.714830711144041270e+05
-5.753763833298060345e+05,-6.220073111633739900e+05,-6.050503158137429273e+05,-4.997681937177150394e+05,-7.887234808394126594e+05,-9.051749901694033761e+05,-9.773733572769928724e+05,-5.703644021002782974e+05,-7.632677121333298273e+05,-7.520562075322610326e+05,-9.182453677624253323e+05,-7.462244800855341600e+05,-8.857822570542913163e+05,-7.305622150007894961e+05,-7.990950121519184904e+05,-6.619644278411304113e+05,-7.790048857806541491e+05,-7.802698166818467434e+05,-8.331792466388831381e+05,-9.237969655568962917e+05
-4.413902932615142199e+05,-4.896514978962951573e+05,-3.437354679822083563e+05,-3.668841236611141358e+05,-6.655356070701563731e+05,-1.373119954434825107e+06,-1.400694071320903255e+06,-4.657801810617059236e+05,-5.375161071929218015e+05,-5.316318073600669159e+05,-1.352155334357483778e+06,-5.162574613268302637e+05,-1.306745872730795993e+06,-1.016293481168538448e+06,-6.190376312850094400e+05,-4.193857055481317220e+05,-5.929948660138942068e+05,-7.734307025434547104e+05,-7.057537648878778564e+05,-1.355698245938636595e+06
-1.903809829053761205e+05,-3.222799920000383281e+05,-2.782354125902589294e+05,-1.934592871691570326e+05,-5.330019158466520021e+05,-5.347647422212043311e+05,-6.118080592240674887e+05,-3.012721145525702741e+05,-4.386024371232113335e+05,-4.429303599975018296e+05,-5.731692503246061970e+05,-4.300074852312839357e+05,-4.907271543472371413e+05,-4.968216771238356014e+05,-5.057912942094114842e+05,-3.366556154209764209e+05,-4.853576535811489448e+05,-5.422142017335224664e+05,-5.759706096147703938e+05,-5.265772169134027790e+05
2.925144199659250444e+04,-2.105334320607435657e+05,-3.329862777095912606e+05,-7.542021434468537336e+04,-4.695357213144329144e+05,6.948811591949460562e+05,5.223776833752472885e+05,-1.810389691858866718e+05,-4.480049179568690015e+05,-4.531114421902206377e+05,5.538839723297900055e+05,-4.480137578549502068e+05,6.810711628547746222e+05,2.423704622830934240e+05,-4.884767711394457729e+05,-3.664913113405510085e+05,-4.719610118075062055e+05,-3.287083776836692123e+05,-5.185067948406148935e+05,6.709075290423019323e+05
-8.525640233000478474e+04,-2.785694935079571442e+05,-1.740277694017064932e+05,-1.452872473960182979e+05,-5.183095028838652070e+05,-3.915815689557896694e+05,-4.642887557833925821e+05,-2.641996390831355820e+05,-3.685764956266302033e+05,-3.585889596498619649e+05,-4.117916341975644464e+05,-3.451973067897593137e+05,-3.386035427597613889e+05,-3.406861597239463590e+05,-4.704153979285357636e+05,-2.586358264769939706e+05,-4.386744324496024055e+05,-5.583930360916322097e+05,-5.556578272989147808e+05,-3.712051855234584655e+05
-2.774548344028808788e+04,-1.819406397314507049e+05,-8.586973411149952153e+04,-6.530476565356616629e+04,-3.902293707810883061e+05,-5.565863861199917737e+05,-6.013052466968692606e+05,-1.814257442060741887e+05,-2.352556879290555662e+05,-2.312148929421479697e+05,-5.469648620809691492e+05,-2.190321736871209869e+05,-5.004157852752614999e+05,-3.776859948080410832e+05,-3.268869054952049628e+05,-1.417609719239900878e+05,-2.952010442462001229e+05,-4.489729066799373250e+05,-4.142408047955553629e+05,-5.340045630794705357e+05
1.102079357074464642e+05,-1.847757762623227791e+03,-3.495190100075661030e+04,6.234646028156945977e+04,-1.529790468767518760e+05,-1.264179367858520127e+05,-1.650680314637060801e+05,-4.672505445981414596e+03,-9.595951507811011106e+04,-1.043186526396703121e+05,-1.298575952251364652e+05,-9.845900846982513031e+04,-1.009230089803531591e+05,-6.282393846389782266e+04,-1.276954876859744400e+05,-4.862383759567124071e+04,-1.165777550195787189e+05,-1.366072301767993777e+05,-1.702604171423715889e+05,-1.184608927797159704e+05
1.316789533180262661e+05,3.204437242237477767e+04,-1.008202588890133193e+05,7.504508551388783962e+04,-8.105323347063403344e+04,4.200277818160224706e+05,3.581242165985601023e+05,4.294933541848979075e+04,-1.087087462440429808e+05,-1.190802536593105469e+05,3.773748953768608044e+05,-1.202243467474857753e+05,4.084405813449852285e+05,2.781360944267607993e+05,-9.831126762832113309e+04,-9.111524722917278996e+04,-9.941984653614013223e+04,7.696835834014840657e+03,-1.023050853847521357e+05,4.059388673486018088e+05
6.557753255809936672e+04,-5.527615368278180540e+03,-1.041165297811433411e+05,3.055978716379923935e+04,-9.977329557175323134e+04,1.177657552561531775e+05,8.012519655264134053e+04,2.473187321214652911e+03,-1.185345008713387942e+05,-1.240181935017671494e+05,9.934836730089483899e+04,-1.246878907148671278e+05,1.095169072471382824e+05,1.014966889548633771e+05,-1.144885960684346501e+05,-9.826268422519776504e+04,-1.139567372085031093e+05,-4.415516539922588709e+04,-1.189343962396476418e+05,1.065609687236919272e+05
-3.820811247846433980e+04,-3.458659515197606379e+04,-2.106212936978968355e+04,-2.445042899495935853e+04,-5.223196930415055976e+04,-3.712973277441135724e+05,-3.533654816826054594e+05,-3.556987623709336913e+04,-3.906109765949958091e+04,-3.934229157945363113e+04,-3.423596162637389498e+05,-3.733513570910270937e+04,-3.585247257727266988e+05,-2.070423438459358586e+05,-4.689410733792933752e+04,-2.710517145669169622e+04,-4.473954261601394683e+04,-7.327831346849186230e+04,-5.780612643802614184e+04,-3.654204943355928408e+05
-2.814881276739431632e+04,-2.459159734497797399e+04,-1.902531333961824566e+04,-2.137694547147326375e+04,-3.015471360225984245e+04,-1.784532206829079369e+05,-1.716359717170756776e+05,-2.481558802383932561e+04,-2.622787355333831147e+04,-2.579938151802788707e+04,-1.664061721935208479e+05,-2.509433749482384155e+04,-1.747656486765155569e+05,-1.064718572000231070e+05,-2.939657757493932877e+04,-2.104668798686877926e+04,-2.861193761731877021e+04,-3.982447101601384202e+04,-3.314212705116903817e+04,-1.777343336249394924e+05
1.392240881382204134e+04,8.249509102269425057e+03,6.080865516307871985e+02,9.425522618816856266e+03,2.366426717244300107e+03,1.060031591958046192e+04,9.384243219777601553e+03,8.015062136601942257e+03,1.128423536373049956e+03,5.676665800505429615e+01,1.033553544148661604e+04,4.864081062854597803e+01,1.015608672846306217e+04,1.018801886844709043e+04,1.503809631904333855e+03,1.589578052661024913e+03,1.221174089923275460e+03,6.774449208734870808e+03,1.650012145853292395e+03,9.927778836961888373e+03
1.922169719827726553e-02,5.763930364995870637e-01,9.399885022708882598e-01,4.028218299772388100e-01,9.537967796219311012e-01,8.818095430563424042e-01,1.770151316138975917e-01,5.158224162843249028e-01,4.481271404695280625e-01,7.025526168712433739e-01,6.275702344095785978e-01,8.223519495187469053e-01,3.298465517595041696e-01,6.117357640633055427e-01,6.047581419639392886e-01,9.917818484955684966e-01,5.510053714885910781e-01,6.532957968858962294e-01,1.715311080816778189e-01,7.922734037639167504e-01
3.180237416938740402e-01,3.717797831411231435e-01,4.479703392802817374e-01,7.540530506957935364e-01,2.913570195029420162e-01,3.998819260145048959e-01,8.809279863436791924e-02,9.672748937404126446e-01,3.692370078141206102e-01,9.876006161847511455e-01,2.576279108063674883e-01,5.044121237204512997e-02,7.233843744503561934e-01,3.362046412794539307e-02,3.345221388257373363e-01,5.680051371529213355e-01,6.369615457637877176e-01,1.608943428062595826e-01,5.492345068576613976e-01,1.500695544011592109e-01
1.656541901908165082e-01,1.905569299084624024e-01,3.859016436046974752e-01,8.845762952577819194e-01,5.830281130268796241e-01,1.986024188022184056e-02,4.849205403729367481e-01,1.515651009514270564e-01,2.412060790872063709e-01,3.351487293211899976e-01,1.794320919016917371e-01,7.991123797639420046e-01,2.744662687131869117e-01,4.406562333443795332e-01,7.110234480553569991e-01,3.568608616148776225e-01,9.720936902838166471e-01,8.177640112704849251e-01,6.985531140693477248e-01,8.112856200290086139e-02
5.701381995143139925e-03,9.882997832888266165e-01,6.007855140656773729e-01,9.720646484554049671e-01,1.029404230407299226e-01,8.113149321637213029e-01,2.207893403364964424e-01,1.766987698422056718e-01,1.412351793285548940e-01,5.377042034833533490e-01,4.806188386500498400e-02,8.348276031922911011e-01,8.588732997671993941e-01,6.448745639968953558e-01,6.481567834496596570e-01,6.058342227672572911e-01,2.790762688208057174e-01,8.050204933657678641e-02,8.334992529443100429e-01,4.648550663988667564e-01
1.658703593103117990e-01,7.527774135929240495e-01,2.862088425633602107e-02,2.369057129252423177e-01,6.551205413279708178e-01,8.613317984427115714e-02,7.426251701994227572e-01,6.722359371810107120e-01,5.478764823683311969e-01,5.159743759165503763e-01,4.571040649934045019e-01,8.899210262543301164e-01,4.247020254647797532e-01,5.876649418120239998e-01,3.579916855603727521e-01,5.310765065884492930e-02,6.897073597772114262e-01,8.166233796090414110e-01,1.006269454484738368e-01,3.507848854987261067e-01
7.726035024366070258e-01,5.564891738850614722e-01,6.251166587801643137e-01,9.549895837952259159e-01,1.583035036783582150e-01,2.587080981782894362e-01,2.165915605358026408e-01,2.382512125359995681e-01,7.075676765641244481e-01,2.903708204446652230e-01,2.259464371753667766e-01,5.248301034099090989e-01,8.714441736661145965e-01,1.979921948039697899e-02,6.655639918183198223e-02,4.400075974584287675e-01,9.981552009155043592e-01,7.658263450925880678e-01,1.610531501419492084e-01,5.600424727470665331e-01
-9.022835310442818809e+03,-6.506917180905654277e+03,2.522605198778170461e+02,-6.548034501810037909e+03,-3.974431132939220788e+03,-2.090994524663295306e+04,-1.842444690591967810e+04,-6.465640473106110221e+03,-1.638277181998441165e+03,-1.166268316552422448e+03,-1.854061214909809132e+04,-9.646329380028130345e+02,-1.939632980590512670e+04,-1.199955640832912104e+04,-2.760743538026626084e+03,-1.143501208020711147e+03,-2.507927315592882678e+03,-8.341912006719396231e+03,-3.650047273774415316e+03,-2.002197031842560682e+04
-5.718821270802168328e+03,-3.781023324519362177e+03,-1.864078602709586903e+03,-4.115928305430798900e+03,-1.635240514403255929e+03,-1.374990606282437875e+04,-1.139398236701648420e+04,-3.414142804124459872e+03,-1.914313990934891990e+03,-1.588838585621149832e+03,-1.118795373607429428e+04,-1.626032132803634340e+03,-1.312175989277280314e+04,-3.944235058120224494e+03,-1.650465847415209282e+03,-2.173316749611603882e+03,-1.714891582636210387e+03,-3.224984004036333772e+03,-1.389103420839375076e+03,-1.348346951930276919e+04
-4.676346169296645530e+04,-5.907496590966322401e+04,-9.587020327820388775e+04,-4.624117549278723163e+04,-9.036835739629004092e+04,-3.332885948749965610e+04,-5.596764292435832613e+04,-5.281774629037594423e+04,-1.051923007636279071e+05,-1.034370802452056232e+05,-4.785407506492713583e+04,-1.048118368532906752e+05,-4.369715577176171064e+04,-4.222704179703390400e+04,-1.025463263693079498e+05,-9.556853374297384289e+04,-1.026179116679491563e+05,-6.743498918518464779e+04,-9.812019032710170723e+04,-4.514591407189833990e+04
3.420960452330912085e+04,1.535782136989237551e+04,4.044083192106620004e+02,2.230972616228278639e+04,-5.845613153864394008e+03,8.374567193004080036e+04,7.256323898540662776e+04,1.532123815707366703e+04,-4.737631477349950728e+03,-5.857184170710530452e+03,7.526347612991760252e+04,-5.592446360727433785e+03,8.318835136357121519e+04,5.059390046783148864e+04,-6.351779486141741472e+03,-1.205926106187424466e+03,-5.861524155449788850e+03,5.524924168048998581e+03,-8.809011956648986597e+03,8.338898956674100191e+04
2.676194713350133679e+04,-2.050789219953159773e+04,2.637132926586670510e+04,1.241383039241817460e+04,-6.602513837829814292e+04,1.031425891250399582e+05,9.418678060462618305e+04,-1.684951608558575390e+04,-2.226201802019172828e+04,-2.157808044453638649e+04,1.008161012307496276e+05,-1.679973409527614058e+04,1.287631563132997398e+05,5.353679805129214219e+04,-4.658762647226543049e+04,2.412518824055937330e+03,-3.966459563661916764e+04,-8.451070851523726014e+04,-7.343729509889645851e+04,1.228804585385884566e+05
4.901051993074791972e+04,-9.148568675221179728e+04,-7.989136646119946090e+04,-2.269469379634530924e+03,-2.542143535828667518e+05,1.260555363840867649e+05,6.309783366255449073e+04,-7.797503176007632283e+04,-1.845103813766404928e+05,-1.919363728409417672e+05,9.271934424288837181e+04,-1.814058805816675012e+05,1.612669887465484790e+05,3.657872758945998794e+04,-2.299655563516413386e+05,-1.149453295904877596e+05,-2.154602553885574162e+05,-2.375484825187048991e+05,-2.866186282321007457e+05,1.489011991524706827e+05
3.007825270094877924e+05,-2.017346350294336298e+04,-2.070026732619432441e+05,1.353096889475136995e+05,-4.039175611211446230e+05,5.427417182580378139e+05,3.898714450044131954e+05,1.317129733672560178e+03,-3.502228735138602788e+05,-3.767310805960040889e+05,4.538554454156588181e+05,-3.659472958093258203e+05,5.726550141608029371e+05,2.976023395492442651e+05,-3.994773525527301244e+05,-2.450896780106537044e+05,-3.827972259322761092e+05,-2.362252702174449805e+05,-4.722934272802516934e+05,5.512847441105570178e+05
1.303107947332809214e+06,4.760130293676138390e+05,-7.130750771835024934e+05,7.834385910621831426e+05,-5.690091292949039489e+05,1.806988001325603807e+06,1.346489562871633563e+06,5.227280963216485688e+05,-7.660760986819597892e+05,-8.543990555888334056e+05,1.565715069186996436e+06,-8.695279110501961550e+05,1.703850463789991569e+06,1.275194861355100060e+06,-7.190766507219709456e+05,-6.159754035870428197e+05,-7.219999819746093126e+05,1.662288384560421691e+05,-7.370006838036258705e+05,1.698151860528438585e+06
2.091415785309659783e+06,6.465791025196500123e+05,-1.435287913781635929e+06,1.228988277493864996e+06,-1.222227089931163006e+06,2.493378479183677118e+06,1.689224200552543858e+06,7.384037355001894757e+05,-1.560974657423045021e+06,-1.701222812237926293e+06,2.113879981595125981e+06,-1.729067663410325535e+06,2.295401890487751924e+06,1.913131627762485296e+06,-1.481614240390332183e+06,-1.278435831776444800e+06,-1.483589058709588600e+06,3.036483332743092615e+04,-1.510061711526289582e+06,2.280660760946624447e+06
2.463407854180288035e+06,4.524755649729655706e+05,-2.189123441390210297e+06,1.360229620119391708e+06,-2.107053599222956691e+06,3.709690182996375021e+06,2.598371326692443807e+06,6.277207730341415154e+05,-2.528870788980734069e+06,-2.711283577581371181e+06,3.158652156093134079e+06,-2.742988623732168227e+06,3.516754383118350059e+06,2.633070370374820661e+06,-2.444057914971916936e+06,-2.085159880254040007e+06,-2.437185864120590966e+06,-4.553453077726289630e+05,-2.507324977686700411e+06,3.471776461504176259e+06
3.247262535061555449e+06,5.246592752083293162e+05,-2.692646795135129709e+06,1.806997039323240053e+06,-2.882430367400356568e+06,4.543522635165313259e+06,3.080537661236071959e+06,7.771126335676014423e+05,-3.294645893894378562e+06,-3.543781354060951155e+06,3.856139436647702474e+06,-3.566673128933788277e+06,4.416014312000292353e+06,3.166708550635480322e+06,-3.266858010072618723e+06,-2.638645529180135578e+06,-3.233151224734064192e+06,-8.988855620067649288e+05,-3.444573477452763822e+06,4.309904411251274869e+06
6.475239614011346363e+06,2.133723658910396975e+06,-3.504754066495779436e+06,3.941999737662333529e+06,-3.195435213787375018e+06,8.801236159959588200e+06,6.445245558381228708e+06,2.409900725188511889e+06,-4.024917821252320427e+06,-4.466883294366114773e+06,7.640714398023338057e+06,-4.519872439737851731e+06,8.428046275332175195e+06,6.457250016713595949e+06,-3.847700560304854997e+06,-3.163531846106895711e+06,-3.845175526660983916e+06,2.207180166474693979e+05,-4.046999452714146115e+06,8.334201187929837964e+06
8.641876868591828272e+06,3.110585652491356246e+06,-4.008573176510725636e+06,5.337370073901669122e+06,-3.377629233711776789e+06,1.142868032191301882e+07,8.601066348482707515e+06,3.441932269567553420e+06,-4.436392187060728669e+06,-4.982412111847375520e+06,1.012161947025541216e+07,-5.055989259957205504e+06,1.097336185253475979e+07,8.895147452690666541e+06,-4.177289712212656625e+06,-3.484078007392440457e+06,-4.180734817809367087e+06,1.051209884781004628e+06,-4.374264118166774511e+06,1.085446372929556482e+07
8.940525592891475186e+06,2.890488476138323545e+06,-4.069704052213630639e+06,5.388725789765493013e+06,-3.872230123601139989e+06,1.347484497617707402e+07,1.054477300792229548e+07,3.304735244784014300e+06,-4.700203657362702303e+06,-5.239681659171300009e+06,1.208552779616662860e+07,-5.301820805523715913e+06,1.316347456155038625e+07,1.004530342072928883e+07,-4.596672251007187180e+06,-3.660525759452901315e+06,-4.544470141904388554e+06,6.988213220114848809e+05,-4.866904987056318671e+06,1.297154152307362482e+07
8.933583995000528172e+06,2.907370433475349098e+06,-3.941186432866018731e+06,5.482759969891892746e+06,-3.898523412013615016e+06,1.195745905251466483e+07,9.257125266881935298e+06,3.361154259715227410e+06,-4.666332083034358919e+06,-5.201331173396899365e+06,1.085998019871613570e+07,-5.259813420893537812e+06,1.180212316783222742e+07,9.429209161046095192e+06,-4.591469039756665938e+06,-3.623643506871554069e+06,-4.531746410805295222e+06,5.239108218242422445e+05,-4.901060971008054912e+06,1.154553977963853627e+07
8.534732500660588965e+06,2.809532288068100344e+06,-4.117830598422904965e+06,5.271851079602148384e+06,-3.782583338892993983e+06,9.461634257187496871e+06,6.873952727121309377e+06,3.230274360876196995e+06,-4.670936484129335731e+06,-5.192133027951012366e+06,8.515152079032970592e+06,-5.263610407805236988e+06,9.216000993382327259e+06,8.102956152016724460e+06,-4.510272024587595835e+06,-3.680963748315506615e+06,-4.477139626407332718e+06,5.150013183386035380e+05,-4.769705813532561064e+06,8.978316812275944278e+06
6.326934426418128423e+06,1.707652749528639484e+06,-3.985254979893150274e+06,3.794632791452011559e+06,-3.718569469681485556e+06,6.140465140133638866e+06,4.020945405960699543e+06,2.092218094013891649e+06,-4.506815336305297911e+06,-4.925318796636959538e+06,5.429373163556949235e+06,-4.988976632075995207e+06,5.953559666547946632e+06,5.644723837639025412e+06,-4.347639433694934472e+06,-3.645615142973657232e+06,-4.319105674428422935e+06,-2.251033795562647865e+05,-4.551601453822937794e+06,5.722977956897593103e+06
4.284911872688206844e+06,9.119396436964351451e+05,-3.225433296052157413e+06,2.486200119736445602e+06,-3.172549282825644128e+06,3.665998055123271421e+06,2.099001590862433426e+06,1.175192711578349117e+06,-3.695556971201576758e+06,-3.984102655418047681e+06,3.134228798082614783e+06,-4.028759005587434396e+06,3.519610670348351356e+06,3.476256853483739309e+06,-3.617915065525016282e+06,-3.010047934521015733e+06,-3.580057431676135864e+06,-6.480684452996354084e+05,-3.781159450674532913e+06,3.345643809261716902e+06
3.381922825154086109e+06,1.075533346124115167e+06,-2.030532915660016239e+06,2.088788111896290909e+06,-1.746880405380524229e+06,3.586650561039293185e+06,2.465206999436040409e+06,1.221280408787256805e+06,-2.232706074145825114e+06,-2.442976148773935158e+06,3.153304887805082835e+06,-2.485098648657653481e+06,3.407729304610705003e+06,3.133985697360139340e+06,-2.108230057449900545e+06,-1.826773134840400657e+06,-2.104896604612553492e+06,9.377613405255261750e+04,-2.157178567465537228e+06,3.330323778918199241e+06
1.499895794661233900e+06,3.588876316642272868e+05,-1.114197241761798505e+06,8.998498642689120024e+05,-1.082253757814889541e+06,1.107489078621845227e+06,5.625335671939266613e+05,4.361575264911938575e+05,-1.270185389882636722e+06,-1.365107757618585601e+06,9.275028709168179194e+05,-1.382313559728333494e+06,1.042067251536594238e+06,1.111680076495710528e+06,-1.238694326521894196e+06,-1.033123617175341235e+06,-1.228322625962595455e+06,-2.393493629397011828e+05,-1.291305159510671394e+06,9.851479517991445027e+05
8.033137808756039885e+04,-3.208603097397717065e+05,-6.119666666093309177e+05,-5.236640050527266430e+04,-8.581380098244221881e+05,-8.356340493790929904e+05,-9.863523445814825827e+05,-2.766138023684189538e+05,-7.980885727191840997e+05,-8.114756852662900928e+05,-8.324743785634605447e+05,-8.075325680778500391e+05,-7.991867302701531444e+05,-4.422172583982272772e+05,-8.623665604296134552e+05,-6.397576274039400741e+05,-8.365102765919999219e+05,-7.059379092207957292e+05,-9.368401099153222749e+05,-8.585064423579687718e+05
1.304344963001109427e+05,-3.164113466306752525e+04,-1.878309557801138726e+05,5.702230199974377319e+04,-2.409871071699391759e+05,-1.631447850006238732e+05,-2.254200630713631399e+05,-1.964047996116021022e+04,-2.351117600614847324e+05,-2.464500829938516836e+05,-1.689942124260483833e+05,-2.463286741359316511e+05,-1.611729637632296653e+05,-4.059875787322330871e+04,-2.504425407090027293e+05,-1.811415390307702182e+05,-2.447260190476307471e+05,-1.654429351870627725e+05,-2.733127904969695956e+05,-1.772334480560790107e+05
-8.888197048290539533e+04,-1.289723998587388778e+05,-1.103309767967514490e+05,-8.988888785089545127e+04,-1.913911516492908122e+05,-1.165317768441710796e+05,-1.426851317347678996e+05,-1.226264846910326596e+05,-1.621802102608533751e+05,-1.607557506716651260e+05,-1.306768759017473785e+05,-1.586595256940267282e+05,-1.069990015632452269e+05,-1.127434108014890226e+05,-1.851358730243673199e+05,-1.286423637852287648e+05,-1.787314465570029570e+05,-2.072421600295229873e+05,-2.033231558896292408e+05,-1.189866309691907954e+05
-1.309359094997856591e+05,-1.081145526242701162e+05,-3.406528974986715184e+04,-1.016743713726525311e+05,-9.008616566157784837e+04,-1.568237086639374029e+05,-1.484544976123287051e+05,-1.057610553559031396e+05,-6.430002248565882473e+04,-5.810272050082429632e+04,-1.529167816137950285e+05,-5.573207395020531840e+04,-1.449474771303934394e+05,-1.355305300267448474e+05,-7.949521890559734311e+04,-5.255358575731039309e+04,-7.540768406321933435e+04,-1.355000385855287896e+05,-8.923005583745728654e+04,-1.514649106803855684e+05
1.277221615364151353e-01,4.738793601727394611e-01,8.031831467941803471e-01,7.643721688143029214e-01,5.368788996644334732e-01,8.631690506381757277e-01,6.563140848973197938e-01,3.689956107819439834e-01,7.894227858521613017e-01,7.671206183275458557e-01,8.563200935688959348e-01,1.258690254173833178e-01,8.833550531760444580e-01,4.375094483655144195e-01,7.508782423305138121e-01,9.679091280582351464e-01,5.583555223677749701e-01,3.996421189483899683e-01,7.719365446719619328e-01,8.545815419139961566e-01
5.643676964635407911e-01,6.134983200471705311e-01,3.298582749041086837e-01,8.983791197129126216e-01,6.648277576099775876e-01,8.007647787064700040e-01,7.267667212335233717e-01,5.192353011736983159e-02,3.885597982857478261e-01,6.360334940575037566e-01,2.806319595122938049e-01,5.849655322789546474e-01,4.382589842790619583e-01,4.701814479631897248e-01,3.582232265027776030e-01,6.949671475921869179e-01,5.984219482819913560e-01,6.979759287382858446e-01,1.481314107339953834e-01,7.108957924833212427e-01
9.641173492072274698e-02,3.445250572900772079e-01,3.662327321317000450e-01,9.392817969935773892e-02,2.617142825739220413e-01,3.121815080456862290e-01,8.541155894420850991e-01,1.296026335628985837e-02,2.860983687286943189e-01,6.609488478067183648e-01,5.259056869496083753e-01,1.297821820296497508e-01,3.269155980694847807e-01,1.279624214070854693e-01,7.622020392376374076e-01,9.327686644319815867e-01,7.371671042753776826e-01,4.739084580187226114e-01,3.466233361432862203e-01,9.832378512033127516e-01
1.726795938581962009e-01,9.817325043436510024e-01,7.672886874525359779e-01,6.614177696277034890e-01,7.566666633132844710e-01,4.116999309031175169e-01,9.718263962379369847e-01,6.168915055672765657e-01,3.851957644806280889e-01,6.813001271455162433e-01,9.915758721297087686e-01,6.939486341869923747e-01,5.072591946154183518e-01,7.632670357663348115e-01,5.235181315244862299e-01,4.778482729761348580e-01,7.312010557752515183e-01,2.679352155536984803e-02,8.184001009231613999e-01,6.019269112866734162e-01
1.188291896954353433e+04,4.081871246773287567e+03,-4.258938850407774225e+03,5.719351056958053960e+03,-1.771214086530744680e+01,7.275449168788867246e+04,6.924890817964260350e+04,5.089369180213794607e+03,-3.802115192151621613e+03,-4.071576409746303398e+03,6.919669947482520365e+04,-4.432959552844715290e+03,7.146444299630902242e+04,5.219611495060067682e+04,-2.302723821232921182e+03,-4.357039605965829651e+03,-2.808154932480256321e+03,8.293851556955898559e+03,-7.477241985173950525e+02,7.172796719099448819e+04
3.940849212056253600e+04,2.051756293788741095e+04,-1.602248710598449543e+04,2.509887417968814407e+04,2.490985800661307621e+03,1.052323063880453410e+05,9.729538412913719367e+04,2.231259360803091840e+04,-1.051411432866223913e+04,-1.258486774280237660e+04,1.011635396737084375e+05,-1.382595501795707605e+04,1.010387515888762136e+05,9.047864321748052316e+04,-4.116461350981924625e+03,-1.167740958677947128e+04,-5.815138971424120427e+03,2.714645176778781024e+04,1.092946243104834139e+02,1.015542356956653530e+05
4.816469953467488813e+04,1.622665456938147508e+04,-4.196223090773926378e+04,2.749329340823764869e+04,-2.181050313468900276e+04,1.351229800631750841e+05,1.162086352161953982e+05,1.974250064525834750e+04,-3.985830273172355373e+04,-4.226605256266156357e+04,1.238243602381275705e+05,-4.404817174794191669e+04,1.274432734940196096e+05,1.025544579224790214e+05,-3.269610021580273315e+04,-3.708258844396738277e+04,-3.428549248295277357e+04,1.457167697884367590e+04,-2.771507418014810901e+04,1.279404494748702273e+05
1.699527961661443987e+05,1.167651882549244037e+05,3.656467037298726791e+04,1.207263314941332501e+05,4.019877610196956084e+04,2.216551186039646564e+05,1.988695461118065286e+05,1.115894357449887029e+05,2.964854850923386766e+04,2.155599237049835938e+04,2.095969775424539985e+05,2.238897444230455221e+04,2.178065536769831087e+05,1.725597810820453451e+05,2.928379647499366183e+04,4.397220329647356994e+04,2.661973821487035821e+04,6.511223727025146945e+04,2.249506660570194799e+04,2.221554934279143345e+05
3.917692916277901386e+05,2.073341300918121124e+05,1.452233655113493733e+05,2.637069158078507171e+05,-2.241456273975338263e+04,2.793632143161230488e+05,2.395130183108451020e+05,1.959569931341891061e+05,4.792821216176532471e+04,2.890342373888850125e+04,2.737791025129369809e+05,4.052634028846138972e+04,3.191425431602847530e+05,2.548587451706206193e+05,2.262740576041407621e+03,1.168744411603708868e+05,8.266283252135282964e+03,-1.498373209675191902e+04,-5.776584439252591983e+04,3.203167444261183264e+05
8.841774995739312144e+05,3.560421583320901264e+05,8.309006978320179041e+04,5.394539358485352714e+05,-3.027775488236547681e+05,5.299644572198832175e+05,3.585221320757782087e+05,3.327399063650413882e+05,-1.372103439925606945e+05,-1.949448593761180528e+05,4.639560723218158237e+05,-1.710182288679340563e+05,5.883742328068362549e+05,4.509739319714601152e+05,-2.462881685374156805e+05,4.064167041802484891e+04,-2.229255822186545120e+05,-1.608993669075453945e+05,-3.891017864808654995e+05,5.836182339897291968e+05
1.331118497076046886e+06,4.156551798415967496e+05,1.543458322570381570e+05,7.505086948415555526e+05,-7.187179597867068369e+05,9.605875442012858111e+05,7.218228025727884378e+05,3.813464985124218510e+05,-3.202993341084623244e+05,-3.997087187181745539e+05,8.855856906374354148e+05,-3.499483197420097422e+05,1.119480698382140836e+06,7.737987454074899433e+05,-5.751906621265866561e+05,1.821281000006608519e+04,-5.113258530217608786e+05,-5.461949206403706921e+05,-8.583091907165442826e+05,1.097598988354162779e+06
2.932141376477362588e+06,1.039733153614624287e+06,-1.509859684242221119e+05,1.720672328231403371e+06,-1.315193480855503352e+06,3.103420572867331095e+06,2.452957405467255041e+06,1.017557572405907325e+06,-8.600684890653444454e+05,-1.022034589244549628e+06,2.838002160756256897e+06,-9.683204863693867810e+05,3.255956967505258042e+06,2.275261573806375731e+06,-1.209746979606419802e+06,-2.855469922922631376e+05,-1.110132354645632906e+06,-6.057750586034399457e+05,-1.599657898388421396e+06,3.254444292596850079e+06
5.753259312476029620e+06,2.400214084208369721e+06,-5.021896919485330582e+05,3.587258959317854140e+06,-1.875507136347912019e+06,5.995101710656217299e+06,4.749195992461073212e+06,2.372478753983415198e+06,-1.502282158008079510e+06,-1.834913693378304364e+06,5.518185337473089807e+06,-1.779968083683238132e+06,6.121895856646623462e+06,4.781855325713236816e+06,-1.878060589263877133e+06,-5.994965581915379735e+05,-1.763780788217017427e+06,-2.633731318319791462e+05,-2.423047015068333596e+06,6.149271378636723384e+06
9.013177123868549243e+06,4.052108776909579523e+06,-5.856247974606702337e+05,5.838771190989083610e+06,-2.396648604036628269e+06,7.301212404177182354e+06,5.530369076318309642e+06,4.003012441483660135e+06,-1.993360826206487138e+06,-2.530658303746344056e+06,6.805600817131688818e+06,-2.454106911571261473e+06,7.520946541512782685e+06,6.631594334030548111e+06,-2.442517587146162521e+06,-6.751531462270000484e+05,-2.296160768972618505e+06,-5.414222643289584084e+03,-3.243608047480882611e+06,7.548418829659385607e+06
1.280862852833188325e+07,5.972479755490618758e+06,-9.918448317983394372e+04,8.449639097390824929e+06,-2.736360789883341175e+06,9.715205421603871509e+06,7.346076531898422167e+06,5.876322702274125069e+06,-2.012300845172476955e+06,-2.766314170550888404e+06,9.123933636194964871e+06,-2.635688974664813373e+06,1.014355836059422046e+07,9.093483100530870259e+06,-2.680267517529306468e+06,-2.308295537816685683e+05,-2.466736836252463516e+06,3.614974698143940768e+05,-3.888648302558607422e+06,1.014173417184853926e+07
1.837043968124099821e+07,8.276152470563024282e+06,-1.657075451616370818e+06,1.189545972606417723e+07,-4.189176033893995918e+06,1.846597659668468684e+07,1.429654044085314125e+07,8.224953750375918113e+06,-3.796746892730570398e+06,-4.893449684572964907e+06,1.681203175894733891e+07,-4.774676345751756802e+06,1.854532656558438763e+07,1.508963914221364446e+07,-4.439652610984674655e+06,-1.421043561138004530e+06,-4.221888320152783766e+06,1.287891668032529997e+06,-5.899341598202259280e+06,1.856978827764109895e+07
2.220528962436185032e+07,9.310897388661472127e+06,-3.123651306898170151e+06,1.415170502845698968e+07,-6.066692973635819741e+06,2.446343038702865690e+07,1.908809867964602634e+07,9.451328046288505197e+06,-5.703277842373164371e+06,-6.996225685283606872e+06,2.228816425550584868e+07,-6.874861993993577547e+06,2.457751879359165952e+07,1.948981314825794473e+07,-6.486381604580949061e+06,-2.807414530624833424e+06,-6.180053695988481864e+06,1.182517804585287813e+06,-8.182138029642933980e+06,2.446919556364466622e+07
2.378481591018631682e+07,9.368581715323869139e+06,-4.649546868543191813e+06,1.500556512948668748e+07,-7.650454354663882405e+06,2.673773048723423854e+07,2.077722498205495626e+07,9.773464196595013142e+06,-7.480738360255006701e+06,-8.891286493228752166e+06,2.436350130180538073e+07,-8.790338918360384181e+06,2.693310735222196952e+07,2.108257588152355328e+07,-8.300244569365642965e+06,-4.272454354369547218e+06,-7.961665851008518599e+06,6.710745828419147292e+05,-1.005975104556032643e+07,2.664648380661939457e+07
2.195800148598268256e+07,7.588849118094077334e+06,-6.967011969541398808e+06,1.357361126969062909e+07,-9.802839917541509494e+06,2.129651897985437140e+07,1.542729628771075048e+07,8.219182284206008539e+06,-9.917203907719161361e+06,-1.126688728943904303e+07,1.934141532116736099e+07,-1.119671706623377092e+07,2.148572767999783903e+07,1.818750491091627255e+07,-1.067547788910850324e+07,-6.516401281784267165e+06,-1.033828284121431597e+07,-1.484884875637487043e+06,-1.237377146030813642e+07,2.100988776182096452e+07
1.922488452712924033e+07,5.819884090556976385e+06,-7.956665638178478926e+06,1.164160548549723998e+07,-1.035895381857960671e+07,1.614502805659079924e+07,1.064682674575982057e+07,6.556477595514269546e+06,-1.066447366914923862e+07,-1.187587966553995572e+07,1.451023161227524653e+07,-1.183315046028172225e+07,1.628458823485048302e+07,1.483922889604302496e+07,-1.130567848796882480e+07,-7.464644086650860496e+06,-1.099029542789479718e+07,-2.436819518754113931e+06,-1.280492284872713499e+07,1.569762456303965487e+07
1.598640773387515359e+07,4.522554743766093627e+06,-7.996481254585287534e+06,9.607868071682291105e+06,-9.441949207619406283e+06,1.091990316739952005e+07,6.216100479127395898e+06,5.211823736722022295e+06,-1.013241678869541921e+07,-1.114494467820460163e+07,9.730248844531506300e+06,-1.116029044394391961e+07,1.090257864988004975e+07,1.137542089087320864e+07,-1.047077127132465318e+07,-7.452448972402168438e+06,-1.024013308176682889e+07,-2.310795941615780815e+06,-1.156049934986591525e+07,1.035257064092527330e+07
1.122575952805691771e+07,2.756739436070876196e+06,-6.851982961936083622e+06,6.646841542759238742e+06,-7.698765751011044718e+06,6.369655507114748470e+06,2.895023526563139632e+06,3.306795868419800419e+06,-8.422244412876017392e+06,-9.129709295772161335e+06,5.578435429030136205e+06,-9.171990625518444926e+06,6.266342602570068091e+06,7.600807942543408833e+06,-8.564669060095300898e+06,-6.429857454128783196e+06,-8.406283534841861576e+06,-2.300846295453936793e+06,-9.267199847849942744e+06,5.835784860920362175e+06
7.140703700130607001e+06,1.603341688438069541e+06,-5.836779291726949625e+06,4.143398829095435329e+06,-5.436680067376721650e+06,4.416348974755266681e+06,1.851489339952631388e+06,2.025113567991935415e+06,-6.521002474945909344e+06,-6.980789114427377470e+06,3.694025873767194804e+06,-7.074981072156140581e+06,4.008869754030398093e+06,5.181236981560683809e+06,-6.328218543398186564e+06,-5.294792713138974272e+06,-6.281417366994460113e+06,-1.342569518627818208e+06,-6.522356556689846329e+06,3.787739925318319816e+06
3.479399310979921836e+06,4.932085330470688641e+05,-4.140144599593948107e+06,1.915129445970184868e+06,-3.359827872975020204e+06,2.130848231139369775e+06,6.252511001780004008e+05,8.297085841583579313e+05,-4.325679193145374767e+06,-4.555381498840030283e+06,1.700936115891365334e+06,-4.643763672275542282e+06,1.760922951729901833e+06,2.799951303021198139e+06,-4.053705736530109309e+06,-3.690144109400558285e+06,-4.053477382666671183e+06,-8.386973995420056162e+05,-3.993647185536869802e+06,1.645836199494842906e+06
1.775091903806016082e+06,3.326124013220372144e+05,-2.055521714517002460e+06,1.007203840092614060e+06,-1.510837258921920555e+06,7.725320489015952917e+05,7.371373572490550578e+04,5.023946346627378953e+05,-2.059861382804778870e+06,-2.176580087410856504e+06,6.134668497766435612e+05,-2.227998152578597423e+06,5.718518213812299073e+05,1.398818332047022646e+06,-1.879505262409929419e+06,-1.780038741270764032e+06,-1.894342638159424532e+06,-2.276728948701414629e+05,-1.813239534904424334e+06,5.103431024645761936e+05
6.853322969729960896e+05,1.142599431668921025e+05,-8.768799388871970586e+05,3.809994250870923861e+05,-6.443062519930164563e+05,6.525956295721963397e+04,-2.429382364364853129e+05,1.718887045184368617e+05,-8.606447507851730334e+05,-9.100712432846410666e+05,-1.442994407334106654e+04,-9.296578912842068821e+05,-3.812937734105421259e+04,3.900976754246058408e+05,-7.859494278839875478e+05,-7.398627223401620286e+05,-7.906083830850714585e+05,-1.314138865852445015e+05,-7.681494785540682497e+05,-6.161568340521027858e+04
1.678855231017072510e+05,-5.430348322658189863e+04,-3.886398079902530881e+05,5.993239677316044254e+04,-3.501988578768156585e+05,-1.574298513163408788e+05,-2.894340920991887688e+05,-3.369591510401004052e+04,-4.053872413707473897e+05,-4.215708453522360651e+05,-2.033592253415411396e+05,-4.276492652195219416e+05,-1.997517361889001331e+05,-1.437632661022671164e+04,-3.944833763384339400e+05,-3.407007211706056842e+05,-3.930269474641482811e+05,-1.837498058404173353e+05,-4.014271941148208571e+05,-2.145946683733123937e+05
-4.169674602691461769e+04,-5.880232086554135458e+04,-6.533167902378335566e+04,-4.249750150841061986e+04,-9.191155954130734608e+04,-1.830477627277285501e+05,-1.904857514013884647e+05,-5.714030049099428288e+04,-8.447872144577253493e+04,-8.268485438634319871e+04,-1.779024447908259172e+05,-8.187159782409670879e+04,-1.826806280539421714e+05,-1.050832748495379928e+05,-9.152513095379508741e+04,-6.908135974898368295e+04,-8.922218744988818071e+04,-9.324091937669286563e+04,-9.872839742613173439e+04,-1.880234519580079359e+05
6.210639319273363071e+03,3.174126034500141031e+03,2.699649900192359382e+03,3.937739284633693387e+03,2.123919505192285214e+03,1.106561530088880863e+04,1.112157277130985312e+04,3.326534299197676773e+03,3.029350324103747880e+03,2.689111433434590708e+03,1.103638470675078861e+04,2.700342085328163193e+03,1.143087104041395469e+04,6.319722447730217937e+03,2.519170045805877180e+03,3.016608435470704535e+03,2.664849139470084992e+03,4.603344478747908397e+03,2.236192109943499418e+03,1.151715121404536512e+04
6.749138786986911276e-01,5.965719331837996409e-01,2.165731935021720789e-01,3.330414622242039435e-03,1.076380994655552481e-01,8.917692804605508172e-01,3.893313526997507212e-01,3.939014293486733376e-01,3.832994437891275030e-01,2.092514565006864391e-02,4.072067819715041725e-02,6.392075171318206683e-01,9.719098306047226909e-01,7.827189650441616076e-01,4.379060879531341266e-01,5.197733048726319582e-01,1.378133840959080425e-01,5.573116966280793338e-01,2.568416265547511790e-01,6.449192279790606497e-01
3.176466820506982369e-01,7.434642485766740361e-02,8.159044352313106208e-01,7.193208316699004623e-01,7.512284646771083541e-01,2.129278318585512420e-01,8.627039309579420667e-03,4.089554609147467712e-01,5.461386875004281549e-02,3.251694899833584840e-01,8.129361831354707801e-01,3.723827914244770554e-01,9.104477213924584422e-01,2.277523641566722157e-01,6.206074153372894697e-01,2.835548041269364550e-02,6.350314984627025705e-01,6.496301334533600702e-01,4.648005713016269969e-01,3.481960747192481831e-01
-3.189883871094347342e+03,-1.812502770771245196e+03,1.649908931208790591e+03,-1.948726438767666195e+03,1.844581068382921387e+02,-4.111661916482082233e+03,-2.880905846392498006e+03,-1.575399276887760834e+03,9.159967752275018711e+02,1.073374893555971539e+03,-3.386107602742433755e+03,1.151094300715364398e+03,-3.210179057183638633e+03,-3.126723101550357569e+03,5.738075171525517817e+02,7.702741551047508892e+02,6.697181336694351330e+02,-1.416263530670462387e+03,4.765526599036915059e+02,-3.431010959541533339e+03
8.220831569887585647e+04,4.292954323569848202e+04,-2.443403315700146049e+04,4.856789357943799405e+04,1.603751562637112511e+04,3.582446281323067960e+05,3.320712585927765467e+05,4.695952807029332325e+04,-1.176261370999366773e+04,-1.479968523654334422e+04,3.323552866673960234e+05,-1.735553489378884842e+04,3.441096834929080214e+05,2.375486896829797770e+05,1.350178757749254146e+02,-1.650854921928557451e+04,-2.914958632728044904e+03,6.984773576531613071e+04,1.178890842921997682e+04,3.487811572423537145e+05
2.226502833399894735e+04,7.726800083270868527e+03,-9.901360083317469616e+03,1.308751539552164468e+04,-1.822219853538784264e+03,1.197985348897392978e+05,1.072408861260241829e+05,9.584288451298065411e+03,-8.304568858087957778e+03,-9.263595255716549218e+03,1.080959136547527596e+05,-9.744274848115692294e+03,1.150766407322175510e+05,7.479431894520923379e+04,-5.456166355588430633e+03,-8.856223977056839431e+03,-6.131537760389777759e+03,1.720569386422161188e+04,-3.517670710807195974e+03,1.162071071642511524e+05
-3.458774223298821744e+04,-3.439906999940606329e+04,-8.328554664712498197e+04,-2.272763099138006510e+04,-7.049126465375913540e+04,-3.832336741022682399e+05,-3.916133158039689297e+05,-3.922340732142249908e+04,-8.159751591317757266e+04,-8.320444929627203965e+04,-3.707501485191538231e+05,-8.440230487374078075e+04,-3.944453173410739400e+05,-2.009801817513141141e+05,-7.603536998389483779e+04,-6.918978967029016349e+04,-7.813378505362325814e+04,-7.213664679155382328e+04,-7.717943815347593045e+04,-3.970713999413734418e+05
-6.387748287329453742e+05,-4.698170877588371513e+05,-1.087419275371451804e+05,-4.778781713941989001e+05,-4.255467355256649316e+05,-1.686018320334121119e+06,-1.590156573363847099e+06,-4.773989840204896755e+05,-2.607832468673216063e+05,-2.327568094191002601e+05,-1.591412636808953481e+06,-2.148815391972443031e+05,-1.621548562125732424e+06,-1.167475038836277556e+06,-3.567922708641331992e+05,-1.665071515518094529e+05,-3.330789369138093898e+05,-7.604080585817251122e+05,-4.353839055538478424e+05,-1.639493821109107696e+06
-2.446151500779802911e+06,-1.839105581244950416e+06,-1.496430079179919267e+05,-1.824808920456561493e+06,-1.467632628118391382e+06,-5.991256410590550862e+06,-5.540723503021202981e+06,-1.841466798654434737e+06,-7.638699011961033102e+05,-6.427998442344003124e+05,-5.584639201685771346e+06,-5.704273502393078525e+05,-5.656182572277849540e+06,-4.175071253505339846e+06,-1.140876779375783401e+06,-4.789182962610482937e+05,-1.042030001306495629e+06,-2.662143911858448759e+06,-1.438479009085227503e+06,-5.756183280870804563e+06
-5.914975859621287324e+06,-4.485994979264422320e+06,-2.690001370780597208e+05,-4.457028181292167865e+06,-3.557125663704822306e+06,-1.402111888387915678e+07,-1.288332877430273779e+07,-4.495319789487624541e+06,-1.794197546569728758e+06,-1.520944264002596028e+06,-1.300821004273435101e+07,-1.336280550253799651e+06,-1.318633437545057200e+07,-9.660992532128103077e+06,-2.744879896246485878e+06,-1.113811269306165632e+06,-2.491142097815408837e+06,-6.419380191840678453e+06,-3.479285232207040768e+06,-1.343585290275933407e+07
-9.471478524361312389e+06,-7.506474345990817063e+06,-4.978955813006093376e+05,-7.261137497897634283e+06,-6.145776741901626810e+06,-1.960004662388496846e+07,-1.793924554820663482e+07,-7.440117552403139882e+06,-3.139027814043700695e+06,-2.691454800803190563e+06,-1.818884879334057495e+07,-2.386044696423267946e+06,-1.820335003142719716e+07,-1.415227228584992327e+07,-4.777612978614118882e+06,-1.988835375369280810e+06,-4.323453585869443603e+06,-1.058138296245044097e+07,-5.992036516805740073e+06,-1.859449274260545522e+07
-1.681395004526543245e+07,-1.363174160072853602e+07,-1.299144952225551475e+06,-1.305229984858729132e+07,-1.134940971617221460e+07,-3.223282211568979919e+07,-2.955084652835415304e+07,-1.345132281294200383e+07,-6.040518819442979991e+06,-5.242423517883334309e+06,-3.004245017694865912e+07,-4.714779726781788282e+06,-2.979099837895506620e+07,-2.407102624816590920e+07,-8.971781595983304083e+06,-4.002280947471624706e+06,-8.134243361097181216e+06,-1.894511427781984955e+07,-1.107778273128373735e+07,-3.046423260876541585e+07
-2.796962303227207810e+07,-2.275295519100647047e+07,-2.918384183556608856e+06,-2.170443917015390471e+07,-1.889066166098008677e+07,-5.129992461002916843e+07,-4.719578018192648888e+07,-2.241321728064367920e+07,-1.050969456213970855e+07,-9.182135220697199926e+06,-4.803013847844859958e+07,-8.353573266369464807e+06,-4.746067752353468537e+07,-3.887634359787206352e+07,-1.514203848882845230e+07,-7.278510369423584081e+06,-1.378308919317360781e+07,-3.098388976741099358e+07,-1.842425370195399597e+07,-4.858636806291077286e+07
-3.730319287720705569e+07,-3.113808207748550177e+07,-5.201982488847261295e+06,-2.934136199013974145e+07,-2.674362394477073476e+07,-6.188082205010411143e+07,-5.735117675980695337e+07,-3.060836697687895223e+07,-1.561391631965380907e+07,-1.387928612356401049e+07,-5.851435921624106914e+07,-1.277451413447181508e+07,-5.694269477419724315e+07,-4.925041928481976688e+07,-2.184067789381293207e+07,-1.108361655118563771e+07,-1.998984588960447535e+07,-4.216447576354429126e+07,-2.625921407723446190e+07,-5.844101171876936406e+07
-4.092532305635853112e+07,-3.681822835724092275e+07,-8.937597607725806534e+06,-3.361693650414422154e+07,-3.457515037245082855e+07,-4.918410528892154992e+07,-4.686150147057319432e+07,-3.602987571398434043e+07,-2.168286988801275566e+07,-1.988373695419648290e+07,-4.848358319697858393e+07,-1.856109668386734650e+07,-4.407387933816834539e+07,-4.685571563312215358e+07,-2.917042937033769116e+07,-1.573513776836119778e+07,-2.691075093805670738e+07,-4.979374218289311230e+07,-3.449950712264466286e+07,-4.565076749982522428e+07
-4.727611382222464681e+07,-4.557285859523207694e+07,-1.333091773870101199e+07,-4.062103580309136957e+07,-4.495436526774916798e+07,-2.705269781910305098e+07,-2.805259740119596571e+07,-4.441014582149796933e+07,-2.916966079370011017e+07,-2.713301147795668244e+07,-3.084121161814515665e+07,-2.549604417878081650e+07,-2.175459221266896650e+07,-4.274958606577212363e+07,-3.860881107414833456e+07,-2.149422706721211970e+07,-3.571551600064688176e+07,-6.023429557143840194e+07,-4.518620840128348768e+07,-2.349318175149130449e+07
-5.053495711215589941e+07,-5.155978070456754416e+07,-1.745102022319465876e+07,-4.494835272669355571e+07,-5.236286756780339777e+07,-6.204881234260968631e+05,-4.801743600565430708e+06,-4.977932690909742564e+07,-3.519060400050497800e+07,-3.299429173576816171e+07,-8.474154339521998540e+06,-3.122285000653667375e+07,4.562859647770153359e+06,-3.444230994033320248e+07,-4.577667209387519956e+07,-2.653603719505770132e+07,-4.245000241304887831e+07,-6.615930323278716207e+07,-5.283709398260669410e+07,2.762007588808301371e+06
-5.473138506749843806e+07,-5.650167696336316317e+07,-2.285567977289646491e+07,-4.890065237296303362e+07,-5.797726081298008561e+07,3.728318870526053477e+06,-1.810296271636569174e+06,-5.406021286647143215e+07,-4.114905332861120254e+07,-3.877935615959950536e+07,-5.517434243556225672e+06,-3.704068151601941884e+07,8.624753353492934257e+06,-3.528565453901676834e+07,-5.187456395123282075e+07,-3.205559848744093999e+07,-4.840595942588761449e+07,-7.080096402462778986e+07,-5.878217762548250705e+07,6.620329278017275967e+06
-4.918058742049515992e+07,-5.293356245288754255e+07,-2.510842846349162981e+07,-4.495797369714239985e+07,-5.680692667950104177e+07,4.889626856722106226e+06,-1.307237855911344755e+06,-5.039640759220355749e+07,-4.197859675424032658e+07,-3.986823597280335426e+07,-4.038371562773269601e+06,-3.833369707999479771e+07,8.998006430360645056e+06,-3.072039114543472975e+07,-5.173114239284495264e+07,-3.309280252946445346e+07,-4.852995076186688244e+07,-6.682093102487548441e+07,-5.804038195723304898e+07,6.967603663598441519e+06
-3.812344111337308586e+07,-4.398793177211802453e+07,-2.434821311399222165e+07,-3.638243926241660863e+07,-5.000770546150887012e+07,1.826680251498532295e+07,1.080526761341910623e+07,-4.174086232929296792e+07,-3.840958154182834178e+07,-3.676713489034084976e+07,8.842265886473016813e+06,-3.555158861719424278e+07,2.092985934192187712e+07,-1.744522700882650912e+07,-4.634312170805636048e+07,-3.060220091786578670e+07,-4.368359117840941250e+07,-5.547712740734711289e+07,-5.146636613830483705e+07,1.920598739897560328e+07
-2.553180482782253250e+07,-3.210994440436079726e+07,-2.133788073806215078e+07,-2.562727984069552273e+07,-3.890477348773299158e+07,2.353890325311702490e+07,1.608762231594616733e+07,-3.024841228889617696e+07,-3.139620347099971399e+07,-3.033490174255255982e+07,1.509880222172307409e+07,-2.954878998734087870e+07,2.470407541623204947e+07,-7.150535682391172275e+06,-3.686610509166204929e+07,-2.543679048141671345e+07,-3.494376555961531401e+07,-4.015547255696053803e+07,-4.030244028832071275e+07,2.346999680570609495e+07
-1.374507985649855435e+07,-2.020560404114678502e+07,-1.839403960811026767e+07,-1.526122989091301151e+07,-2.738462515669038519e+07,2.745347500050209090e+07,2.022761091392882168e+07,-1.883384965273053199e+07,-2.419713047491647303e+07,-2.373537434781977907e+07,1.995901587021091953e+07,-2.338069285093598068e+07,2.710117211279128492e+07,1.484995264008668251e+06,-2.704579751712016761e+07,-2.015738508425788209e+07,-2.592098214374823868e+07,-2.465229591413321346e+07,-2.872209121264008433e+07,2.642168452451587468e+07
-6.160454650775698945e+06,-1.092594708355779573e+07,-1.544860483310973458e+07,-7.760098330217407085e+06,-1.709942667524323240e+07,2.031240986446699500e+07,1.447284642448072135e+07,-9.925573907084897161e+06,-1.752512716985035688e+07,-1.746666246502308175e+07,1.489463503270606138e+07,-1.748597361849626526e+07,1.888682504104422778e+07,3.985613592368264683e+06,-1.812049395617154241e+07,-1.528228219000141695e+07,-1.770240552808034420e+07,-1.255918583056832477e+07,-1.828361874336002767e+07,1.861888201540724188e+07
-4.142302773504774552e+06,-6.671170606510309502e+06,-1.149941911074620113e+07,-4.828437114916309714e+06,-1.047971686814613082e+07,6.730026351214016788e+06,3.265679982326178811e+06,-5.929202781577095389e+06,-1.191759095773530565e+07,-1.189276926871634647e+07,3.959007170411192812e+06,-1.202977655139177851e+07,5.407679710018998943e+06,4.340752331153324340e+05,-1.163820935113824718e+07,-1.078308809929163381e+07,-1.152900640748216771e+07,-7.082579988039257005e+06,-1.125780635064521804e+07,5.256110194711329415e+06
-5.070185938157775439e+06,-5.517499601391348988e+06,-7.594433968134958297e+06,-4.599312816625841893e+06,-6.949655917828072794e+06,-4.688688215841050260e+06,-6.106932560149780475e+06,-5.040654180169673637e+06,-7.780531568547157571e+06,-7.646822702228893526e+06,-5.641578693491697311e+06,-7.740971844584626146e+06,-5.434564118611608632e+06,-5.093829199056723155e+06,-7.591570273690567352e+06,-7.137197318726555444e+06,-7.528251528165635653e+06,-5.757171229259464890e+06,-7.320897610521097668e+06,-5.609052004682279192e+06
-4.537468839600642212e+06,-3.953068776505919639e+06,-3.982603628294165246e+06,-3.621000880762241315e+06,-4.031949557630667929e+06,-8.291620933746997267e+06,-8.495117932041542605e+06,-3.725981050169670954e+06,-4.197730345830202103e+06,-4.032375849536564667e+06,-8.254124307755640708e+06,-4.059080940819408745e+06,-8.498588129625968635e+06,-6.149759102711078711e+06,-4.196443395179112442e+06,-3.848634137512721587e+06,-4.140437976449291222e+06,-4.260347031926764175e+06,-4.131463114761111327e+06,-8.688555392819667235e+06
-2.312986574265902396e+06,-1.850613436948275194e+06,-1.319966723364713835e+06,-1.752584403699769173e+06,-1.657310500314741628e+06,-5.443407900290674530e+06,-5.295407399738202803e+06,-1.781030670117072528e+06,-1.506114207712003728e+06,-1.414955268358194968e+06,-5.212174908217750490e+06,-1.405780700620304793e+06,-5.403034729211501777e+06,-3.698064095938258804e+06,-1.600225049055472249e+06,-1.346852577560430858e+06,-1.555115846101376228e+06,-2.121245780468751676e+06,-1.651741957263451302e+06,-5.509120025425969623e+06
-1.150317911706508137e+06,-8.757221579070882872e+05,-3.856167245833362686e+05,-8.609764306387846591e+05,-6.585589798377283150e+05,-2.166450112818038557e+06,-2.036718334581281757e+06,-8.461520801105896244e+05,-5.213986232889310922e+05,-4.693032473560907529e+05,-2.053621789409360383e+06,-4.584012672327180044e+05,-2.098931290421876125e+06,-1.553455950770889642e+06,-5.949053580476322677e+05,-4.595766470863139839e+05,-5.704703028798233718e+05,-9.778862685051590670e+05,-6.374042932445341721e+05,-2.146563696541836951e+06
-4.494611952078543254e+05,-3.498520743545277510e+05,-1.538148782606041641e+05,-3.452036333310415503e+05,-2.754698202782442677e+05,-6.276592687225822592e+05,-5.959501950682583265e+05,-3.411491945446032914e+05,-2.166059382435983280e+05,-1.965270479859823245e+05,-6.114479117534125689e+05,-1.916674981032961514e+05,-6.080865246888358379e+05,-5.109783140801337431e+05,-2.522114773928326613e+05,-1.872871380816015590e+05,-2.419380678394501156e+05,-4.005572367022503749e+05,-2.709340436280442518e+05,-6.240858448479851941e+05
-6.951189073605004523e+03,-4.290611555170778956e+03,-2.933759637640933988e+02,-4.742311448098718756e+03,-1.557833526885986885e+03,-4.185768375963632934e+03,-3.442028089586925034e+03,-4.202361391785268097e+03,-7.649975266509918583e+02,-5.881041452666482883e+02,-4.367542872609109509e+03,-4.886453677545838445e+02,-3.652242420147528719e+03,-5.902620374657089997e+03,-1.091564016859264711e+03,-7.419218292978786167e+02,-1.031124929461625470e+03,-3.927080719826477889e+03,-1.305504798113445759e+03,-3.799526024057696304e+03
1.489387960930768084e-01,3.923280295104365489e-01,6.077445486433570299e-01,1.906574668664384742e-02,2.133357137463181008e-01,6.112369276694246123e-01,1.612061116476219969e-01,3.140115617491231470e-01,5.768100721990039315e-01,7.553279701786967948e-01,7.581294175567099280e-01,1.564895319590421385e-01,7.238733389618197123e-01,9.681983329632013469e-01,3.448234363957181081e-01,5.247794588432532770e-01,9.085756564036996386e-01,5.458799571340160472e-01,4.721979079138927116e-02,3.612272593314569402e-02
1.648174663524516470e-01,9.454926125036051676e-01,1.423135329783773440e-01,7.964118863979213758e-01,8.195058942889269504e-01,8.815372829782552877e-02,4.030079732181786056e-01,7.193915678719227103e-01,3.669602216895444524e-01,3.770783896921329204e-01,4.447372906157254224e-02,1.294817691146255001e-02,2.391778289190634732e-01,1.170780535362763164e-01,3.432010087132109089e-01,2.403641313146093195e-01,8.530210438772634074e-02,2.861207135854757500e-01,1.609761486870027181e-01,1.498041780297738601e-01
3.472894054001072800e+04,8.203245342819363941e+03,-4.372176038249970588e+04,1.819619476340851543e+04,-2.388449593321685097e+04,1.027154174203235598e+05,7.999393947301157459e+04,1.149088553826266252e+04,-4.010744979323006555e+04,-4.186731497125125316e+04,8.669609490507509327e+04,-4.335665586332406383e+04,9.158268577403189556e+04,6.361559663983494102e+04,-3.409674692665339535e+04,-3.744576838022000447e+04,-3.482667186919617234e+04,9.478127013021898165e+03,-2.928596925029461272e+04,9.371455423664452974e+04
-2.951624848075501504e+05,-2.284698051153485430e+05,-9.635174523992606555e+04,-2.299100084487336571e+05,-1.557873181014255679e+05,-1.541790157878460013e+05,-1.490707747876837384e+05,-2.194169383732054266e+05,-1.267289107207641355e+05,-1.093783637330304482e+05,-1.654865626564525010e+05,-1.066937643970912322e+05,-1.544189778121669078e+05,-1.837602854439016955e+05,-1.453339138387736166e+05,-1.161843668224044086e+05,-1.368806845471685810e+05,-2.277474281427097449e+05,-1.506353025325911294e+05,-1.550799670170955942e+05
-1.478643490497333696e+06,-1.100725416619302472e+06,-5.488166038630750263e+05,-1.118848787329035811e+06,-8.067631934035547310e+05,-2.270835334760431200e+06,-2.167854469868519809e+06,-1.074971314167942852e+06,-6.794515390057126060e+05,-6.130006762463410851e+05,-2.201818660872222856e+06,-6.024647446935615735e+05,-2.249407433375609573e+06,-1.782289553575329483e+06,-7.627368602430804167e+05,-6.049670567921929760e+05,-7.311345363963737618e+05,-1.204102590008635074e+06,-7.922243693976770155e+05,-2.276836258433880284e+06
-5.266568434298414737e+06,-3.772869752179434989e+06,-9.546844577034233371e+05,-3.917716344110076316e+06,-2.544736318259877153e+06,-9.711551430904129520e+06,-8.987556202580630779e+06,-3.739059870127080940e+06,-1.673208631196526811e+06,-1.419040388757659122e+06,-9.169166254911126569e+06,-1.336313004450215492e+06,-9.351107788155945018e+06,-7.166842050452831201e+06,-2.153947049954385031e+06,-1.365204344717656262e+06,-2.017453108833946753e+06,-4.488539688662167639e+06,-2.443525119225325994e+06,-9.505971969586726278e+06
-1.345703313546979055e+07,-9.669674270231416449e+06,-1.555690055003587622e+06,-9.988379006544355303e+06,-6.361586438288949430e+06,-2.538455057806239650e+07,-2.319777146272708476e+07,-9.576181227990098298e+06,-3.724307502684408333e+06,-3.067724983047513757e+06,-2.371616948623569682e+07,-2.810917189995142166e+06,-2.417576473814499006e+07,-1.844053504682999477e+07,-5.142632896797822788e+06,-2.894243024276165757e+06,-4.755731684116257355e+06,-1.167223646968953870e+07,-6.042449477406654507e+06,-2.461473534492858499e+07
-2.679282946795659512e+07,-1.957402582501588389e+07,-2.522028136762928683e+06,-1.991201302504745871e+07,-1.296285800848697126e+07,-5.006090628340264410e+07,-4.553104855290339887e+07,-1.928492047875858843e+07,-7.227098490166578442e+06,-5.901436041474208236e+06,-4.658742059932689369e+07,-5.351781402621700428e+06,-4.733810796610406041e+07,-3.646348729842060804e+07,-1.028146596310311928e+07,-5.537102284411455505e+06,-9.411307223505899310e+06,-2.365183874043942615e+07,-1.220024524301031604e+07,-4.827286354135825485e+07
-4.880970567427907884e+07,-3.592581528839024901e+07,-5.272141893302856945e+06,-3.631946605815642327e+07,-2.396492026162019745e+07,-8.957444996999420226e+07,-8.147935503250618279e+07,-3.525921980654491484e+07,-1.371710862171398103e+07,-1.131879411561084725e+07,-8.332038909335258603e+07,-1.035457750719582103e+07,-8.464171005099086463e+07,-6.544547018938402086e+07,-1.916647516490051895e+07,-1.074620335153492168e+07,-1.757494925926809385e+07,-4.290810268332266062e+07,-2.255364386332508177e+07,-8.637814271933539212e+07
-8.043385710380978882e+07,-5.941010368139578402e+07,-9.451409882601318881e+06,-5.983680256995899230e+07,-3.999951776592073590e+07,-1.455611008329018056e+08,-1.326119963180876076e+08,-5.827027559333395958e+07,-2.336343235112526640e+07,-1.944390142749311775e+07,-1.356523345245126486e+08,-1.787925020399821550e+07,-1.374909764304480553e+08,-1.070429626866646856e+08,-3.219423809319400415e+07,-1.848325094586908445e+07,-2.958357151346447691e+07,-7.082999810551345348e+07,-3.772390309121681005e+07,-1.403919681969432533e+08
-1.201302492069937587e+08,-8.942995413540998101e+07,-1.549473030546027236e+07,-8.973696319537125528e+07,-6.067942413753814250e+07,-2.105352493344397247e+08,-1.920719869468970001e+08,-8.760024686865766346e+07,-3.621390915814974159e+07,-3.036012646177740768e+07,-1.967082731217996776e+08,-2.806275558561710268e+07,-1.988186006916619241e+08,-1.569694257959104180e+08,-4.926046886875172704e+07,-2.898834969093986601e+07,-4.535387287262419611e+07,-1.056661079852036834e+08,-5.730892730652961880e+07,-2.031828119859706461e+08
-1.632971886946887076e+08,-1.231832030005890429e+08,-2.298551961606149375e+07,-1.229345634696981758e+08,-8.459282013461376727e+07,-2.675686317222201824e+08,-2.444295805434553623e+08,-1.204693242423025221e+08,-5.142097965810231864e+07,-4.344901203623724729e+07,-2.512403832821183205e+08,-4.033616686620311439e+07,-2.521291935482806563e+08,-2.054507293091316521e+08,-6.924091261596690118e+07,-4.155446644940312207e+07,-6.385793234802608937e+07,-1.437656861938451529e+08,-8.006385482675389946e+07,-2.580226649849010110e+08
-2.042637678581777811e+08,-1.575933332268968523e+08,-3.322954382479923591e+07,-1.559791722534135580e+08,-1.111002162914089262e+08,-2.942404699963046908e+08,-2.698999124732603431e+08,-1.537661325641886890e+08,-6.949017045636698604e+07,-5.956603090838686377e+07,-2.797110488469488025e+08,-5.562401968483865261e+07,-2.760092280978505015e+08,-2.401645652727061808e+08,-9.226131601990002394e+07,-5.657375989832337201e+07,-8.528415868084844947e+07,-1.813864371279939711e+08,-1.057936692241995931e+08,-2.831361250316545367e+08
-2.443745742531548440e+08,-1.926325257171576917e+08,-4.512384657447560132e+07,-1.893696851030071378e+08,-1.388472026633190215e+08,-2.957575854340943694e+08,-2.731692334247385859e+08,-1.875629920369150639e+08,-8.897448248151117563e+07,-7.712904290589696169e+07,-2.868579994912667871e+08,-7.238703346973137558e+07,-2.756793602794743776e+08,-2.656753882439093590e+08,-1.167867314584928602e+08,-7.296357805781425536e+07,-1.081655238799750209e+08,-2.180953367301202714e+08,-1.328993225324886888e+08,-2.837671241328267455e+08
-2.655255574654728770e+08,-2.129103469011448622e+08,-5.555550729546518624e+07,-2.080243023656641841e+08,-1.564140242438593209e+08,-2.702331646977625489e+08,-2.517465999826241434e+08,-2.067755670765452981e+08,-1.032442043750780076e+08,-9.042276926387268305e+07,-2.680463125990747511e+08,-8.537396508662764728e+07,-2.503107324774559736e+08,-2.683653405899700522e+08,-1.333774429630440027e+08,-8.560696494091509283e+07,-1.239032180919903070e+08,-2.371238825036691129e+08,-1.503361902058780789e+08,-2.586316829461643398e+08
-2.718758404722691774e+08,-2.195707733847801685e+08,-6.167294457129215449e+07,-2.139804569538536072e+08,-1.629144061352975368e+08,-2.562592972291559875e+08,-2.400292800798164606e+08,-2.128583520078490078e+08,-1.098896946715175360e+08,-9.680632394822497666e+07,-2.570585226846638620e+08,-9.177203664775764942e+07,-2.371020042313086092e+08,-2.664319344165274501e+08,-1.402689829147864282e+08,-9.188819572460229695e+07,-1.306097998904595971e+08,-2.422575263330419660e+08,-1.569701517604470849e+08,-2.454736424120987058e+08
-2.607874271702812612e+08,-2.117078097450852096e+08,-6.475225112043192983e+07,-2.059556519562979043e+08,-1.587578914324680865e+08,-2.351222352937854528e+08,-2.214349377542946637e+08,-2.048627608206765652e+08,-1.099397969781282395e+08,-9.735266256506785750e+07,-2.374952207006122768e+08,-9.271702616791962087e+07,-2.181177397920441926e+08,-2.494721232290050387e+08,-1.382512857803159952e+08,-9.274755633205485344e+07,-1.291089743925093561e+08,-2.320110727061084509e+08,-1.534162102465149760e+08,-2.260186631106776893e+08
-2.264904642921701968e+08,-1.847601739741525054e+08,-5.801936877385389060e+07,-1.796682607915452123e+08,-1.392512117665340304e+08,-1.926054051337943971e+08,-1.820225840198220909e+08,-1.788044239846162200e+08,-9.713352091410849988e+07,-8.607464257168389857e+07,-1.963073711566466093e+08,-8.208445352953311801e+07,-1.785681344148459435e+08,-2.106294973061684966e+08,-1.216389581710813195e+08,-8.209335661919707060e+07,-1.136923472162791044e+08,-2.016722546056832373e+08,-1.345883774129748940e+08,-1.852808152410154343e+08
-1.746364504834889770e+08,-1.430017537579908073e+08,-4.913377386315356195e+07,-1.390634928876900077e+08,-1.087219850633511394e+08,-1.371802174800203741e+08,-1.307326157596880645e+08,-1.381953503617416620e+08,-7.812045747573369741e+07,-6.959269843584121764e+07,-1.417293435991060138e+08,-6.672013108479163796e+07,-1.277306935787036121e+08,-1.561311917851829231e+08,-9.615146872605225444e+07,-6.675108417379312217e+07,-9.019228800803105533e+07,-1.541130400754037797e+08,-1.052334511903930008e+08,-1.327225565030311048e+08
-1.289175472578674555e+08,-1.051301300320115983e+08,-4.159091529621849954e+07,-1.025252842558243126e+08,-8.059536378681285679e+07,-1.036042023763121814e+08,-1.000835658253495395e+08,-1.015017813550936878e+08,-6.086372940476905555e+07,-5.472505953014383465e+07,-1.076476996098431051e+08,-5.288891843835601211e+07,-9.818909612716960907e+07,-1.162772946724869609e+08,-7.270901103449870646e+07,-5.289832718676165491e+07,-6.865797183953806758e+07,-1.114861266130545288e+08,-7.830050763794630766e+07,-1.017092644602579623e+08
-8.987108154223479331e+07,-7.216818647817547619e+07,-3.305247808655106276e+07,-7.085175993396379054e+07,-5.574955780157065392e+07,-8.782626488488714397e+07,-8.524679479924219847e+07,-6.967175689489418268e+07,-4.450450480583056062e+07,-4.033986839069983363e+07,-8.942574501276211441e+07,-3.931831070934598148e+07,-8.513179268552279472e+07,-8.742343763042333722e+07,-5.138810105282538384e+07,-3.933882001479090005e+07,-4.892132266997151822e+07,-7.594455795080931485e+07,-5.439824584080336988e+07,-8.756471631472536922e+07
-6.159904320600400120e+07,-4.851527618557155132e+07,-2.481201339552202821e+07,-4.786872259216812253e+07,-3.765987828068873286e+07,-7.677082658507241309e+07,-7.419240741141018271e+07,-4.682751818970666826e+07,-3.147320374679693207e+07,-2.865299705783832446e+07,-7.605523625624805689e+07,-2.813223091861286387e+07,-7.540795470827431977e+07,-6.639014961578883231e+07,-3.530533865026080608e+07,-2.821466074916329607e+07,-3.385450746316485852e+07,-5.125284378764625639e+07,-3.684825074413587153e+07,-7.710989730128221214e+07
-4.030514248467256129e+07,-3.146615411399782449e+07,-1.783765418587126583e+07,-3.106078402382589877e+07,-2.476968910124471039e+07,-5.994197207633566111e+07,-5.774499311026239395e+07,-3.030220889777440205e+07,-2.159531035152415931e+07,-1.974312596738948300e+07,-5.833211207024645060e+07,-1.951141966542489827e+07,-5.927634564901026338e+07,-4.700698602645352483e+07,-2.361720244855548069e+07,-1.958088287107503787e+07,-2.280350596369590238e+07,-3.339993851316022500e+07,-2.431446018280356377e+07,-6.048870909441765398e+07
-2.523794704615931958e+07,-1.958591573633390665e+07,-1.095166193044812046e+07,-1.931738207533929124e+07,-1.535679391769187711e+07,-4.280514217141988873e+07,-4.102948264384216815e+07,-1.890140586872893199e+07,-1.324220486970020272e+07,-1.204885590508964844e+07,-4.122275250199288875e+07,-1.190221715738687292e+07,-4.230761827275580913e+07,-3.194445684317643568e+07,-1.452030328904099017e+07,-1.197253187803805247e+07,-1.402423261461949535e+07,-2.112845152275416255e+07,-1.499908840977763943e+07,-4.315618831391955167e+07
-1.492629410711716861e+07,-1.147580031616448984e+07,-5.366893571881112643e+06,-1.132123074319425039e+07,-8.709060610866297036e+06,-2.596284369215529040e+07,-2.465121785800093785e+07,-1.113111865758015402e+07,-6.975027447472869419e+06,-6.258469818965366110e+06,-2.487218417621927336e+07,-6.129979959657792933e+06,-2.538295566685107350e+07,-1.939497233883780614e+07,-7.949221876317185350e+06,-6.207729249485708773e+06,-7.604701833841635846e+06,-1.263456755369550176e+07,-8.398594451336285099e+06,-2.591224850275885314e+07
-6.515483404659872875e+06,-4.869156820772668347e+06,-1.219235381993860472e+06,-4.881112721294235438e+06,-3.272855083635664079e+06,-1.098901950437945127e+07,-1.012454947607707605e+07,-4.767468715046112426e+06,-2.123912941369770560e+06,-1.792955474928879412e+06,-1.038891226074291207e+07,-1.697267453699448844e+06,-1.049100827248772234e+07,-8.308013340955617838e+06,-2.717364511923741549e+06,-1.812124459574098699e+06,-2.532598869364993181e+06,-5.438218645599206910e+06,-3.050869678982238751e+06,-1.073975361038787849e+07
-1.673593172165235737e+06,-1.267410541234035976e+06,-2.308432520583550213e+05,-1.274364159890650539e+06,-8.317068379349227762e+05,-2.310376974252408370e+06,-2.108132803030269220e+06,-1.244159424779309658e+06,-4.959458855890764971e+05,-4.087071133362178225e+05,-2.200480083146911114e+06,-3.775623739081588574e+05,-2.175711251737041399e+06,-1.892016717119259061e+06,-6.725050412632678635e+05,-4.095005825630054460e+05,-6.194655827132572886e+05,-1.412714708907530177e+06,-7.726013922163450625e+05,-2.233648192603175063e+06
-3.824029333883021900e+04,-2.618957918613501170e+04,-2.906391517171711712e+03,-2.749084298479733843e+04,-1.293407978672494210e+04,-6.969226184840772476e+04,-6.218774536123941652e+04,-2.532545435228712086e+04,-7.102357767447483639e+03,-5.259130397630892730e+03,-6.426049374823408289e+04,-4.766213549076384879e+03,-6.583945364174948190e+04,-5.080749417413577612e+04,-1.006326616815623674e+04,-6.358257333978181123e+03,-9.162794144353219963e+03,-2.699602172959573363e+04,-1.127143105055781416e+04,-6.716354785811997135e+04
1.285733215340553182e-01,4.925265673718476345e-01,1.062261202864619447e-01,7.123113917181986832e-01,5.639976029743547503e-01,8.159261013579056643e-01,6.628116111341583183e-01,7.676191388670903226e-01,4.431463603016738695e-01,5.467787051251156161e-01,9.466657585150695109e-02,5.988805269282126975e-01,1.684571275854285233e-01,9.047762735660527245e-01,7.144052426384125409e-01,1.598739950201696347e-01,8.591278711675618407e-01,8.153493740865569439e-02,9.786850492686427483e-02,3.917917902041245792e-01
-4.921685304698170853e+02,-3.247771578624013955e+02,3.869259957141076711e+02,-3.936544619542377177e+02,2.365005301646969258e+02,1.188424334227835288e+03,1.286818914397376830e+03,-2.798635811020842539e+02,4.156091905556671122e+02,4.407450569578003297e+02,1.084460482915477314e+03,4.451491812652710678e+02,1.246732040820056227e+03,3.745963054342723808e+01,3.338622033605559523e+02,3.148360872982917158e+02,3.648808179233725468e+02,1.105362439624315130e+02,3.577278884826923218e+02,1.255261737249847783e+03
4.393828629960246326e+04,5.291680956804007292e+04,1.225498592275046249e+05,4.743202411879159627e+04,8.459939075296098599e+04,-4.557353283197714336e+04,-1.056821349384006680e+04,4.789405841401027283e+04,1.107874786675297946e+05,1.096996424754400796e+05,-1.623717372596811765e+04,1.121084543169253448e+05,-2.111026804865925442e+04,5.956707290964593994e+03,1.024675847540358664e+05,1.002192590909800492e+05,1.040855718394959695e+05,5.038991400091885589e+04,9.455580885151888651e+04,-2.379038447708300737e+04
-8.590045962052271934e+05,-5.408409438173657982e+05,1.269740711900664755e+05,-5.922144914440703578e+05,-1.991809009672467946e+05,-1.322690569769439287e+06,-1.160605935135498876e+06,-5.485044570427098079e+05,5.010510284226723343e+03,4.587348304374024883e+04,-1.227934601863330696e+06,6.592623337252136844e+04,-1.235435453095201403e+06,-1.050864893784637097e+06,-9.502622282045990869e+04,2.158851501893084060e+04,-6.562022016435634578e+04,-6.075729170005373890e+05,-1.571354140881950152e+05,-1.258078133637618506e+06
-4.864805699091149494e+06,-3.342316715494155418e+06,-2.187691408588010818e+05,-3.519316042619674932e+06,-1.757602338585677324e+06,-8.733875455450935289e+06,-7.854618305389518850e+06,-3.301004033003619872e+06,-8.566346802323539741e+05,-6.141500236504541244e+05,-8.094475713658083230e+06,-5.303225428716831375e+05,-8.287385899975808337e+06,-6.446981052772371098e+06,-1.327299776008290937e+06,-7.053563949282024987e+05,-1.189487347138494486e+06,-3.683784034421897959e+06,-1.576900915092605865e+06,-8.449973054362870753e+06
-1.303163523214348219e+07,-8.975085501127464697e+06,4.004392052062338917e+04,-9.420224057001007721e+06,-4.770181609698853455e+06,-2.546267977094514295e+07,-2.275013816827705503e+07,-8.885987673800403252e+06,-2.012253956676830538e+06,-1.348561118145037442e+06,-2.340164098008089140e+07,-1.083201712459113915e+06,-2.394935874558801576e+07,-1.812908816143889353e+07,-3.426795777765202336e+06,-1.484684780021045357e+06,-3.043012470836189575e+06,-1.036720398004316539e+07,-4.267117356239908375e+06,-2.445360675122887269e+07
-2.856968116911771894e+07,-1.997683856778591499e+07,3.979143297245819704e+05,-2.074131826882873848e+07,-1.101589910615097731e+07,-5.530119487105782330e+07,-4.931234731539689749e+07,-1.975144286261848360e+07,-4.538238877910110168e+06,-3.087183514061463531e+06,-5.078608618743234128e+07,-2.474049652080366388e+06,-5.179784306943719834e+07,-3.955081500983475894e+07,-7.849399323863510974e+06,-3.215883125762173440e+06,-6.950932745721166022e+06,-2.346747543228739500e+07,-9.876663819485494867e+06,-5.292148856176461279e+07
-5.311866570086136460e+07,-3.764226899450446665e+07,-1.318628889649934834e+06,-3.868938778144098073e+07,-2.184595543887208775e+07,-1.030437010794034153e+08,-9.231489353531239927e+07,-3.702139179906595498e+07,-1.024042932041941956e+07,-7.563491959104920737e+06,-9.474124875810460746e+07,-6.481043746711515822e+06,-9.684262752379694581e+07,-7.328212858027569950e+07,-1.616831457412044145e+07,-7.746999219586182386e+06,-1.448320718612348102e+07,-4.400212012895222753e+07,-1.976385525437186658e+07,-9.888752422688835859e+07
-8.897765948268432915e+07,-6.334022515389446169e+07,-4.578928996568263508e+06,-6.487313068726348877e+07,-3.772600237081225961e+07,-1.730192913571782708e+08,-1.556867252974122763e+08,-6.221042299777348340e+07,-1.907628112476006523e+07,-1.460989203830324113e+07,-1.593197801326216161e+08,-1.288949883686958440e+07,-1.631493158291451037e+08,-1.225588854987003952e+08,-2.860205903357541189e+07,-1.492756177791320533e+07,-2.584056472863201052e+07,-7.375360518876706064e+07,-3.441179046528664976e+07,-1.665258938088371158e+08
-1.345490048332496285e+08,-9.578202511748810112e+07,-9.556558680323783308e+06,-9.797984791215047240e+07,-5.802115611597801745e+07,-2.663255026611843407e+08,-2.405190403364861012e+08,-9.402816212296745181e+07,-3.089949779884208366e+07,-2.419333718270158768e+07,-2.454984850261503458e+08,-2.168677660050716251e+07,-2.518734899589125514e+08,-1.872490963299653232e+08,-4.477983278316210955e+07,-2.460395048385015875e+07,-4.071205302879994363e+07,-1.116219057938095927e+08,-5.331765914439706504e+07,-2.570476852887013853e+08
-1.915733158388411701e+08,-1.370573255294355154e+08,-1.449203078448269702e+07,-1.398438883451038003e+08,-8.306449676936861873e+07,-3.701121100993340015e+08,-3.342129834264672995e+08,-1.343530718504009545e+08,-4.470312957462386787e+07,-3.511989089497304708e+07,-3.415989053476825356e+08,-3.157821634737958759e+07,-3.497496098506740928e+08,-2.625830313309460282e+08,-6.434804746039117128e+07,-3.596008147596611083e+07,-5.851983550282485038e+07,-1.582916272194438279e+08,-7.632580318200972676e+07,-3.571951971665513515e+08
-2.461503659256482124e+08,-1.781434963632672429e+08,-2.087672053888047487e+07,-1.809699139711782634e+08,-1.089565420913178772e+08,-4.509860745569926500e+08,-4.071772338074948788e+08,-1.742497584075737894e+08,-5.986528665965133160e+07,-4.748099278344022483e+07,-4.172936499226889610e+08,-4.294053726652200520e+07,-4.253504853142669797e+08,-3.263510404881379008e+08,-8.517830129068678617e+07,-4.864404694245275855e+07,-7.759558709775988758e+07,-2.032102386054850519e+08,-1.003554341977632791e+08,-4.348737823587716818e+08
-2.880117917492734194e+08,-2.121142287273848355e+08,-3.126723921823989600e+07,-2.142843897000241876e+08,-1.329891012535310537e+08,-4.866599786951400638e+08,-4.404439440065099001e+08,-2.069665697210861444e+08,-7.653776140541379154e+07,-6.207845838490356505e+07,-4.532681975818247199e+08,-5.685814321150081605e+07,-4.584556064255494475e+08,-3.641241764814477563e+08,-1.060834603079015017e+08,-6.313064082063032687e+07,-9.709279835361963511e+07,-2.380543178455778062e+08,-1.232759314052463919e+08,-4.692529895490280986e+08
-3.111566215492402911e+08,-2.340155406908923984e+08,-4.344061027674482763e+07,-2.351163588528543413e+08,-1.509110137913553417e+08,-4.552299711985920668e+08,-4.137178321862992644e+08,-2.277019162132849991e+08,-9.157911329332186282e+07,-7.609080971911117435e+07,-4.298594477386066318e+08,-7.060685990045747161e+07,-4.279192916926542521e+08,-3.650762444506919384e+08,-1.233050265373092443e+08,-7.675940209491206706e+07,-1.135374944620391279e+08,-2.567050103887618482e+08,-1.409980731457896233e+08,-4.388020752293451428e+08
-3.136864942279313207e+08,-2.399847379508214593e+08,-5.475815351743362099e+07,-2.400334919670840502e+08,-1.590067218616696000e+08,-3.981148873502548933e+08,-3.642488123418968916e+08,-2.328896582203248441e+08,-1.019952452697653174e+08,-8.656795529930205643e+07,-3.822780011267397404e+08,-8.132675071361897886e+07,-3.739175355523097515e+08,-3.443469319863135815e+08,-1.331594982392689884e+08,-8.689372481112533808e+07,-1.234222793695395738e+08,-2.578222679724172950e+08,-1.497320298180761635e+08,-3.841160981111896038e+08
-3.099950445753713250e+08,-2.381486799682126045e+08,-5.970126685434207320e+07,-2.383899967852374613e+08,-1.583823961186202466e+08,-3.596361517367814183e+08,-3.299196557298468351e+08,-2.308229115702779591e+08,-1.045900673802283555e+08,-8.944459556707762182e+07,-3.488459581002340913e+08,-8.452198767019207776e+07,-3.378677418365629315e+08,-3.264285895456251502e+08,-1.343421275616102815e+08,-9.019727906939269602e+07,-1.249250493512031734e+08,-2.514556269886792600e+08,-1.494237687483294010e+08,-3.473386362830279469e+08
-3.023333980262342691e+08,-2.315769515015046000e+08,-6.116027509822918475e+07,-2.325444893602704406e+08,-1.534286393719116151e+08,-3.428810172573482990e+08,-3.146369016286760569e+08,-2.243802226626750827e+08,-1.032308798339860439e+08,-8.843015023419047892e+07,-3.332518190430105925e+08,-8.384877842887997627e+07,-3.229421194447197914e+08,-3.132641508378271461e+08,-1.311103880918677896e+08,-8.981145597015348077e+07,-1.222131175692147315e+08,-2.424254124713273644e+08,-1.446915627207641900e+08,-3.318495313003748059e+08
-2.878758582899136543e+08,-2.192946183699249327e+08,-5.822758466729247570e+07,-2.212076784530011714e+08,-1.442838246101897359e+08,-3.301703080183888674e+08,-3.026924092299996614e+08,-2.127198896534172297e+08,-9.741850509257438779e+07,-8.319629548740302026e+07,-3.204733956649757624e+08,-7.892376068142144382e+07,-3.118951579339427352e+08,-2.986614637023668289e+08,-1.234060214776528329e+08,-8.496859996957856417e+07,-1.151095914713426828e+08,-2.291146753178516030e+08,-1.358000814621071517e+08,-3.202270005320667624e+08
-2.536406948052420616e+08,-1.921928716794127822e+08,-5.241268695119531453e+07,-1.944840042480107248e+08,-1.260390588181364238e+08,-2.961842337395902276e+08,-2.720664480099790096e+08,-1.866292159586029947e+08,-8.586111308493745327e+07,-7.328847519816832244e+07,-2.873920678007454872e+08,-6.964717429160904884e+07,-2.808999514580470920e+08,-2.649528398898663819e+08,-1.081446848397309780e+08,-7.512716655282628536e+07,-1.010107687201478332e+08,-2.005284042659250200e+08,-1.185537522874077111e+08,-2.881424383061851859e+08
-2.133225811807738543e+08,-1.595684632947813869e+08,-4.463904618529903144e+07,-1.621932657677853107e+08,-1.039509123877585381e+08,-2.759773545513998270e+08,-2.542796487915769815e+08,-1.552968329572888315e+08,-7.134438424709479511e+07,-6.087185614647697657e+07,-2.659138493077394068e+08,-5.792688953110916167e+07,-2.634787713972866237e+08,-2.348283409069390297e+08,-8.921775446745273471e+07,-6.265918243951731175e+07,-8.344216628019168973e+07,-1.672901791063959002e+08,-9.769655511970168352e+07,-2.696448913472031355e+08
-1.691696168547799587e+08,-1.246672021806079447e+08,-3.731587636221307516e+07,-1.272379059089224935e+08,-8.109211601200529933e+07,-2.478480435346464515e+08,-2.289786826979751289e+08,-1.214518578900592923e+08,-5.701596485690343380e+07,-4.881278025339324772e+07,-2.365576208762225509e+08,-4.665986470640659332e+07,-2.381888201910200119e+08,-1.980022990599258542e+08,-7.005931496090143919e+07,-5.041623272994495928e+07,-6.579612529859951138e+07,-1.318516671948180795e+08,-7.641253118226845562e+07,-2.432635110979538858e+08
-1.260461566803124994e+08,-9.225103811978012323e+07,-2.871328940401393920e+07,-9.408389958977209032e+07,-6.034002888972840458e+07,-2.022684909809330702e+08,-1.870086177134033740e+08,-8.987199664653909206e+07,-4.305310726496978104e+07,-3.687304342605900764e+07,-1.915722535708814859e+08,-3.536106234381805360e+07,-1.950534331039408147e+08,-1.539472024848505855e+08,-5.234739130983422697e+07,-3.819110957258696854e+07,-4.928971245870089531e+07,-9.884473119106200337e+07,-5.694646662076376379e+07,-1.990214559936484396e+08
-8.420702191191269457e+07,-6.215221933374213427e+07,-2.270915706725204363e+07,-6.291699209295973927e+07,-4.236993700352288783e+07,-1.421071303349989653e+08,-1.322463949537297934e+08,-6.040676368287935108e+07,-3.182155181001838669e+07,-2.767179131625413150e+07,-1.345940303071280718e+08,-2.679546256917876378e+07,-1.377961323577982187e+08,-1.056224817786692977e+08,-3.755687098619804531e+07,-2.844860270093454421e+07,-3.560879472410772741e+07,-6.692269893017773330e+07,-4.024073792097343504e+07,-1.405671181887624860e+08
-5.577319404749755561e+07,-4.147239423989534378e+07,-1.648680306692613661e+07,-4.174793475915952772e+07,-2.900577055062984675e+07,-9.657959724732309580e+07,-9.038838943411614001e+07,-4.028016320579783618e+07,-2.233075863368690014e+07,-1.960637323817226291e+07,-9.167076840764017403e+07,-1.906755202917107940e+07,-9.399613506865762174e+07,-7.120806477521249652e+07,-2.596699324108561501e+07,-2.000661016945992783e+07,-2.470769842299477383e+07,-4.483378258194676042e+07,-2.764680294608621299e+07,-9.587668788682882488e+07
-3.493058239380695671e+07,-2.593678481662807986e+07,-9.485632329813808203e+06,-2.606092865238706023e+07,-1.790443015039604157e+07,-6.106337566253669560e+07,-5.698180205900432169e+07,-2.521307963454376534e+07,-1.337204713783943467e+07,-1.166399912660268508e+07,-5.784271120762743056e+07,-1.129261387127521075e+07,-5.919265154416345060e+07,-4.495445901309771836e+07,-1.579849060391641408e+07,-1.189688603821250424e+07,-1.498168441209836118e+07,-2.819597822441070154e+07,-1.696935952918610722e+07,-6.043251958575986326e+07
-1.569020411935997196e+07,-1.154463188517536968e+07,-3.249990840156851336e+06,-1.162574797994960286e+07,-7.614148985289656557e+06,-2.776152702529234812e+07,-2.559456938095469773e+07,-1.124634363068069145e+07,-5.231754956155316904e+06,-4.449261246153997257e+06,-2.609187047352494299e+07,-4.246920863096493296e+06,-2.663347145295196399e+07,-2.026456533384499326e+07,-6.464652092850696295e+06,-4.578765840411733836e+06,-6.069741410933925770e+06,-1.269427006473141350e+07,-7.121459734796153381e+06,-2.723702781067091599e+07
-3.343708096762030385e+06,-2.475204775106747169e+06,-7.219154288698647870e+05,-2.493857140376219060e+06,-1.653858625333810458e+06,-5.649029528670858592e+06,-5.204537500422284938e+06,-2.407215438071455341e+06,-1.152071201053960249e+06,-9.874122431887804996e+05,-5.309873563035934232e+06,-9.444074337255676510e+05,-5.415704521541235037e+06,-4.159693911701738369e+06,-1.415570308115168242e+06,-1.012179489010748570e+06,-1.332945443003836786e+06,-2.703518043716196436e+06,-1.552435944259513402e+06,-5.535664130953410640e+06
